{"sizes": [16, 24, 9], "weights": [[[0.2534723874829807, 0.08173344580881887, 0.1267357425782491, 0.05970530834323345, 0.13427852798325565, -0.02589422330339207, 0.2541379273870482, -0.07288413943170188, 0.1841670996990723, 0.3263342514510998, 0.2558519600486968, 0.36907463317277006, 0.015270694233944258, -0.13503994343944664, 0.12823422311510782, 0.2971593011661464], [-0.029365560269075795, -0.0357005073128383, -0.24660396127223733, -0.12034976741080956, -0.13289107609077794, 0.39269607834288933, -0.10591703319889206, -0.4438966526799699, -0.1974602610567076, 0.06730716934068641, 0.20613587748000667, -0.3928134805654137, 0.13095325043886052, -0.12053552526868996, -0.17941162595447852, 0.395090253050753], [-0.02892680476712274, -0.25473188234638605, 0.12033870572791891, -0.40556159996031166, 0.37669992355541626, 0.03772129115152766, 0.10344011020726697, -0.3062530233470052, 0.27437289744863214, -0.14785385158764022, 0.3770215304357304, 0.20319366167924985, 0.12216580347225824, -0.33232152647741175, 0.2605564822113794, -0.25356939344579], [0.31789633681801255, 0.02546309331393968, 0.12874385764826696, -0.2802111479085429, -0.4313789430292169, -0.26776876128093996, 0.1950676424320531, -0.11144602459250198, 0.09430867472593484, -0.37591026025756574, 0.27991732042512896, -0.3806852219981921, 0.15268505432793775, -0.2563461246199798, 0.29865116761663274, 0.11263040395035509], [-0.166128423336291, 0.4559982169462745, 0.2017122560281766, -0.20907180529999872, -0.1844646566570697, 0.07011291033659751, -0.05918492887534131, -0.1272419030905639, -0.03819905935287747, 0.349228340515792, 0.08351650314660955, -0.48886150054138244, 0.18491471722975428, -0.15971143097355342, -0.11366719167632086, 0.26758819445307663], [-0.041923833624263905, 0.10345599974345593, -0.01989928544303783, 0.07201003749685327, 0.22444002998649182, 0.3879007325237516, 0.45003030370308855, -0.37405248923683354, 0.04030648671439773, -0.11782148526311315, -0.21697892237168978, 0.19609682303748321, -0.84400184455976, 0.17153533343531993, 0.07905472098511016, 0.4202400340158959], [0.0474307061789878, 0.019151206397521818, 0.3046270597396462, -0.46170728445902764, 0.7214749710425647, 0.16452701038374007, -0.19382617544870548, -0.0016049925683506133, 0.2746649463700715, 0.4600370019038091, 0.008406934605533102, 0.08941002958743034, -0.334945221847901, -0.394812339514069, -0.15554513708374976, -0.25668487257192174], [-0.11392453546190738, 0.20504670065011613, -0.005974472029664262, 0.12659262700727866, 0.04222432552864286, 0.03002973453544184, -0.08298640369878182, -0.008389196500690699, 0.15521429136901138, -0.3305060122961824, 0.5854318010684129, -0.6889073926207478, 0.07850270122336643, 0.05920562283909079, -0.005249021709467878, -0.12718769139913721], [0.1573981299636455, 0.1574763634962756, -0.14293874497328182, 0.1295771945181931, 0.05570959990683475, -0.18519735528504788, 0.3884542919883982, -0.010801391597930133, -0.22639216423740774, 0.13831457701517874, 0.13880430870567792, -0.202501151546728, -0.13878023396403408, -0.014744384285994358, -0.05704193389976983, -0.08594389312100056], [0.00422767110712306, -0.17192289907509445, 0.12290427604268549, -0.30687061274788324, 0.1822160848356519, -0.2708936599509085, -0.3207088203861757, -0.0021198783094098375, -0.24834469383073113, 0.2528888635048397, -0.10423107120529124, 0.085519429997115, -0.004245967888597402, 0.57681622809546, 0.39824219028112734, -0.05789547233037497], [0.5327945849643146, 0.18425264689529292, 0.0055959224810022135, -0.1690371544143948, -0.2450914233178886, 0.06066445230364071, -0.6181427090419416, 0.17588267574595912, 0.5639735872627591, -0.18876016022030548, 0.2803142064371564, 0.1687671646398865, 0.5055490978612506, -0.4850733123958551, 0.0569032151633007, 0.3781554799449424], [0.2524234983115197, 0.17785503332669725, -0.03919698574898737, 0.0930443934328198, -0.03272799930865828, 0.28927599195071596, 0.40847447783945756, -0.6850656401534978, 0.05173250137549121, 0.3811622665848685, 0.27571119160787894, 0.05806995880227695, -0.13414458891929776, 0.0319279117674574, 0.3480315578108007, -0.20411400101986132], [0.6137329726817875, 0.5167113317563548, -0.030044583984322165, 0.029472939315333086, -0.3979833690558449, 0.40045738445589807, 0.19161878276045102, 0.04248223296358045, 0.39724343133733503, -0.21319063385545584, 0.1269388802160962, -0.12098030217372288, -0.10982921757374166, -0.015751538331426115, 0.2840985653589757, -0.02170402400149835], [0.06514869453140652, 0.02192699290845708, -0.06051506643447124, 0.29681397474585836, -0.08912372335672643, 0.08983368970130777, -0.13910099593935038, -0.31653876389712987, 0.2947873245381941, 0.01235830552327143, 3.1461217052686726e-05, -0.21939116865844804, 0.17752017055316544, -0.0037962985791461833, 0.3323517330181112, -0.0610854797397743], [0.5752104748793563, -0.14483069063555398, -0.13646931619563807, -0.1543255670553024, 0.1998780495781541, -0.0963770505330392, -0.31056122857425694, -0.028632371139296963, 0.03647238812670733, 0.36468322760255534, -0.20693807247085885, -0.26393046413985705, 0.2772487767782362, 0.11331218245519245, 0.2700003002095446, 0.30925692965316176], [0.2724211081509521, -0.13477496097126132, -0.10351558450231509, 0.13848927665610847, 0.25550820736446866, -0.1168159870161131, -0.11094004167613251, -0.2709307140913907, -0.10103167433731827, 0.3390936510276822, 0.16044109496555378, -0.0664405728273234, -0.31081449342956374, -0.06434437433330084, -0.43317127622471624, -0.5384061485480788], [0.683018168355265, 0.21179833632769, 0.16753584586533543, 0.11098361944029425, -0.41210568590818625, -0.21754872414853196, 0.09147122229467947, -0.23184205438676606, -0.2527110441179698, 0.029357411716641076, -0.0007862020423146422, 0.08705851971700661, -0.2755700643146376, -0.27466043841652027, 0.1763170397665118, -0.33726189255857036], [-0.31569249667563815, 0.29858224652559917, -0.009869398378152568, 0.26615359731052624, -0.030961717396341452, 0.04544503511205016, 0.06714819171420369, -0.06959295543004468, -0.3613199610452578, 0.1160677294463433, 0.1713328684812276, 0.2691273746380839, 0.06726125296814969, 0.1852865890964011, -0.0048565356747095525, 0.5042321628486683], [-0.007428335825974479, -0.29093402232007204, 0.14739236149858864, -0.4467853177262098, -0.31389453289985453, 0.028083692182874185, 0.22210823851164352, 0.42749772593587504, -0.021885104742736815, -0.04529321619336195, 0.42296772573608926, 0.506574563071685, 0.1459021679007021, 0.37052591892765907, 0.3609859416424882, -0.08757797156345055], [0.2994057661156828, -0.039031401507204536, 0.15490153815754878, -0.3793290486274065, -0.01826777188919467, -0.20528764609080116, 0.04848620853861588, -0.3369507390996829, -0.08828716096159149, 0.42524330637316454, -0.3133134447610094, 0.4560316831361466, 0.15150814290405107, 0.0001499393287793585, -0.1921523198460995, -0.2351577753309875], [0.10234992581771356, 0.10941584640968985, -0.4023015179777025, 0.4214550415264593, 0.023478429704146576, 0.17747144397229486, 0.25824147177577816, 0.22379800944283426, -0.16803626304545535, 0.14800306157711263, -0.12230924534270184, -0.44402838568411257, -0.1283440410883505, 0.1215192413423437, -0.25524632749016746, 0.04928232006542347], [-0.2157220722574073, 0.33748430907062854, -0.19776132549568085, 0.28147280904488864, 0.13605646082874695, 0.011414597984211489, 0.01918200300464931, -0.25301519908632397, 0.33026051964469316, -0.16693989904059994, 0.547731523677024, -0.14352637118794018, -0.2474835329126852, -0.5388571409180145, 0.029426785211574404, 0.3212701314199656], [0.33143942700555246, -0.09995101098779458, -0.11336037151451514, 0.3773388384800549, -0.13352301086772825, 0.2895280840860523, 0.03690264207464241, -0.09076399486871377, -0.16326802885373992, -0.16880541982008948, -0.10297146227805853, 0.11753286580925808, -0.0008925424984551256, -0.1880749098160627, 0.7203373581939835, 0.21885637541855743], [-0.15209540340286545, 0.11995467261522577, -0.3368111851785274, -0.22308713878325004, 0.17804507999561076, 0.40577575707168895, -0.2641777875234066, -0.3204865701703441, 0.2787090704891811, 0.2832567787469811, 0.3090384419933503, 0.047763431534400824, 0.18908414686038752, -0.473397473914533, 0.5980433051388104, 0.04699914608006013]], [[-0.29701105374481684, -0.26769450383329096, -0.045265633151773337, 0.1173263150298841, -0.24251915577321492, -0.08844621021433066, -0.00045247776352885945, 0.1028012303407667, -0.20762666098000582, -0.11345533915606663, 0.12325008277590571, 0.20757114351750416, -0.5944905322955467, 0.10515919225527624, -0.21714503377416858, -0.22473266485277574, -0.3536973364130155, 0.3059053896948467, -0.017005758851058095, -0.18165446703370927, -0.2024082834358683, -0.23445472365088357, -0.0770556782110897, 0.22820867661929944], [-0.04526968923115946, 0.08268900324774722, 0.05821331133211741, 0.10720839145319559, 0.059213968475706244, 0.044732258774726794, 0.3060871417404438, -0.07180968008497936, 0.17868627428846837, -0.3026434075544047, -0.12375752500552847, -0.27445854945225207, 0.07803849527218655, 0.1054200918687311, 0.051881462621682826, 0.40395139669800056, -0.20435399743275562, -0.2918491885891131, -0.1801136963841608, -0.06983657347121397, 0.5332442744798848, 0.17062045902867384, -0.1571075914896409, -0.12001609861952094], [0.2537394614676984, -0.14590407724627713, -0.24569603555856062, -0.12051219901319615, 0.031417586877468665, 0.3042224099611463, -0.08415517937871991, -0.03199133078744168, 0.3474761456617728, 0.09650107796393259, -0.10032931569260525, -0.4883056712080912, 0.09674958978418699, 0.16629949449871612, 0.21302560158402434, 0.06413877966608722, -0.35204595305831893, -0.07116896911161988, -0.13038931457790726, 0.10214419872749858, 0.12436712258064822, 0.0661275764755214, 0.06933856582544598, 0.04763568265930828], [-0.23965824945921504, 0.26892994602796766, 0.09074534048573696, -0.1403812026264368, -0.11299439706996602, -0.1825047465667546, -0.33370766352085235, 0.1259628618338088, -0.1278352080186844, 0.1695304564543039, -0.307098906545584, -0.11697499973365906, -0.16764684139387914, 0.01598073140131637, -0.11897145172036133, 0.26511666431620634, 0.3087087744523251, -0.2262922952830732, -0.10617277448858989, -0.011142606844802689, 0.16831427716688868, -0.26877081989745544, -0.11246174426931445, 0.03762477956150726], [-0.25705163178014895, -0.0924959007498652, -0.368451383347375, 0.24078084060298807, -0.09108758209289408, 0.12448917428825745, -0.15657984083193185, 0.17788963430698615, 0.15458499020116992, 0.14385192922761686, 0.3337224792318523, -0.3980984676314663, 0.24041349469661738, 0.3159707066513307, 0.07583758151699337, 0.3407785330186796, -0.26988020771322546, 0.08192881674183289, 0.01658619213194066, -0.27202835969258343, -0.22499148128567106, 0.12368318022318238, 0.24007763222373663, 0.07661463851145342], [-0.11809042213013166, 0.25492033545491843, 0.25915209530120925, 0.3799791528780299, 0.1625251927741742, -0.1970538399180384, -0.15119071234344256, -0.006199288552052683, -0.08717016320546221, -0.040068083671150063, -0.13465826875510079, 0.4035539750455934, 0.006186152098663159, -0.23911581675853916, 0.1814440830672944, 0.3349392965574939, 0.4143288138033195, -0.00604708057132758, 0.009357408202603517, -0.25913503169442986, -0.15717493372687624, 0.01840947522504594, -0.07998339823775165, 0.1066289298853019], [0.1374416201066544, -0.24206925491628573, 0.18809250949323852, -0.09925332560381969, -0.18885495802568666, 0.041126584727239075, 0.2116724152492368, 0.2053301063503488, 0.048766391413532104, -0.21207258886559746, -0.14465640579085415, 0.3656479842680922, -0.1329510283874542, 0.04162286576874672, -0.3083184156077196, 0.14844444334204035, -0.06778921279441943, -0.30015808689207135, 0.22719656553886497, -0.33412274786630597, -0.3449150505057356, -0.33274060604370004, -0.2847140302986785, -0.3276791950388432], [0.0007536897203740494, -0.14636992489707848, -0.02047770168946282, -0.2342219542293783, -0.3428572848561347, 0.23915225782184754, 0.2973054778827735, 0.42291787726097, -0.09406772186573473, 0.09638458155202458, 0.2141536972847532, 0.21619446511457446, -0.27253749927745774, 0.05094787875243322, 0.4158960503483724, -0.2635857696969935, 0.25722772973904967, -0.23806966066745086, 0.1279553631481404, 0.1751768147431056, -0.243020719131278, -0.17393940350069498, -0.011584522933428924, -0.3698152279117028], [0.1339843117191409, 0.034923021142522194, 0.1624155241307121, 0.0359596396074342, -0.23552994576344216, 0.14702928087898756, 0.033466384633298554, 0.18264222476324904, -0.011781444793609397, 0.08990286722651486, -0.05384375053154925, 0.04164765216054915, -0.06485346361267877, -0.3704283830889963, 0.06165702789312617, -0.2112440438711788, -0.17937629251664633, 0.3045433702425177, 0.45047114914283154, 0.05376093892026289, -0.19015505924569692, -0.21806138826141494, -0.46090197445495024, 0.04322026943826366]]], "biases": [[[-0.21511056070403664], [1.0208385093760735], [-2.0490694365759308], [0.13766814424070073], [0.08312729274727768], [0.8432542692224013], [-1.3007027669181284], [-1.1604149072654388], [-0.15553993397552549], [2.5866048332992424], [-1.72187447024152], [-0.3057044357835171], [-0.8100625340678117], [-1.2286200873518738], [0.38403086191078306], [1.6318675172525636], [0.45565132371237493], [0.4457447922057563], [0.19739873847779033], [0.9218003635818088], [-1.477161256173051], [0.47845228453671446], [-0.5201035707759197], [1.1939923145986733]], [[-3.2464685628094543], [-0.9459064904296821], [0.2640451272209523], [-0.6900513686839987], [-1.565157148328438], [1.358787646153046], [-1.249430448678978], [0.9403905623023712], [1.5829261111269524]]]}