{"sizes": [10, 8, 6], "weights": [[[0.012652497024516127, 0.05499832200707515, -0.032323997614518436, 1.8264235168404255, -11.742290241141271, -0.03499637475273366, -0.010088392921848283, 0.04968797667416975, 0.6521131043226971, 5.165503237783526], [0.14189801264084223, -0.07513812307929123, 0.006430406251472078, -12.410110356580573, -7.330292070603906, 0.016237613059409562, 0.028027172370600532, -0.05905625354434832, -11.987226858008965, -7.023833410522158], [9.282799037508061, 4.801372041201105, 2.5490309767550916, 1.0524510498734976, 0.5269025448371034, 9.1699217326856, 4.47272634305513, 2.1390356175319782, 1.3600321766835803, 0.5657146687139322], [0.03522662372365677, 0.014372230333969768, -0.04692471006617213, 4.879646344324159, -9.774896048847877, 0.08975550110981663, 0.0664199240590309, -0.07225541391288315, -0.2778516406414716, 8.620815971362381], [-4.491592055269159, -2.3604525939281777, -1.6195587431563179, -0.7612303680665091, -0.5618436302131617, -5.217154531984068, -2.4657977171689764, -1.1988306484080509, -0.21603230579986077, -0.1477958479779299], [-18.16179491923947, -9.101213206629602, -4.781265335630248, -2.3286062017365525, -1.1814251606735662, -18.21782607467579, -9.093462971310473, -4.5111682883904765, -2.573359407812924, -1.2608824440049975], [-25.42736026113201, -12.714228206547473, -5.861496523250771, -2.562572693755157, -1.3926666250795938, -25.116185271338832, -12.485050910736462, -6.293362516150307, -3.1344189962082307, -1.2409160066631113], [-0.018026350281277793, -0.42705876106758683, 0.4362184883763344, -8.331767685488208, -4.090160288057437, -0.31673716016818837, 0.013064406606742815, -0.5711528213391543, -6.67793394423673, -4.056622452495209]], [[-2.394714460407524, -5.797910269366232, 8.233332968077614, 3.546649724584532, -8.563964803114185, -4.081858520403095, -14.903698793170417, 5.75081384670859], [0.024173705122402984, -0.2232597996070954, 14.646462688847155, -0.6445552005023553, 4.421459842348056, -18.990032761946015, 13.659141749169002, 0.9616472747434868], [0.09455481711496161, -0.5669836592569596, -1.8884394496498635, 0.10930346558462314, -18.74994037679528, 4.394912404020327, 14.857436308702422, -0.31742695998038584], [0.11917917379338225, -0.03550541762358948, -0.47646218512418986, -0.5112334464618692, -3.643476843354327, 0.9221850554681719, 2.5059423431183694, -0.41936203566143254], [-8.398492554677883, 16.61696258571694, 0.3981085708956017, 7.638511963828198, 1.8764446048009034, -0.5980728197280256, -1.273946215075164, -19.942969356835047], [19.657091529385227, 1.3623549921104616, 0.34096086038607504, -19.61632601407066, 0.2003461553518987, -0.08781398417928885, -0.13389359041954182, 0.8601918533277106]]], "biases": [[[-2.604044065812804], [20.90583574722961], [-27.153077861264425], [1.693312301713146], [8.165686054622643], [18.07152642538405], [50.13503055304573], [6.255581946511549]], [[10.197638560622304], [-6.671384304436483], [1.2818288047685231], [-0.056604656334279135], [-7.5318384350336185], [5.3425808879409]]]}