{"weights": [[[4.617547349715718, 2.210530519436342, 1.0384719781317384, 4.617539014095094, 2.2105299927876723, 1.1567952364297447], [-1.6363425033666723, -0.16874328074956269, 6.205369619485559, -1.636240420279124, -0.1687462756494627, -6.118187458328599], [-4.6596798746234604, -2.3825549184609383, -1.1054446584994344, -4.659676193626087, -2.3825552768480422, -1.1966870180717073], [-1.644972546291859, -0.25135714473437376, -5.202890431325988, -1.6450300491443004, -0.25135619374538354, 4.748805722627671]], [[-9.161133373770133, 3.1761217870987077, 0.9907292974802433, 3.441424394405416], [0.42355153348566105, -6.872771212473785, -0.8815964475362517, -6.9335456882293975], [-0.8524356834194414, -4.606318616323216, 6.301409481300958, -4.524064083785879], [-7.917279644571451, 3.177352324221971, 15.841753764805675, 3.7302254313829986]], [[-1.229733948101231, 2.803245327621058, -3.621190181634437, -10.652333818196176], [-10.78957468822238, 4.101153449878194, -6.6212532784802, 11.382214169802458], [3.125388385045931, 5.455639651592051, -8.986486783586283, 6.592985341554228], [0.31575745569189123, -10.101758196362043, -7.272197797938635, 2.37819383850573]]], "biases": [[[-4.11897923855702], [-2.4366004043963447], [8.708759797539138], [-0.8840634599909507]], [[0.8147905497307528], [2.9801800640948604], [-0.158647639701534], [-1.618094208382595]], [[5.529429954520422], [-2.4166858585252253], [-1.9506003858011254], [6.890255992078903]]], "sizes": [6, 4, 4, 4]}