{"biases": [[[-0.04641055389611152], [-0.5527539747660339], [-0.6788668128508352], [-0.2964491765300111], [-1.5418779961831244], [-0.378380471560429], [-0.4444972368357824], [0.14970856280411066]], [[0.6822692738754011], [-0.17200146219663115], [-0.6368944610804578], [-0.711084490909449]]], "sizes": [6, 8, 4], "weights": [[[-0.08902151476005385, 0.20728859508173608, 0.26577087013648143, 0.6246011515439618, -0.44066780091226404, -0.14054902245952933], [0.4014011167052039, -0.015887628000246082, -0.5577876504704804, 0.9404606009943972, -0.19356417143626406, 0.8427083040064666], [-0.3802226756929394, -0.1412032272081751, 0.18434299456201694, 0.2701601685459723, -0.30691326255701157, 0.3821608053750161], [-0.4678907621085721, 0.22976973815658236, -0.14995458374141254, -0.19597572103677177, 0.12904570605072616, -0.26135326202100645], [-0.14919734127560774, 0.009516526860547124, 0.24115997586125063, -0.22303374677515866, 0.457233544913706, -0.22871011174907813], [-0.06510648219162661, -0.6214914622358348, -0.2620183138406154, -0.054995980213961855, 0.03746901006422775, -0.3272639242881511], [-0.5454286374628439, 0.2558008866581044, 0.40364480591262886, -0.24329684929029605, 0.0169840859960349, 0.21869813999195936], [0.1337890263796716, 0.03355441732148723, -0.030838927768868506, -1.1541285113801711, 0.3066294859060143, -0.7374370170200178]], [[-0.00813065467677413, -0.6136321730461467, -0.06174406714180423, -0.11793012542923914, 0.18538245841112191, -0.1598306453038654, -0.6655978580968821, -0.14197415632476978], [-0.5821630161807777, 0.4390698496024842, 0.17584910766922046, -0.4464557340129997, 0.21220131193118152, 0.36457615481166306, 0.7233862571295788, -0.027319540277565668], [0.8795153503263228, -0.027626129205480555, -0.00811633656225825, -0.19445871680740956, 0.8267455800891022, -0.2642199100185891, 0.45777850666436265, 0.2209039897005286], [0.555306168735937, 0.05566387365259222, 0.3081530756897336, -0.17138101410941955, 0.23263425427809178, 0.3140950491051088, -0.09547070384967578, 0.037084518084206125]]]}