{"sizes": [6, 12, 16, 6, 1], "biases": [[[0.47767352945725833], [0.29278537822258427], [-1.3161395803241278], [0.7443377568844045], [0.05517536962640757], [0.7497040421262463], [0.42243432049826746], [-0.0037810945237464117], [0.7950750014667041], [0.023222295148109206], [-0.33386252371790925], [-0.35048936669950725]], [[0.01174570236798466], [-0.04227418384017733], [-0.444336095204059], [-0.5951536938324266], [0.34631939535074485], [1.7701805662549734], [0.06414666669640649], [-0.9984999382037074], [0.658148205113898], [-1.0589272224717337], [0.9754157313049903], [-0.3026854769810509], [0.34780831006837026], [0.6661809182091406], [0.06759614947265108], [0.43830174224433954]], [[0.420207128753867], [-0.5772665423175565], [-0.4749230113754999], [0.9318587707624636], [2.969829277683431], [0.26017582637906056]], [[-0.6178214900774582]]], "weights": [[[0.8646391469199515, -0.6896578955163194, -1.5315541314574028, -0.24281478632403672, 0.5881196054995678, 1.3947443821179752], [-1.1822725684712867, 0.33334290337983513, 0.8428711049575917, -0.15183141908610678, -0.47354980070833025, -0.31697940388511486], [-0.2775579089488951, -0.3141099151481203, 0.15512608117283005, 0.6176730162187323, -0.3705008188906551, -0.32176532032701843], [0.6331918718338974, -0.7141568817308439, -1.0043734261596104, -0.3118002092350276, 0.020891652372630465, -0.5609669569133484], [-0.8856062672998448, -2.6542996066032747, 1.0751534434981467, 1.8465959127815532, 2.498506086230452, -1.074216350826816], [1.3615327181752581, 0.8796861678929793, -1.0371913204718588, -1.4961080340865545, -0.880143691164952, 1.3192032397784856], [1.3283727789741984, -1.5078872575605362, -1.582619182979563, -1.2423230290244627, 1.4724406997599175, 1.5085079617389165], [2.4909120315556015, 4.702356653204712, -2.3100415291874885, -2.9668972216687024, -4.5362371181712415, 2.42158698279611], [-0.7106861371664119, 1.0502313411341428, 0.4707475845035456, 0.4326343279721199, -1.0278532820658521, -1.058332654010738], [-1.0274525884350945, 0.6789475567468382, 1.0007824737593005, 0.1703794599419291, -0.7579757849169412, -0.21100706051606596], [-0.5726368010867866, 0.21647104273371798, 0.04341204184450555, -0.342734677477106, 0.6107742971733263, -0.9212832847941607], [2.6095788401450903, -4.389565706827204, -2.544410448037811, -2.088372640292466, 4.35974795255532, 2.5782321477265864]], [[-0.05783985123085707, -0.06413977227316087, -0.09117064928876552, -0.25651838345816047, 0.2793596312745939, 0.24188220326343204, 0.1421211110602356, -0.8959719878217954, 0.12147157766971114, -0.07280738392978955, 0.04128467779302825, -0.15238458854160902], [1.1838901788989473, -0.7550321873334859, -0.3909904655186334, 0.14942171928782919, -1.3824537117021014, 0.881603317700366, 0.9254292185695722, 2.6614629461542703, -0.7152864270615319, -0.21186166855198413, -0.5841764724873091, 2.756097227252349], [0.8055991464582869, -0.1428622720679196, -0.6570390891473059, 0.47612049411918644, -1.1733369884478186, 1.0208550566108627, 0.8710746900309534, 3.1189049813258745, -0.8315670687143719, -0.6006414400765849, -0.396526466011903, 3.061660062327079], [0.79995122518312, -0.655731305292201, 0.05447809591936547, 0.06111295190950578, -1.3408156588342603, 1.1794478885304975, 1.1509799610094433, 3.4799403623463143, -0.9551984754121635, -0.5400656493378424, 0.0689634281643212, 3.5080598627173183], [0.7419448622276554, -0.16392704848328732, -0.3509278649501208, -0.19566065048333733, -1.3499681098377798, 0.2316427577258124, 1.2036846054282504, 2.6442270205390437, -0.5822237743239066, -0.6422544105415797, -0.7062675244704087, 2.4354178569315197], [-0.2911610427178846, 0.4100293694643268, 0.07478037868827772, 0.12131507734244802, 0.35553419680664816, 0.3415540762319228, 0.20630917574439467, -0.4808760558183582, 0.5226849692534037, 0.214473269974586, 0.15504623364048925, 0.5369295655971804], [0.3341539651850758, 0.01693440007936634, -0.05191364285697654, 0.5987789488949089, 0.2555018889746052, 0.6590411459274665, 0.6373398093699242, 0.41036320535076387, 0.34952413705347735, -0.5064310295132742, -0.10890631879942349, 0.4408298136777507], [-0.13955814236829017, 0.15390248536208687, 0.0900651633876576, 0.3761798959948062, -0.5698895438443808, 0.43771832275601913, 0.18261054099625312, 1.506381872196642, 0.27641466685317234, 0.3198934950787176, -0.25734178911406685, 0.6888680993886189], [0.017743191326469086, 0.1817985907180063, 0.3026428301232462, 0.47863079318921425, 0.5913334548600976, -0.2158375427419094, 0.618045651044577, -0.4840466941025056, -0.1793616333572722, 0.021507009626842568, 0.1775560221741993, -0.22432223032379822], [1.2345562937636185, -0.8506158999921417, -0.2781927838330657, 0.29474593599503157, -1.745581646355371, 1.4809597187893062, 2.0436687523451615, 4.726153133238978, -0.9271142555942758, -0.7276377936002696, -0.2799500781431395, 4.204437282384329], [-0.0405475139682898, 0.35593800251601104, -0.059566703929945605, -0.09476784022123406, 0.01625986781165909, 0.3692230162259801, -0.08137482988421782, -0.5367419551370238, 0.7225089831076018, 0.28614100198633174, 0.09593839252022666, -0.10948849889503787], [0.23298445486078775, -0.1335106047996318, -0.018540339193536922, -0.02857193812273996, -0.5448540015682942, 0.2516684486338413, 0.5945209872823238, 1.624433802086871, -0.10496167241723943, -0.1912569538363234, -0.14802114330627522, 0.9744061752612285], [-0.21597193031732553, -0.509844172816559, -0.010188366877237337, -0.6520401707417373, 0.04412847406176749, 0.3649694694055015, 0.5346301911832179, 0.338183774185694, 0.14126728345929299, -0.41155215115125576, 0.08901919889333852, 0.3226698576440446], [0.13804692048744954, -0.1925850400707597, 0.3104922165618381, 0.36981676679846054, -0.7468059125116154, 0.17831573175831575, 0.6990239081626194, 1.27642737118682, -0.03727579500548947, -0.5075536094385494, -0.40052536235671127, 0.8644252887225765], [0.678873363992156, 0.43544200375843073, -0.5774536831242612, 0.1608859996394303, -0.02739197400945841, 0.7733651930300627, -0.16859382203041814, -0.18842536950301178, -0.19541091177474748, 0.014722502208136189, -0.0956851143618052, 0.3433284469890308], [0.3232545257694995, 0.1608479077751535, -0.17956190923774287, 0.13682769275480203, -1.2603881177392364, 0.46930465063652066, 0.27878105832976446, 1.2410419002650548, -0.3385564107242589, -0.1814935317009206, -0.19192554806431394, 1.5704438595734889]], [[0.22844800368433796, -1.4070565490155202, -1.7366662615550652, -1.1812174063849425, -0.836055498348208, -1.0695735277625629, -0.8099855911005449, -0.5825820533453714, -0.3832582333067473, -1.7427172037726955, -0.43522250778975335, -0.7082410300441508, -0.6639022591942149, -1.0066330254995066, -0.5784902681824566, -0.759810163380034], [-0.22088962852010635, -1.2929816447934037, -1.2093552417952003, -1.5507168984949427, -1.2684894283360455, -0.5492465299496911, -0.6036809357462215, -0.6134925812106525, -0.07124751741623453, -1.7578919057589035, -0.5900614013146686, -0.18724430543986342, 0.0017853408143838495, -0.8816301150450689, -0.6825067472067511, -0.7959108911092649], [0.16988853265130968, -1.6928889967302179, -1.51682340213713, -2.0882360225909093, -1.232252538915795, -0.046907940411736, -0.5593270267594489, -0.7244390278917525, -0.18057460885094492, -2.612944705425869, 0.1793791533447494, -0.7125842849766828, -0.2380279834659568, -0.7029516755569771, -0.300174110619593, -0.6651922916393967], [-0.5362928525665709, -1.176796079956877, -1.5824590984776865, -1.2572036355640346, -1.3260514524811677, -0.9356414260559383, -1.0641187897014706, -0.6232752620148342, -0.3580993448139242, -1.7022771084640798, -0.7031791395588506, -0.7684233222127496, -0.8511605593468945, -0.5022120818233233, -0.38458889823847076, -1.106268236165174], [1.0316821793089002, -3.172406056441744, -3.638305596662601, -4.490493287645191, -2.9827077054830626, 2.138179015928589, 0.2888839087976043, -0.824787002757176, 1.4408614562839306, -6.246110446709581, 1.7880014036198135, -1.3489421869602187, 0.12398489716893465, -0.7160835749299337, 0.4796016213166167, -1.3719829985282082], [-0.34482206281028743, -1.273475132110029, -1.2800560396373435, -0.5691409986646321, -1.0603749409790872, -0.7361057052405957, -0.8490156538888401, -0.38182672771726345, -0.8804871866183139, -1.7007585229208342, -1.0431412131153808, -0.3482914536916594, -0.06084534265666154, -0.9771555187457347, -0.4741414648234922, -0.6693912602392541]], [[0.8022224107054113, 0.7609200854614173, 1.498858055980159, 0.8906806200712728, 10.20417917542922, 0.3531552352214793]]]}