{"sizes": [6, 12, 16, 6, 1], "weights": [[[2.3793558356751348, -2.151184106746986, 2.093701488896758, -2.1244058996378783, 2.253739822708058, 2.50147187595947], [1.4983686202533366, -1.523350736003908, 1.781116343702351, -1.6008523496267977, 1.326323752600214, 1.3900230787609482], [0.07882959827846871, -0.09692531516218501, -0.42666394918575756, -0.29737105317691825, -0.17843359552194352, -0.15072047070853367], [-1.3255478664360059, 0.3502637092279034, -0.4181524457623132, 1.2963271035224802, -1.0426486623611115, -0.46112473071178967], [-1.7276669023099336, 1.6041656802760127, -1.6321204323977239, 1.6705686514675266, -1.560386756127936, -2.0166930549436577], [2.176686353406811, -2.016732505492711, 1.9281029843321067, -2.013889009820215, 2.030132887982915, 2.293326760513033], [-1.2377364644570978, 1.6245846479165464, -1.4088354164555568, 1.1697093044777631, -1.085648258630604, -1.2692477693796549], [-0.9390504716544412, 1.0135956162096416, -1.5077414551900905, 1.0479044508908595, -1.113062915439247, -0.7384983080691563], [-1.3794090124734872, 1.8871418491489498, -2.011378069076481, 1.5667927147856358, -1.387708802999108, -1.219376261723055], [-0.7603404080181568, 1.117007382280308, -0.30253539404369584, 1.131607618491666, -1.6513351929249427, -1.2117993534611597], [-0.35570940155176645, -0.059896952082227395, -0.009183381855104847, -0.3497250373397905, 0.864271074125206, -0.258172931951717], [-0.11600566782344315, -0.014359654100815739, 0.38163714923456094, -0.4803535242282811, -0.1334022779125234, -0.04466677656078147]], [[1.3860337255769013, 0.8093378974481945, -0.00894036507685143, -1.4837824040272494, -2.6902880554607638, 0.8043391158603246, -1.7624025994903874, -1.9072507076099092, -2.1241047939231597, -1.6375056994726775, -0.04282420263649258, 0.006696511581060222], [0.5681450488840912, 0.02454267317352932, 0.12685988127701392, 0.24937355348855733, 0.6331224183464332, 0.6605803231701997, -0.3547799084467347, 0.0367294023979156, -0.44056127060087064, -0.8545377334868676, -0.031073176520117513, -0.1131453954364404], [-1.5222179003024914, -0.8309948676069079, -0.38270430746438533, 0.5067402474187283, 0.8526373435705904, -1.0613104135855351, 0.6586083643404823, 0.10038812626433126, 1.0093503870861271, 0.45735575550217006, -0.18285953791201015, 0.053820813285871474], [-1.0871385335374684, -0.7095282378184199, -0.0918165953495104, 1.1458859368143133, 3.115137026431076, -1.2939089195824012, 1.8703084262850247, 1.2634635421267846, 1.9316614359450686, 1.4690329323115234, 0.038498478741048725, 0.24780223366008236], [-2.539962373686393, -1.6069152027921108, 0.5557741203597981, 0.3302498405308339, 1.1302199596538478, -3.03368880216175, 0.8474772133417242, 0.5829437936350297, 1.735428185963802, 0.6444247145928935, -0.29976710431290365, -0.7968578609185095], [-1.1692421521943683, -1.0635993143442137, 0.34770268314400576, 0.4422654862053064, 1.4256569070220817, -0.9252684836649384, 1.3256606333133631, 1.2464540057435294, 0.5494636569723855, 0.49879830183621254, 0.11750675193460831, 0.2302526331192699], [-0.30473862809273067, -0.7236118023324523, 0.20038897526041827, 0.7205007679099324, 1.8007647264769717, -1.5592496179869015, 2.1138583564700184, 1.4037570620081965, 1.0159751873518599, 0.6518127355359378, 0.035696187429632244, -0.01876146043586469], [0.041909660069256394, 0.21504682079760665, -0.1547188821569916, -0.12004556186687768, -0.23551231739745254, 0.18800794354229924, -0.5408266589203019, 0.03301466895230854, -0.1940018029195804, -0.30306308307043806, 0.29202696742831635, -0.2522280475082396], [2.2953804864596576, 1.6402663705390088, -0.19297127169997058, -0.17157849411440967, -1.4515370811847719, 1.8710455467980818, -0.7857068563753478, -0.11287852855625598, -1.2939919201528376, -0.41748561894775676, 0.20585714518023812, -0.005869450011280639], [1.1409046588551877, 1.1443480186709867, -0.1247576167799821, -0.33470809319948003, -0.15387542586047734, 1.0387789704237669, -0.12663756355213138, -0.40555111542767114, -0.25439069288691424, -0.2521959791510257, -0.3168984339593662, -0.1789994345818821], [2.8067998274993564, 1.6913575958608182, -0.028319053196832804, -0.7918287748437245, -0.6833281613249216, 2.5055315554311464, -0.879097496792865, -0.49481524735469745, -1.84675619148939, -0.8024431117830372, 0.5984066293330818, 0.04394775024768697], [3.015789718706612, 2.182983776504123, -0.2578492502649521, -0.4806644043447368, -1.9646600137649641, 2.571746370368098, -0.7054357023217744, -0.21494770127893031, -1.8076190514087336, -1.013139930174323, 0.4601389431539821, 0.012080027477007245], [-1.238292141840241, -1.2990234379474703, -0.3874552379262805, 0.9008074668654794, 2.4598831736737856, -1.4920984879088484, 1.3761359372030413, 1.2798951777619245, 1.4581822838135272, 1.0305027424427955, 0.08438555868409378, -0.16100079360092096], [-1.2907885975408346, -0.9705753116242261, 0.2362001118215825, 0.5504363115355173, 1.26863964841044, -0.8994405232162014, 0.4330015992170963, 0.5826568460102166, 0.8361897699031885, 0.6912951145185312, -0.006781847280965517, -0.12117286936385224], [2.1160143788141617, 1.8044202218236962, 0.27149701394106435, -0.1863198752088434, -0.7127590651830633, 1.5541603834102717, -0.37163317586079686, -0.7686371317261901, -0.6886573113481617, -0.8812300144538515, 0.11152411458281684, 0.39085734078402024], [-1.6783512226731008, -0.9223921945339952, -0.3891237289597853, 0.8477673055494155, 1.9878308027869371, -1.7772038419709557, 1.877472187828192, 1.1969072796013496, 1.6916854270486756, 1.0546661444595185, 0.027361207072666392, 0.05503364272344717]], [[1.862470113707776, -0.5106176980561247, -1.1816844503840989, -2.7061859857979624, -3.159762354470592, -2.9279494156292194, -2.7828730533471013, 0.3119437835538353, 2.759908672968944, 0.5393392221131287, 1.0635640901793397, 2.6065621732555733, -4.009269453615901, -2.3145132522214844, 1.4149105794161019, -4.57511489865108], [5.004490313243325, -1.3301347558226626, -0.6513693287444835, -5.7550813615622225, -4.069230574411286, -2.1254348212135805, -3.8972953067084157, 0.4177706601628425, 2.316429156013605, 0.044035887133870494, -0.48102855728698024, 1.9160175576442475, -3.472215739367723, -1.8234218050980984, 0.17891185397598522, -3.77464845646975], [-0.4299326602308347, -0.6878202300676157, -0.43175609410201576, -0.3668098846920402, -0.3480051616087117, -0.8775564642319246, -0.5055240507065537, 0.09828141256395041, -0.36097556895026855, -0.15568321963856108, -0.4237891564809307, -0.21132646338145206, -0.625637379776718, -0.4523508205599431, -0.2813136358332463, -0.6001776361297385], [-0.8775127514329528, -0.1292816002049557, 2.289034859987693, 1.1515183282207613, 3.8044556213976315, 1.7661573516993543, 1.6225990120422369, 0.17021417227511554, -2.694265625672094, -1.1286715378843903, -3.3860279355134324, -4.595730453808686, 4.217579121515471, 2.0375425234228124, -2.649331726816177, 1.707894302948394], [-0.5566665420480202, -0.7592334631115099, 0.013063296670228245, -0.6557636252123141, -0.17293879627369163, -0.3337829090677567, -0.21607942198754918, -0.4264739550843133, -0.12358165447893758, -0.3770578674573731, -0.15635844858523162, -0.1451469559726446, -0.1770814219444861, -0.08116198857677363, -0.614481706477761, -0.5763473540172486], [-0.9234631074571577, -0.7638513275426742, 2.1439061599535587, 0.8690553070363664, 3.972748478784693, 0.08239640978239528, 0.8879108612154587, 0.009778438525853538, -2.4709056860832557, -1.3659299107106178, -4.323781777982626, -3.7232587393572576, 1.1377429428642916, 0.47965840853140695, -2.4491940244746875, 0.4291243638993682]], [[-15.076058553112112, 15.638425301661806, -0.26679299152941255, -15.039209043030201, -0.16795175254305794, 9.352308268149889]]], "biases": [[[0.39261231730878976], [-0.0313910489452024], [-1.873060684224972], [0.6103326433930379], [3.3790171706339938], [0.3544716211521876], [1.7692322358370203], [1.5403114518045682], [0.3027986367816982], [0.7278454219192759], [-0.7362934583330623], [-1.525589608850449]], [[-0.2086099027049798], [0.3841710940061643], [-0.3589805774257003], [0.2085540788006977], [-0.5520596558286595], [0.2824546944593559], [-0.22678000456462072], [-1.8946559170137043], [0.09388605033529167], [-0.7718553210649656], [0.8657208886602915], [0.9433487211890564], [-1.1652715602756119], [0.739669593898276], [-0.2892474168222208], [0.8092497492172517]], [[2.211260036178296], [-0.9905129648830873], [-0.5520368150589053], [-0.4985325436719284], [-1.5671251353595144], [-0.42401337755951996]], [[7.293403099451119]]]}