{"cost": "CrossEntropyCost", "weights": [[[-2.7228837078473425, -0.7164816324749771, 0.049003116678021284, -3.7785548800411353, -1.4221731525380694, -1.1019187693750399], [2.21708005956216, 2.2136337047374828, 0.5616199936569682, 4.578305622443498, 2.152885211852117, 1.7438876010284416], [3.787802855032177, 1.8330126784170633, -0.7716303811447981, 3.780806188181151, 2.1327539516969356, 2.3187127862492156], [0.5314921793135863, 0.19364431760342374, -7.3048338201997, 0.6075127658194216, 0.5511818439275279, 8.200090744318423], [4.5834291822334725, -2.6841165157886286, -1.3456659530208792, 3.6973053460947933, -2.724920686185459, -1.4964566316680208], [-4.613097935620194, -1.644828474107103, -2.247839247534153, -4.428194650781889, -1.6523025132749525, 0.3217486226801133], [-3.9800572750152203, -2.6297282871912357, -2.805863453780937, -3.5174105239493527, -2.6975635379475507, -0.3048077104143755], [0.19027196961600634, -0.4911564620630093, -0.4098345463313206, 0.1678169027464827, -0.5261634821881878, 0.05166869736649798], [2.670293600548315, 1.0184771807611073, 0.14786409658795321, 4.429576667649459, 0.8874312205015874, 1.245687165733027], [-3.3430336629899395, -1.912293262766985, -2.5638951712780327, -3.2135004353807997, -1.8509663233929567, 0.39402200828362227], [-0.7088204947835673, -0.542151286495322, -7.9423600204402645, -0.6743042652971651, -0.3561489734521102, 7.10134271627161], [-2.0471816248315973, 5.790547857856372, 2.8565568968984554, -2.5456168884785613, 5.756223348615228, 2.973938591359866], [-3.371164033018639, -1.5798489707284566, 0.40203565312328504, -0.9682462313638799, -1.098610732892314, -0.5008499078749634], [-3.03354774001144, -1.3285826772226559, -0.5658069990055701, -2.098320122651128, -0.8131144571121928, -0.5393831389795842]], [[0.575483939237544, -2.3447630552289493, -3.5321746324699683, -1.8278956588484188, -2.8195837673919906, 1.4702900326893626, 0.27486589421156066, -0.24128186811412577, -1.7316801092418552, 2.2934824695891436, 3.1537737351599673, -1.5080448094333927, 0.7486474938900987, 1.0885958188001037], [1.7594298311797303, -2.749227680385056, -3.8270556384026215, -2.6054962524527565, -0.567688294320952, 3.907040130251891, 2.2180849561978335, 0.669806229655741, -1.566728282566888, 2.0016782306787793, 2.2649519054376195, -0.8279844063112838, 1.9187223811786998, 1.7052710883335431], [1.1035831157429827, -1.8418149476477572, -3.0286149282568564, -1.3815124922529032, -1.268608183675646, 1.4161802198951103, -0.08895247187550945, -0.6922499032279767, -1.713103097647661, 2.018307808129104, 1.816804213179478, -3.875022053006694, 0.45647071801155076, 0.806209433648328], [0.8791401616453558, -2.5471298134909444, -4.075550447095909, -1.6229860442173776, -2.7355506286485274, 2.3623800129373627, 1.0301436159787358, -0.6490053091110444, -0.9769654159488899, 2.4693003020095787, 2.439954255575734, -1.6241612295795986, 1.4384166615666543, 1.7716776625540327], [-0.05080785251610255, 0.9211685836572008, 0.17103442286663462, 0.5550556960153031, -2.000521738197136, 0.16184179151216063, -0.8196360621855098, -0.23163678165162055, -0.09464223476152553, -0.2248907179605178, -0.6232259658428756, 0.5506134469466106, -0.4209170811792342, -0.47759261920740276], [0.7860152323374775, -1.4147548905889062, -2.1784210056355064, -0.26081145595599026, -0.09351075015285276, 0.9875742214087355, 0.7651142419223098, -0.033092743926887325, -1.0660750036080189, 1.5183835880577259, -0.2858847627271374, -3.98381005810631, 0.3860063941950219, 0.27882414304238734], [1.4624295781204009, -1.9376138863072097, -2.5163287849237426, -0.5379050470347164, -0.6901123984182705, 1.0314106750802103, 0.13977795148359423, 0.03354140446199152, -0.914123394669941, 2.069271535087029, 0.5596872796451076, -3.650965334972223, 0.9405967944565129, 0.9547283547237724], [2.418094654746911, -1.973121955650087, -0.9070389196415078, -2.43206099175015, -0.011035931699678463, 1.7511849841272051, 5.118375303297353, 1.0252947655517453, -3.1210223700273314, 1.900673541599498, 2.1906768734167197, -0.8580745931408388, 2.819509832045711, 2.1145269375733617], [-1.1476760512083015, 1.4031120287416043, -0.8947499965098964, -8.689199692346893, 3.5392269132744065, 0.2924430437805896, 0.7876354322138233, 0.6741857838681695, 2.429579581758268, 0.5372289039491175, 8.574595254561109, 1.2856645607651211, 0.45960161498141405, 0.12554349668255899], [3.1693652498189415, -2.071088715108289, -2.566547228584863, -2.556390414068255, -0.9283508982898218, 2.976382973016732, 3.31363885202577, 0.09506560513097605, -2.6265236462877963, 1.9225653098343938, 2.369284699934695, -2.416637410739384, 2.1148106848656707, 1.8913943887165638], [0.1270618549480232, -0.4981090219263277, -0.5519205626293829, -0.9178809921897285, -1.015882250762668, 0.19495042257421089, 0.22446222351312933, -0.283019427411517, -0.45870871059513396, -0.022615741456466113, -0.08141683139036716, -1.0110923092532758, -0.0661178282046896, 0.2719538985174349], [4.756907423878919, -2.5630996327405615, -3.6389840605012913, -4.122490985468124, -1.2185747234985695, 5.286539916425035, 4.511016219163847, 0.4636296516698144, -3.683921907185961, 2.9596211710679445, 3.94891166320452, -2.0977784165944775, 3.373769542835752, 2.64177647311328], [-0.0009032795412348048, -0.8897682574643809, -0.9449241823947286, -1.4294837131291511, -0.41709900364313673, -0.4126435945369431, 0.25104919736460524, 0.47386730461159116, -0.483717984003827, -0.6169877066302053, -0.3918168648029134, -0.4275409686732756, 0.4914074524194155, -0.026752095801438128], [2.120023712997752, -2.552326474071335, 2.5980194040077698, -3.3771628845450326, 2.400579569816973, -0.17706209979491466, 3.9295336173708177, 0.22763302950834075, -1.835712347052159, 1.2541202726496061, 3.182359506934183, -6.765398535521024, 2.0994962015971823, 1.9836689968068884], [3.1643797152475135, -1.640197805679614, -0.22197724842868485, 1.5559397252967953, 2.0999823843399814, 2.27375878277666, 4.678871725447643, 0.881143212379217, -3.388828395131554, 1.5466765665525162, -1.2149606119733583, -0.1386950784196736, 2.3160448652238492, 1.904209381892062], [2.77675526379081, -2.6578326425107206, -2.6052055122016617, -2.079575248385472, -0.5600865359883087, 2.6540772075762376, 3.0307274294367277, 0.0401572911037024, -2.045863530092251, 1.6574507516234094, 1.3488704489416297, -1.935203450661815, 1.2307325710795876, 1.9656571700199308]], [[-4.435019800034872, -0.5520944167027183, -4.274338303376297, -6.005224324661172, -1.476900158372061, -2.479240298620835, -4.14631411977162, 2.9413381060547676, 0.4180205009634368, 2.6575181552549947, -0.789848981264062, 1.8957841297269422, 0.12215713254795568, -0.4474302337794761, 2.8164097693655785, 0.7469771801040556], [-0.616274597091236, -0.10347248142100539, -3.207598640429966, 1.1409480180603289, 1.5272051318645106, -3.215854622323695, -2.9616116606578893, -1.9259082031683743, -2.7273821309686626, 1.3255880448110746, -0.36977870056297013, 2.4523072153130356, 0.2449580069284971, 1.1852182693136561, -0.11757001998112189, 0.7765864554392309], [-1.174584898983337, -2.5900112533971016, -0.45348647202937387, -1.2626716612857334, 0.6949925248663568, 0.019721816955132265, -0.20840761077413247, -0.8869112271465814, -0.9180910160697254, -4.9623242753466705, 0.7552994389486198, -5.1287174207672805, 0.38155241719185545, 1.842728957147991, -1.5223457068856878, -3.4606007446511744], [1.1908513090173418, 0.1884110063178151, 0.9511574936383862, -0.6199920029047314, -1.078348096551658, -0.653803106755842, -0.7128119978698378, 1.5933554361068956, 8.069550591566365, 0.7927838117915874, 0.6442451376155932, 0.9658926944922512, 1.3418261388036186, -0.44131396631226305, -1.969967797185008, -0.7101946518133274], [0.7502549194297625, 0.09271465749603562, -3.0924356613999016, 2.114639442221635, -0.5193523476851987, -3.1885545615001947, -3.2988374858195235, 0.13315955422305234, 4.353884300776256, 0.8579242329453641, -0.12421653216660923, 1.8879210731742793, 0.20550442737397942, 2.7438882119840637, -2.99374701024758, 0.09803626982653203], [-5.471943545775379, 3.3492588996290236, -2.2616383163545972, -5.045221360073848, 0.3652540566859544, -1.20025310415581, -2.1255995396548735, -4.23579740835971, -1.7473301516515747, 1.852391070700477, -0.6016632054214196, 3.1931174948311245, -0.5271195576343278, -8.22757573781488, 0.16906624557802438, 3.7445818432346], [-2.1201341091724712, -5.067752457056692, -2.190692909838183, -2.5303059461979625, 1.291721485944638, -2.162388672183589, -1.9356948804072553, -4.067097843084339, -1.1460127710166041, 1.861152637464044, 0.19172703289075554, 5.968851173370633, -0.3996142742711576, 1.4351943320375524, -3.349984932701433, -1.4100559719226566], [-3.332000446604636, -5.16753649028851, -2.404318514121454, -3.3898791469886205, 1.5296997681583135, -1.2840833704184815, -1.5679888458354718, -4.79191766108511, -6.844227654088542, 0.8260556293607434, -0.021377499644629004, 4.706284432234817, -0.2073099449618623, 1.6774769025556626, -1.855750954544837, -0.250336695367143], [-0.5868460446381445, -0.3854705372069736, -0.4669969771646549, -0.6317358471441648, 0.8382509679879391, -0.43639472439910854, -0.49477261389094845, -0.789849742143786, 0.4481680995824344, -0.3782392668850388, -0.2771985966868207, -0.2666225054418653, -0.3958385888996914, -1.0631079639841003, -1.6550331641779978, -0.7663176840962971], [-1.269699753480525, -2.0149783262911756, -0.41820318586597355, -0.19062230000170868, -0.018197278947574832, 0.13789370796689543, 0.12441235899064396, -2.402638166348109, -5.5934252002557905, -1.986811190651346, -0.03636482790564204, -3.927749231052114, 0.26436030211136463, 3.7126950997072674, 3.234962763763111, -1.7281493973047202], [-0.26990737471481063, -0.5334089039679066, -0.5345993662063484, -0.80743450925212, 0.39574793415942255, -0.7807983597520938, -0.7928647120550012, -1.7818628439578974, 2.5395850298690936, -0.49107686347413104, -0.1639350157457381, -0.8316978746733737, -0.34037448246936, -3.5722238274424227, -3.9543091662128846, -1.2086061501600134], [-0.5549174675939528, -0.5401937108899778, -0.5391815761444729, -0.9213673813232276, -0.020106899138366264, -0.1622022117763323, -0.034952651912169216, 1.4029177241396091, 3.5784133429288545, -1.0281488361201911, 0.16210319809355508, -1.5961726459564558, 0.27674271056246913, 0.878099115040614, -3.2503821877559007, -1.2862455941654765], [-0.024778782348726346, -0.15070390691809638, -0.4611130708240201, -0.3112144311504137, 0.010894833680883197, -0.24082764265735038, -0.6846317056701606, -0.5214729774467152, 1.191617614438835, -0.7982205818472217, -0.018512315190823657, -0.5507918976959717, -0.1987145221452487, 0.08970015636898687, -0.6519357520912635, -0.3753618023115178], [-0.5143833681462139, -1.1811664373205966, -0.8904082501058423, -0.7110310523758203, 1.3545859346529856, -0.4328574553135247, -0.4035628182290024, -1.1559792703498597, 0.2519609234828642, -1.2618154957570367, 0.11396115694306859, -0.6916382669599062, -0.09986778796496187, 1.4563283992758949, -2.131902429825769, -1.2166571873204823]], [[-2.478942753182254, -0.7051807841686983, 11.387967216720828, -0.4443456695702288, -0.5604217663632076, 0.8193734455125772, -1.7233473337015621, -0.1600037633163092, 2.7441182039019205, 5.301761885860306, 2.3795991294315475, 5.455127643677007, 1.62129563421481, 3.6327171332421555], [8.679243323035617, 0.36254940915585376, -9.736573594845762, -0.31421390190555454, -0.5287124754997383, 10.50899763941485, 7.423507720780706, 0.9910076168126924, 2.8804446132202886, -8.518162482788687, 6.4517306569874995, 4.020888784248682, 0.8753428436999873, 1.8572621748382867], [-6.725465267212386, 8.705623638168559, -6.3955709542480506, -3.8096684050097083, 11.181020923628152, -11.4898468871258, 10.253856305969984, 11.765865064097216, 1.0375905459869026, 5.295528064724414, -1.852605837641034, -0.45953782453876507, 0.4485644764647145, 3.1705879495977225], [3.336407703148898, -4.834452641679531, -1.5419569560141029, 13.897376212578576, 6.854458449871239, -4.130325235443239, -0.5842841321747696, -6.301405544196315, 0.45524295162499495, -6.339416010019671, 1.233752494538828, 3.4152714886740005, 1.0415980350821885, 1.0621020687357325]]], "biases": [[[5.9824707655007945], [-5.243309980942397], [-3.038570099679544], [2.428964204375911], [-1.4868541380216607], [5.128367466795342], [9.08016503219692], [-1.933981268188597], [-7.153635793333994], [2.0937820483256173], [-2.494852283022506], [-4.771781016167129], [3.814433029457175], [2.9435698238831343]], [[-0.10151067199416527], [-0.6980783298363157], [-1.908021141465495], [-1.9614404570743396], [-0.3407464329029386], [-2.0321885362544982], [-3.493567922802678], [2.4629161349921036], [2.4118810521607146], [2.0623266386917636], [-0.4096359814223416], [1.3506839035419431], [-0.14544983531048203], [4.42258548688202], [0.5583505686286279], [-0.6168913671037737]], [[-4.68108853025906], [0.4357591246438173], [6.621179934423003], [-4.982439931436936], [-4.028511793375453], [6.117667372354465], [2.479587228842026], [2.832186429747961], [0.21595238763575378], [0.946193988531372], [0.9588327537318864], [0.9168309344446239], [-1.0773895075216218], [1.0823670514999526]], [[-8.913549088761032], [-9.288675968075564], [-6.274075559723054], [-6.9892401595838125]]], "sizes": [6, 14, 16, 14, 4]}