{"weights": [[[0.17353081460241324, 0.039728840090970274, 0.35204313175485924, -0.5581934040772446, -2.0257233784864384, 0.2559725233359243, -0.2292250424586721, 0.25824312413709766, -0.3760833232759998, 0.18974668237586872, 0.46623777697200897, 0.5276570932457958, 0.5965597221821833, 0.5114402829851663, 0.35380529137311917, 0.3041919322099617, 0.32692698067939435, 0.42397181057812133, 0.4530937945741613, 0.34562058288472264, 0.5974028337619841, 0.6514695865912833, 0.6782393966230604, 0.18144226305763272, 0.0864258077039827, 0.2906754221582903, 0.24292860936793098, 0.13334392759062547, 0.12146102526219388, 0.21210494890279816, 0.21987674513949407, 0.05731460766368361, -0.06039729186852003, -0.24724494836195043, -0.10771157893962673, -0.6431862357061393, -0.5637529968397378, 0.1750005074065634, -0.19515033975760246, 0.0944078983389495, 0.04455195172727687, -0.2974431940583853], [0.9079585231162011, -0.9372425334505956, 1.159113451859367, -1.4816986663539042, 0.2797774769450344, 0.1771154224785414, 0.14118199775517865, 0.2771709864993038, 0.2516917061044779, 0.17080446110460962, -0.12269690518000842, 0.5227299785046908, 0.6166550677702911, 0.68413179306363, 0.4147590208446125, 0.4015714362467023, 0.2436598498197293, 0.005936303765821622, 0.41618001400958526, -0.28398490732088627, 0.21100337661168364, -0.5377263605890459, -0.26646516624797384, -0.8714635127388306, -0.27462015170809984, -0.6368196094943385, -0.20503061669301187, -0.417262998817405, 0.010096625388126935, -0.06665191733851746, -0.7212821123165076, -0.6778394650216497, -0.5995435797327012, -0.5507766715856677, -0.3833057011951929, 0.024734805803351814, 0.11940928166631261, -0.11722047327250673, -0.5567264966451851, 0.3982964271124838, -0.03576608080524383, -0.3615578900174969], [0.25219210382059537, 0.05799250569264365, -1.9915390133896735, 1.6277712384399168, -0.8750140825285542, 0.19801966080870886, -0.1230301383926863, 0.10987374093061303, -0.09519869288876821, -0.29213154718738255, -0.18013472761621419, -0.4178065490350046, -0.2739241957061175, -0.1685074895491209, -0.2077157657991299, -0.23489788488867774, 0.06044334185386474, -0.051583644871174866, -0.10918860796353946, -0.09506191059090503, -0.3896593987778089, 0.06444942488473612, -0.13911087285475057, 0.29748785081597634, -0.04907905012234135, 0.1666129436486504, 0.43915590927787856, 0.028883052801287785, -0.31765903908925486, -0.05028134566587542, 0.22006908695592367, 0.699990729724969, 0.5826479450181914, 0.6230243145039638, 0.26451958618091, 0.36193643098408484, 0.5219458324778312, 0.39849406101463, 0.6693605711569359, 0.6607821235938619, 0.600482605033995, 0.207342846848986], [0.36818834287407237, 0.4896990813831634, 0.4145296535001584, 0.08971110874329861, 2.3490665875978833, 0.0016181941875336948, 0.07097885482060486, 0.1229795444966954, -0.21504168891466344, -0.08406143481282444, -0.36120595331671324, -0.22514943327916906, -0.629428265944408, -0.6174238124133287, -0.06622080354653494, 0.10950084416345852, 0.18934116698054715, -0.3463212264833358, -0.09628844516893638, -0.18880591162130536, 0.11075424844964796, -0.13525244497886904, -0.0196187615504415, 0.09370146831309002, -0.1962516989732309, 0.14533560257085762, 0.17839948637519795, -0.06907362602858029, -0.2268541280922558, -0.2706955670163249, -0.31594855468721844, -0.004105915033590904, -0.03861598401694734, 0.018273466671666, -0.017504892548166184, 0.40341145277490087, -0.3741001524726849, -0.1784236225481275, -0.20405606424075123, -0.45618796563843106, -0.09835876257897533, 0.002353675869796315], [-0.7324176501524019, 0.9041035293288184, -0.2916191090434265, -0.027794737369955316, 2.21376047249697, 0.1440215631428304, -0.6155383360758527, -0.276951526148614, -0.3765659802733155, -0.4261737547449024, -0.355109183666993, -0.6363818023736295, -0.5333466330827865, -0.5154526957355092, -0.24003043783737557, -0.26531918027947676, -0.08463285628228438, 0.2150799296572241, 0.5110024527206226, 0.15901617226636267, -0.047783550426579786, 0.39205198454418605, -0.018664655584179908, 0.16256351759022794, -0.24438874028369492, 0.14971721086948822, 0.6302723596190137, 0.17320938936042993, 0.1982529923287791, 0.003336332621081015, 0.1705454064910754, -0.11929343531057467, 0.3022282329208141, 0.04661586365073423, 0.07313481058071232, -0.1914439060347477, -0.4086003869867488, -0.41252811257224997, -0.03488856795872309, -0.1741825633932755, -0.04934653059768516, -0.4989054039240141], [-0.06336728545262027, -0.10970580493321558, 0.06763777966363303, 0.20765075191277518, 0.3796195342257959, 0.06094465991116162, -0.05983130244202969, -0.2346981768481253, 0.27782449327551384, -0.02347941418960074, 0.1450367846828904, -0.03692138835690658, -0.07610854684110753, 0.05794213628836505, 0.15803594483063624, -0.04093194113359345, 0.26765792504298525, 0.2711635213931992, 0.09223158972614771, 0.26831318594428516, 0.003335125599939236, 0.10793095159657982, -0.12537298472393416, 0.13291774160421585, -0.14261889577047723, 0.004000803637318879, 0.13468107681773844, 0.20693106373559078, -0.3502612637804026, -0.11091943803099558, 0.08315085768940829, 0.2612482260637581, 0.2544432222011216, 0.25779871884341143, 0.10126150001428764, -0.17204034552138053, 0.15537935601816064, -0.10139188604021036, 0.26575864672922433, 0.0875999261755767, -0.083422254525739, 0.17437158595389557], [-1.2389062315800086, 1.3000259687380946, 1.1274821581642027, -1.0392091329944864, 0.12897242847621604, 0.3126814854697334, -0.19805251800511614, -0.335253222033092, -0.19892444702211795, -0.057980698569638126, 0.301709171042543, 0.11430554812137918, -0.3038661287035248, -0.2125797557604225, 0.19959210825493395, 0.2502206640135049, 0.4632161349136495, 0.4887842630519522, 0.5216458328395097, 0.3096767357891883, 0.11203934378001015, 0.2552590753176669, -0.08388208073430696, 0.3062555829446575, 0.34812936388896587, 0.15652080993909495, 0.6979938945414907, 0.7546932550216023, 0.7355098823739274, 0.11381606049932091, 0.5330900441475885, -0.017435636288684553, 0.16900235989138834, -0.14699931083195938, -0.018132380862122766, -0.048835344217667075, -0.34880305851879223, -0.16925559120019207, -0.08766834129959386, -0.3307915534876885, -0.4746956194793236, -0.01659194153480617], [-1.0860341929644215, 1.1236325421397308, 1.0795349996575712, -0.8275631553537405, 0.0339690552338092, -0.025517979648061417, -0.5379699916472659, -0.3309817510426505, -0.6980087388079655, 0.12221754876252983, 0.01897812564857409, 0.2822184200808013, 0.41720940924082556, -0.039203842386319784, 0.22044554990290996, 0.3338022154728952, 0.4895931643506969, 0.47915309955043306, 0.29064562134699384, 0.1259353226376154, 0.32181960127632997, 0.186568267389576, 0.5053778929302164, 0.508359467018134, 0.21295689880044902, 0.13177109958974798, 0.16155266093465318, 0.9613743060386748, 0.36205262180724446, 0.18941254710275635, 0.06402193024968023, -0.1847773782249732, 0.1761505081659607, 0.049811092742817684, 0.049958616177327816, -0.37746288914283893, -0.5421982129739001, -0.23942564493094579, -0.6417087940369388, -0.21650830994238232, -0.3489852283090132, -0.12588477892032904], [0.09136279918526563, -0.17846450672451253, 0.3094922684098761, 0.21435687330803532, 1.6630171210178566, -0.32197080367547165, 0.411475094322573, 0.47281474729043665, 0.5092320200663184, 0.2676639645530979, 0.160670007446635, 0.1128740022152634, -0.11996628458360437, -0.12638605900158026, -0.023412857901055264, 0.06683332817089634, -0.15117078471617548, -0.03922155674501764, -0.057293386733375626, -0.13461346265508164, -0.3719417329405581, -0.4119098493551496, -0.196346876873214, -0.3238085749709034, -0.08058808446685782, -0.4306443814886545, -0.234283668937424, -0.21596586573049972, -0.05341733186957272, -0.20230866686421717, -0.5340868132541812, -0.10740158969248736, -0.39112850763465357, 0.07300319613303387, -0.23609266334220147, 0.3777884625546967, 0.43312953627474815, 0.524176696708145, 0.27842294988826255, 0.3602173994469459, -0.16531450179865065, 0.32449429154327347], [-0.7224492790879441, 0.9261441133101294, 0.8952427627177314, -0.6369380524958446, -0.7485325560840962, 0.06729495012361816, -0.05153791968638361, -0.5453186342021793, -0.006455805314112775, -0.04880197806058663, -0.11095964319801209, -0.020335414274418585, 0.4644397247439339, -0.27182457808433524, -0.29833744106662113, 0.061184592907164215, 0.2997519284588414, -0.16482362510261855, -0.06083174422095259, -0.07938390432800553, -0.10891468908660852, 0.39539950342923424, 0.052063898705611615, -0.20388168335927392, 0.20183954967533618, 0.10659331588184155, 0.15734020312427097, 0.2677563516313643, 0.13020720834324104, 0.09232735617005346, -0.13548123725468153, -0.19125926605298949, -0.11744553113610935, 0.005102473630148533, 0.10625817012137474, -0.41225042829650843, -0.4017220507281908, -0.7929274600056293, -0.198773975232487, -0.34311137450661944, -0.37578237781862955, -0.011621032704715636], [-0.30133435561940847, 0.7029114683319828, -0.33986133372411576, 0.6362086396221066, 0.6992226570196114, 0.15234886721799457, -0.22163995332800177, -0.22064852147364694, -0.19574383049441343, -0.1742277274636923, -0.09961192008330384, -0.34753236724194964, -0.4223870849251665, -0.3404285605642859, -0.2848682062714843, 0.24751765900946027, -0.18532451825695753, 0.05188659045398013, -0.05699455869930231, -0.011548376653802617, -0.24023965447032677, 0.09100520130554425, 0.09862811548435368, -0.12205920217890433, -0.13882992049641857, 0.2788759195893721, 0.20337855231801655, 0.2070877118389844, 0.22863031302911138, -0.20131986032171093, 0.3697027636495235, -0.02080968609882397, 0.22631164166573758, -0.05078615186578543, 0.07848230271478339, 0.27805247384860776, 0.11125607191818908, 0.19152620571185341, 0.36426948490527516, -0.03076725243405283, -0.05346209692708612, 0.021841786748203314], [-0.2729527932419621, -0.3756673248587065, -0.5914751203108828, 0.4503076552234188, -1.3330348832675099, 0.01576680380951129, 0.3028688425788403, 0.19906736417814547, -0.23982322014319657, -0.2088761852851056, -0.03911547518852173, -0.45589519398203154, -0.12359932862119023, 0.2189417160568631, -0.1040095121475963, -0.11996396388842741, -0.022132863767570503, -0.036149738246942585, 0.16410373937214473, 0.12125864404106411, -0.5788491413070984, -0.11540913928721395, 0.08496534887554605, -0.019975396965616135, 0.3501854579321461, 0.1773019074757963, 0.15194832640025474, -0.05072653150215908, 0.11992784222953504, 0.3332259554759166, 0.45098771206763727, 0.5591035720327783, 0.45855205625658074, 0.509615222787702, 0.3675057960975381, 0.317825189322718, 0.23241571271289987, 0.545948957272604, 0.13755198549496994, 0.09847554611691252, 0.1300164951432251, -0.10425106220888432]], [[-1.8614395351572022, 2.42272300006952, 0.10680125522917787, -0.23925120613949796, -2.395212146562594, -0.34530386891704806, -2.8393371134284293, -2.299704610811287, 0.9368117419887096, -1.2688341846185152, -0.43484325932533646, 0.07897455121618814], [0.4322541444285405, -1.8981776804704, -1.7080044822611968, 0.40933586553054374, 1.6901074357135304, -1.1179901171587694, 1.44667760248623, 1.6697871635179795, -2.102213993416003, 1.8218449886768506, 0.06637740576763507, -1.7198453935090607], [0.7945541443355787, 2.7173017409823874, -3.2279316155490205, -0.46722783790488465, -1.2185259985166432, -0.7557229529065852, 0.3774094100913868, 0.8755789511812644, 0.5686320399511267, 0.8082814181416847, -0.7659331565835321, -1.8249654308044283], [-2.057906454894913, -3.0679508715598724, 2.371479099552299, 0.5170376473824616, 1.2839589709523151, -0.9425569901041362, -1.996979714268608, -1.9832991692826367, -1.3844304212660756, -0.47415310545276307, 1.0464342657778536, 0.5305775651059796], [-2.878942993227982, 0.25553917456537073, -1.8198459503951272, 2.84165797341979, 2.2143905973864193, -0.3257705016131725, -0.7631500394440042, -0.22705621371411217, 1.7844531532893781, -0.8343890708393364, 0.4264021881682247, -2.0475595385768455], [-1.1626388807839223, -0.39991524062105177, -0.8732880559452016, -0.31476779250178766, -0.7833288680953338, -1.1817405461180608, -0.6887071954757468, -0.4362527471634164, -1.1851956267361796, -0.15819393256581352, -0.6333283557782836, -1.3352092360906231]]], "sizes": [42, 12, 6], "biases": [[[0.14717700931201866], [0.21472444446221794], [-0.37326743681864283], [0.09521480342317756], [-0.3368180775813109], [1.808088373537212], [0.029149791887069332], [0.6481344768125896], [1.8919946013856956], [-0.5513152784355358], [0.24632301392988282], [-0.023967340946697935]], [[1.0427410711865959], [-1.5893539261017327], [-0.23455856868934355], [-0.2966132683798225], [-0.08709513628509245], [-2.0104343998382737]]]}