{"biases": [[[0.3047787957605498], [7.894580561776044], [-11.36286659924982], [-5.2531946893798125], [5.915461948772985], [-8.406557521103853], [-3.0513381652332536], [1.8071993360865863], [-8.476808909958613], [5.106267845074778], [-0.7042230602421244], [0.47704229090558553], [-1.2431927413851693], [-9.256777605519627], [5.619865085716629], [-6.6429828646041935], [-1.0446696932256945], [-4.777442746251433], [-3.448737186395367], [-8.911770502353663], [1.652379538783729], [-1.548963680385744], [-5.121888876796148], [9.956789875753683], [-4.893654728642696], [-4.711452856976548], [-2.3036916637718474], [-9.951404370341518], [-1.7605584837739412], [-4.8785540559759655], [-11.239457154004265], [4.688067552220536], [-2.8446896141855014], [-4.829472523203016], [-0.9212520999831193], [-12.55112829054684], [-3.26914275329414], [-7.5628935378013455], [-3.4415541992795866], [2.0847384576451167]], [[-4.16052160063938], [0.39437289503449274], [0.22650996058236267], [-6.064816845194684], [-4.368722880855018], [-2.1045611396838972]]], "sizes": [102, 40, 6], "weights": [[[-0.15707137350211176, -0.7288460051893205, 2.2767822548631456, -0.5743797025749686, 6.158034724768588, -0.0733696224380447, 4.387151764552301, -0.3661290405835025, 0.5111683227527785, -0.08548239262664437, 0.7558032614909808, 0.6303323228836902, 2.2557215064108336, 0.2883116844013527, 1.7123198021954564, 0.37637129508553513, -0.049448339811722954, 0.8033860753037284, 2.12247922707179, 1.5223832745383354, -1.0546812608445644, -0.9861216343691218, -0.315598643129764, -0.02193295017482506, -0.21626306098484213, 1.017487735322437, 0.039558706127257724, -0.1415258175427546, -0.13955334440475672, 0.511767825666986, 1.7557970552485085, 1.7963949510612272, -0.5558781907678888, 0.7442123329049981, 0.3548762894595479, -0.5426932490640849, 0.2893958898959522, -0.03422032428720994, 0.33153764963551624, -0.2927145095469822, 0.6233400017103511, 0.948273063667731, 1.2279899907658711, 1.0036372020280744, 2.0806591097138343, 1.2362770245380563, -0.015560281339201289, 1.41205149731165, 4.149476304388967, 1.131957227917106, 0.44373867037996295, -0.5310417111605696, 0.7979632258454578, 0.07748376686330102, 4.525397475648267, 1.705643291935428, 0.3503580216826424, 0.18292735262808138, 0.6056995312689706, 1.1772881009545875, 9.46920517804741, 1.5906699108661064, 0.8058143844424109, -1.2608228806220805, 0.47346068871951486, -0.4286987227054974, 14.8825607858789, 3.2241123564757097, -1.4042760710167306, -2.537627235256938, -3.538574261867208, -0.8811685226506184, 10.671329882656686, 1.0157917892470076, 0.40787484807523133, -1.5477935720175966, -0.754464728218765, -0.2375329547944696, 4.476181990787582, -0.045927359987442906, 0.16453840186311172, 0.15898069751212715, 1.819668707824298, 0.6103908402886943, 3.7573717232689687, -0.10852279875475403, -0.31791613576315286, -1.0473587665165531, 0.5466828852347551, -0.4227921167083577, -0.046828248605569514, 0.12009230398387775, 0.1337923935505275, -0.917613045110678, 0.4928339628006235, -0.995559975880858, 2.318599770921824, 0.18536828043340364, 0.7558565572939037, 0.43592857442462457, -0.15156795896393038, 0.019453512653475426], [5.30153856039944, -22.981847656852633, 0.3936254849795376, 7.952919348668947, -1.3360757652629671, -0.16970771853601427, 0.4992778706863289, -0.8055398484316642, 0.4105188828093633, 1.9720300691909063, 1.2203150614717928, 0.476417651889752, 0.2847557679307771, 0.4623006167971525, -0.14079114119879876, 0.0082700924363997, 0.9295887188861043, 0.5831465006382874, -0.3618969855436683, 0.688189243342839, -0.3624786835345506, -0.8734645904290678, 1.6000000266429653, -0.7248949028280206, -0.6763980895450906, 0.5144347804946195, -0.07169053619270566, 0.27891749376061215, -0.06787295038077415, -0.8089890001721655, 0.3340493545201945, 0.03589358586632178, 0.12777269567999894, 0.5538085632579349, 0.7385326305380875, 0.12812124507587513, 1.3033715390243594, -0.534570093463725, -0.5814589223015195, 0.3638426529788633, 0.3220611117543695, -1.0563609171317725, -0.23716055693132157, -0.35004205336380684, 0.10488191384798776, 0.7568533661855766, 0.6803217254288084, -1.8586457310686697, 0.5261308574126463, -0.6857844887897601, -0.2662597907961732, -0.10555756028631313, -0.5756165801411184, 0.9262694280011436, 1.6482378136212685, -0.023967370675923513, 0.6378701213281394, -0.6041220905679313, -1.6150665552955263, 1.2268949658902915, 0.04295132978587137, 1.4911534291164725, -1.2208560480514359, -0.6820620431829298, -1.0316246690318427, -0.0062782046827179125, 0.3644655496084157, 0.2471643547412286, 0.5211503159052951, -0.04917177510916123, -1.6159657910211984, -0.4400998464356364, 2.445407343625147, -1.5212267827608805, 1.1792585341901884, -0.585486648346679, 0.5918559414436331, 0.42528412279599354, -0.18202778026916297, 1.061832184333956, -0.6026108648726463, 0.05276303619594176, -0.9745975676907257, 0.40012635933962504, -0.5987390249289051, 1.130122574002354, -1.3537956294845797, -0.8989667818499045, -0.0745871141962653, 0.0359358731580618, -1.600648910167451, 1.0395661720570393, -0.04963977694835606, -0.3934864622632467, 0.8355827230316683, 0.6714938575181993, 0.40943712400219556, 0.550107527044116, -0.593040983273037, 0.1671877653047375, 0.12633866796946844, 1.8535938630369198], [-8.316983390191636, 16.067450087479738, -4.175101918283566, -7.4650914815578595, 7.480734915325354, 0.0653912885113361, -1.3320765859025803, 1.2064063490034493, 0.2918783035746172, -0.04675740214500426, 0.9188349606415883, -1.2665309750882427, -1.2544589277860148, 1.4636157103832903, -1.5415183586419805, -0.6210344846490891, -0.46027391792914246, -0.7958100399716411, -1.946629664594597, 2.402716688603971, -0.9215014970773331, -0.27145891193165084, -0.3271069410054597, -1.9155626025161485, -0.8568984198000621, 1.724471045380374, -1.9474264026229415, -0.1293054717036916, -0.8473921714114271, -1.1348578092468449, 1.8138387483882548, 0.7322875195545226, -0.4947719477184239, 1.6127397224922417, -0.5082561003492094, -0.17304630354891679, -2.3901952645582414, 0.7389193889214984, -1.5256059021785242, 0.4889452161070409, 0.44709405372206795, -0.8524286660607056, -0.8602402445329108, 1.7076265491807938, -0.36897094416588044, 1.3312287693098228, -0.3177549210653042, -0.6618769872884482, 1.6078044135466578, 0.3772022765083628, -0.3875956776069741, 1.533415300916675, 1.5181865946848947, 1.1791210648862098, -2.072854267800646, 2.433158835756976, -0.35787934764396073, 0.12229483666132605, -0.9974879621064184, 0.21709797143766868, 1.2895301433045891, -1.0611158534221097, -1.5903235959156417, 0.8258446731238229, -0.6061537016654719, 0.38122365269745384, -0.5062586119135206, 0.05023985171155505, -0.7720920786113257, 0.6038156590201924, -0.5210911056334898, 0.07654289667676686, -1.8702070320762234, 0.8247354214129158, -2.404487114648222, -0.13650317038863435, 0.00037400875165457105, -0.9354435365332512, 0.43188383931765423, 0.4863116257563181, -0.4269390275300775, 1.5786909019530682, 0.328290033083787, -2.410893998801495, -1.2102530251758141, 0.8811124732475238, -1.989532886798343, -0.20557530833951917, -0.777026123271988, -1.554428738504925, -1.3652078835594006, 1.7396128951387855, 0.165072322921232, 0.5188248025451104, -1.0028891402944022, -1.5206166210774912, -2.0359235878152373, 1.4955001908428487, -1.8205863028146987, -0.7020368835229637, 1.1498090827901861, -1.0309241495598707], [-4.713474615332966, -5.017307688682775, 2.1986300725775316, -2.324033634060557, -10.625701860143105, -0.17744237570101448, -0.8591870454869811, 1.09870868070236, -0.07231625810975048, -0.2441184862580568, -0.3827138750219156, -0.5971418983663929, -0.9318918823337888, 0.07010510094790964, -1.034148247591074, -0.1569302290358715, -0.8891246081686022, -0.36441363431542145, -3.615560762533366, -1.207114713329634, -0.28684592504182554, -0.09769905860847217, -1.7239129074024442, -0.6825690369761692, -0.4546676594143048, -0.5302844003882982, 0.7606556410053704, -0.4259226567979242, 0.5144125551479212, -1.6504177590070614, 23.138999921451106, -21.61284100267421, 1.0228009749656641, 0.8584540262061716, -0.21175279331149607, 0.8770932007777508, -1.146876556613983, -1.2514187405585673, 0.8332625831537162, 0.12110842432767578, 1.0223595862723232, -0.287795572335508, -4.926809288192303, -1.1150493728234285, -0.9380824230818612, -0.9027681554069886, -1.1395660269422392, -0.7620088319765498, -1.3177789255453387, -0.4975435681591673, 0.40655771527852314, -0.1992829598040061, -0.38992659542674984, -0.40943672730174546, -1.6026743106936887, -0.265084865206538, 0.5312697176656187, -1.2036738644115097, 0.06384162082900068, 0.08978525448238364, -1.3201385910528654, -0.49186837495782265, -0.7696541150618162, -0.8651724355260179, 0.16901793767352885, -0.6695261107145523, -2.1118515274800678, -0.29943514119648396, -0.7161149358153646, 0.06148110703876418, -0.6074527068877438, -0.8033697540831654, -1.2899776094371929, 1.1943312347145816, -1.8149843815211057, 0.24669989616147825, 0.3406071866999305, -0.20159305839947594, -0.65098999011313, 1.6380361971057917, 0.12221235336720435, -0.5662725698909867, 0.19951835225880052, -0.7432270064637805, -2.0887550523209857, 0.7671135953609363, 0.04589310828726827, -1.4866025450018845, 0.03687860573315921, 0.9450695055353963, -0.4769829562327108, 0.46707918975435253, 0.12644947916714913, 0.14903437505020775, -0.7544740403126794, 0.5494101149365517, -0.40383139662341067, 0.13211271979126113, -0.4232455427061051, -1.4667435973625702, -0.37313372580288895, 0.6255769281519462], [5.171884499427089, -9.309192508875544, 2.6890972951687977, 5.453779273174649, -5.898364673622125, -0.041998248014984474, 9.851539137902758, 1.958303167707468, -0.556449554755582, 1.0845835321676243, -0.37053953302065173, -0.23066606552257696, 10.594569014465275, -0.7357077635780229, 0.05862400353259701, 0.07638904701367938, -0.7791913442396207, -0.7364194841758527, 6.610447401479304, -0.9823980407561794, -1.2701681814117374, 1.8156757200186953, -0.3592962142825733, 0.2922840117905574, 5.547497891503502, -0.24066739395104744, -0.1078163634919712, 1.0939520102156903, -0.8105775352082968, 0.9908412939467778, 4.100030473047984, -1.7172286142019562, -0.7410357941774468, 0.8452763628430435, 0.7742327381841236, 0.5417659093211128, 4.031695315197208, -1.2236710432211533, -0.03391027967892091, 0.25601878225481567, 0.4537933615627307, -0.45661355335788445, 3.367608429434512, -1.0446299173859814, -0.0971048698759011, -0.4649471721709895, -0.12893087061639352, 0.22535963154603028, 2.2637550652137413, 1.2098660495999707, -0.3451147075798191, -1.0622181868549594, 0.8146279099208676, 0.10326427199846926, 4.058619790937021, -0.7647564874419609, -0.8189936889686387, 0.5429548564694536, -0.3830099196438523, 0.09719559513594171, 4.093122393920855, 1.1351042803586664, 0.4370450514325901, 0.4004429051699828, -0.310001854692136, -0.7985635264395485, 5.490887764016226, -0.2011834298349365, 0.54312465011665, 1.0364673246430942, 0.2212664993963644, 0.28774452231546593, 7.210326794864655, 0.8109312690072615, 0.11273484091376162, 0.20321833192074837, -0.587257400830584, -0.5416638703425032, 7.432685515102624, -0.458100233308213, -0.5222985593484847, 2.038115363858565, -0.8496346575964188, 0.19142626891714276, 9.38108389561655, -0.25797693391239657, 0.3039818958276162, 1.1692963366632836, 0.3777204890349295, -1.089346241096703, 7.256914005632462, -1.01091569214058, 0.47426095607819607, -0.7601224971227971, -1.3233416413375674, -0.5448838749673383, 9.79454613857012, 0.6679740594479874, 0.10074129560776256, -0.247005742037374, -0.2914313339844639, -0.8098330732104455], [-4.143948538091687, -2.929706480407664, 16.8546989905557, -12.246310535510846, 0.9638987961472676, 0.0532353762337056, -1.6455390359074942, 2.937353503194983, 0.189883728044838, 0.7067019097244519, -0.9922487785183074, -0.6199786779871885, -2.11568671620137, 3.2180179569029153, -1.4264596630505815, -0.05759671692107579, 0.467525640959065, -0.6548077937561214, 0.46413910579828194, 0.8798009162727307, -0.10947193221414563, 0.17667546785765514, 0.30120472232355167, -0.36214785959916396, -0.027751571120900646, -0.5223428361694485, 0.7229691216569463, 0.8114996177070031, 0.14110445337893618, 0.3626207093999994, -0.26269635519680123, 1.6402991143758445, 0.9390470231466986, 0.03470092899318352, -0.6025608349166999, 0.07082167175872177, -0.7030851223631491, -0.6487244511072049, 0.06502701144627578, -0.1303230913466529, 0.8423890729908208, -0.36755285105939667, -0.9621930304350353, -0.4438087641947264, 0.7139222480201803, -0.15835706024802434, 0.34880710598705345, 0.019234284361243303, 0.07808990255389757, 0.33975232716612386, 0.011667254776061052, 1.1934979627281015, 0.8698004389903962, -0.23473000642413933, 0.7570826723214487, 0.25276266628542715, 0.22572717997270417, 0.011666248258886638, -0.3225759019697325, -1.0532245952322157, -0.05344244042764387, 1.258108197222162, -0.06229079663526122, -0.7398990595233452, -0.832339268927624, -0.7270977644138806, -1.131407719635458, 2.6677895022205957, -0.09662409356029199, 0.3315589321074967, -0.6403522035982299, -1.0830021593767494, 1.1593999892902824, 0.4302453679716426, 0.127043933183596, -1.7339169806397108, 0.3406892800280559, -1.3167453569396534, 1.7181553945625845, 0.7531494854154337, -0.45448468779502527, 0.09538156887877883, 0.7279437758953102, 0.39813482845834486, -1.5544916365866084, 1.3499797958838236, -0.290013799158278, -0.8337582684081982, -1.1084616820407247, 0.13127325769244547, 2.51281931470308, -0.8729515271209183, 0.207818307585322, 0.2993175426885335, 0.27970448112261537, -0.7386827451603111, 2.53478557894798, 0.5894432753454738, -0.5701793653517307, -0.47723052201572513, 0.33478165525654885, 0.5146542677500555], [2.61704767121772, 2.11828059476488, -0.049420652202604214, 9.961833833667137, 0.34704622378901206, 0.028491202324499774, -0.3167570948152907, 0.016956073312558412, 1.8565371519619012, -1.5281946001404625, 0.019909680178607295, 0.3275883909120875, 1.0259988800702868, 1.171239089944858, 0.5615391558832115, 0.2502612603330199, 1.0015020126947427, -0.4153434467973016, 1.3141678406235062, 1.2282433565623345, 1.1491574849063195, -0.16993258661574828, 0.45385458011032553, 0.6493451717881851, 2.098456745058754, 1.7350954550377031, 1.0510497757596198, 1.099760115157212, 0.08136416496144483, 0.8340985995067569, 1.71562664464627, -0.3876312248129085, 0.9762430870516441, 0.09752808193141993, 0.7922683364506201, 0.07249310652806773, -0.048681715888529944, 1.4283154008581989, 0.7972534639080608, -0.27118278732670925, 0.6780415600761278, -0.306905037555251, 1.3550028688336042, 0.9632346526557642, 0.5819478459113294, -0.4982052866582547, -0.7803037317736378, 0.06400644407101899, -0.24251732275378285, 1.0914777312490314, 0.5656442676833933, 0.1969853428380158, -1.9658706024408363, -0.051120670087516314, -0.21051287435208693, 2.0374409817882255, 0.7073291718162992, 0.13252985022414276, 0.22010059077296815, 0.5757849928952566, 5.797110135902953, -0.7341831053973839, 0.8713825142993322, 0.5486696464596258, 0.09973963634341607, 0.359989949805533, 11.118165113213832, -0.28573044053165214, -0.5861031840949843, 1.3725123713021428, 1.176307879687991, 0.734906717671197, 13.31818196824994, -0.37439405506334905, -0.7568478915699328, 1.321564231824624, -0.6115591605243107, 1.442938385551127, 14.483255207498924, -0.787449767731013, -0.08735104493524644, 0.09900116873167049, 0.4192828061636091, 0.0914408439160442, 16.21657870577664, -0.12240343936882604, -0.5803561337825348, -0.530783050697324, 0.25791344419738377, 1.4831900075945066, 10.701327089911818, -0.7304393883179271, -0.3053793101362844, 0.12786967284072087, 0.4678777849581202, -0.27084689493396663, 3.5162909524152393, -1.0010500687055903, 1.1038246228102075, 0.5763219893841649, 1.5113228779004928, 1.5991906002766094], [2.519500711238663, 3.3886694851192516, 6.615796042124414, -9.012994437621584, -4.429589418742205, -0.028964163324485634, -2.4230072474858364, -2.0908012679992565, 1.3726239623214722, -0.7992717081299283, 1.1503519600122543, 0.6469881990155191, -1.0720858004509968, -4.031503752675468, 1.143274181304117, 0.4921193723941186, 1.7561272863368547, -0.733123267835396, -2.1378405523810735, -2.0022975131733256, 0.26456619919996105, -0.7805913019624566, 1.8390707643890807, -1.0278930936846893, -1.0384267761692145, -0.1385407357504994, 1.526883063904965, -0.5133005045847916, 2.2040922056305825, 0.12164226839310835, -0.051511649136367244, -1.2714874978628872, 0.2887890023429737, 0.960911105321191, 1.2015113928986105, -0.5346854938288643, 0.5244441587704707, -0.08354241470081113, 0.03984952098105396, -1.5206431170269452, 1.4442432610266402, 1.1661548557630386, -0.031433321142419916, -2.321339180125967, 1.285751004034163, -0.23531036415886622, 0.2570448819082799, 1.039913046049856, 0.2719033258102936, 1.3386107344656477, 1.7739418737659791, -1.5685959402321208, -1.8155114041463873, -0.5969076354068064, -1.3752105620149149, 0.27825853692256486, -1.033438214347324, 0.17223486205936317, 1.3423761995203682, -1.7040912058832736, -1.8034751703017815, -1.44404159640102, -0.3701545256457235, -0.10521525355516842, -0.4812221098933435, 0.1199987231897558, -2.512836760881132, -1.9128889616198683, -1.1338291802989915, -0.6458434986823802, 0.6377926080930219, -0.26764711159598725, -2.087385170706626, -1.7640780728895051, 0.4817821638176991, 0.27045281179460223, 1.1247109006652372, -0.5149767921784935, -1.8947854348221895, 0.05146074087483895, -0.5015577608353896, 0.26488797478162024, 0.23963487993297414, -0.15944831168407156, -1.3907311963902653, -0.5260577454961007, -0.6091839424680399, 1.1158928525296992, 1.6553451947970004, -2.9786905820179874, -3.2750821893830757, -0.3599257110626882, 0.50399162064597, 0.18967827643977056, 0.803675223275273, -2.9485506021771624, -1.557896065082277, -2.2736306365472565, 0.2518284698692828, 0.576326809455922, 2.1569067255398746, 1.367416732912943], [11.408604463460394, -9.41429251631415, -7.4573292276956735, -4.155832688951865, 3.2693089203371857, 0.13522047053801098, -3.1989080811352255, 2.127065956674924, 0.6675963781589181, -1.6748597945614512, 1.4983604450822747, -2.2490987269922726, -1.3858307511082681, -1.7572730465957647, 0.5213318009239317, -0.7852881622627753, 0.6312062241317563, -0.775196481217573, -3.0294814019617795, -0.6030717623813519, -0.9547245994476601, -2.28255707985909, -0.6664817220626396, 1.0678512122339352, -0.8304140112797291, 1.6263870069814783, -2.4977886293990945, -2.6522451607917685, -2.6299575706914045, -0.44143545450441696, -0.8954294453717349, -1.4422819312834703, -1.4186760618251064, 0.6647589788606943, -0.9163856470334549, 0.021277316494848278, -0.5022480339073946, 0.2142745952633549, -0.5736368594554044, 1.1928134371272276, -1.7856434773921417, 0.2628436517178309, 0.4136048383572114, 2.375636975533984, 0.5377673792722635, 0.17946870810460258, 1.073349976595713, 0.6913765234616348, 0.04306500794311196, 1.5146760096726735, -0.9143173364497924, -0.21621086592861058, -0.9260089776831903, 1.444982976298039, 1.3705184036044304, 0.05580115973719759, -1.9212775220376457, -1.1995381814014914, -0.45485772276327696, 0.07501065910786096, 1.4521472214495963, 0.8284362723161848, -3.240218853479494, 0.13429217207234714, -1.3961141582896348, -0.5022519053087889, 0.4885558120462979, 1.0818731175257281, -2.715579493727499, -0.06547230691736391, 0.14180301213400676, -1.913626148342152, 2.6070505650739504, 3.7215353057103058, -2.310562974553416, 0.876830203159813, -0.2475119647245203, -3.0005706740458264, 1.3264725020238195, 1.906273353165826, -0.49940666953293406, 0.5534157837635457, 1.2506950977568339, -1.1536219170548048, -1.7610139830351839, 5.81715840987313, -1.9137132496426192, -3.2220945873420503, -0.7238935191659026, -1.6654603168561164, 1.181783094035832, 0.6303063586885356, 0.7936671946949116, -1.2638544272259957, 1.7410914238893256, -0.880843939130042, 0.23576732282044952, -0.07631274579231966, 1.2892904110296848, -2.3566467450414916, 2.7075851710035157, -3.1544405205027575], [0.5961050878825782, -1.8861157166372555, 3.079243434183222, -1.5747357318814845, 6.810843527195912, -0.10605362918891695, 2.076865753904743, -0.3309755050808267, 0.9153044383255153, -0.05485378595754985, -0.22885322587428203, -0.8407275983933346, 0.6626469258025028, -1.0230466240095317, 0.1801527349904834, 0.9344580534848377, 0.8124803287199058, 0.08740075438619727, 0.6647690635358969, -1.0629695619910031, 0.1026828960164414, -1.7026120677648742, -0.6210235616825556, 0.6445713520370178, 0.6395866656079209, 0.5926680202074883, 0.3558958929034357, -0.344215214870571, 0.8307585011631856, -5.763980053141364e-05, -0.7571205826630611, -0.057413704783630774, -0.34397513906143606, -0.6623723835976968, 0.9409546146245954, 0.3658707366920966, 1.3051562674354331, 0.5017260169213513, 0.07326040961967062, 0.7448374133356909, 1.1318316367880492, 0.20499812054200428, 0.6574590949046519, -1.7997127102048658, -0.22817221435262394, -0.6710789626697315, 1.380675839450971, 0.8099573033552102, 1.0091407197354623, -0.6478215119532853, 1.4279024614433324, -0.12394685260375617, -1.1783934312428117, 0.783199718871247, 4.762141027367799, -0.09607739648731015, 0.9949834178997007, -0.9314557205890512, -0.3991773232731321, 1.3672681566625493, 1.322245649626164, 0.38457951048345806, -0.8747177677810244, -0.4578988282793531, -1.3565378882120824, 0.5544143925971626, -21.052396731166038, 19.114476537306828, -0.04212433127174654, 0.14443414169605365, 0.03720655853400298, -0.16527323685113657, 4.5058809317113795, 0.43867251873732166, 1.4415915948366353, -0.044482883672597874, -0.9356227549915596, 0.1146669955743653, 6.558097887178705, -0.2394706753730008, 0.8555074162931539, 3.246722003127558, 0.36017551251344815, 1.1047508696796002, 3.0319638581595663, -0.8363878602693215, 0.640631761939574, 1.8797198250929081, 0.09581097966139787, 1.1814020507717982, 2.27980799076301, 0.3294080814237353, -0.36568508586076676, 0.3425766931505306, 1.0213169513164326, 0.8947297439654087, 1.8429364998879747, 0.13937365950551817, 1.0789070084011372, 0.7483356441006423, -0.2784011474149557, -0.0377774756130093], [-4.181377424939404, -3.2541968711298828, -8.585562301267645, 7.486191905113037, 3.3419966794045664, 0.025638968154870746, -4.49442405799325, 0.5681591747198159, 2.006745943630589, -0.5892171294326848, 0.1848462527979325, 0.4567881330978494, -10.785864886183209, 0.40062030887988925, 0.9975704740600068, 0.2892568199187671, 0.008033294703952977, 0.4195972832030137, -11.50808789792333, 0.6041656076194358, 0.28608565105625544, 0.2056812704543927, 0.5190424641271111, -1.0786289527911026, -13.350956982150164, 2.543608775740236, 0.7659476767269104, 0.710762569637056, 0.3650679423398211, 1.3459968253833134, -12.40958729766804, 0.3241463438013417, -0.007967918402996616, 0.5436326587970722, 1.2671070976373324, 0.06755786050681212, -12.982450457133558, 0.5487541854093622, 1.0453010169182921, -0.7940930066426564, 0.3119218447403829, -1.0916369931776215, -7.656200740768653, 0.47827701146436413, 0.2008098896037906, 1.304343259330422, 0.5798030912269375, 0.481340948758274, -8.758042246484791, 1.1203872498987408, -1.338700425447333, 0.39642085639080205, -0.9702749447042215, -0.30503367260837266, -5.448170814035666, -0.04013892611522128, -0.35569996506123264, -0.011170017953468036, -0.9034838285393031, 0.13136908876255196, -3.4108455224358516, 0.9475453188838073, -1.0208167799160193, 0.8065064982690472, 0.7013538754482853, -0.46144746701745876, -1.758215289729798, 1.269374696953551, -0.6507048527117367, -0.42519631638525845, 1.1834883069678817, 0.345808193314557, -0.31017364245902146, -0.0223888569084576, -1.5208815752524305, -1.2552995431983915, -0.24213409168552621, 0.8313705408331903, -3.2424836059286672, 0.3432989455132592, -0.7014119740038216, -1.4457287685829356, -0.16892003295707497, -0.20071422371281933, -2.151290913559505, -0.5873380062213447, 0.7377543315827595, 0.561158995614574, 0.669956984379597, -0.07610880017561886, -3.258140400829245, 0.6371094398971276, -0.5786957375554578, 0.29539244558055133, 0.1844266420731691, -0.12172675743706736, -4.4110625644031956, 0.009641787127031596, 1.0379773406883888, -0.753434809832441, 0.8723607633607384, 0.13951301383536413], [-6.559568689771934, 7.254463726789083, -9.056416001144774, 2.1382638128073195, 1.9037898311158108, 0.002466712261334936, -1.540931610257969, -0.564620283413051, 0.11378256788926955, -1.2935587957935526, -0.3537774993730482, 1.417769624863033, 0.6291239923050005, -0.9641595586166978, -0.26762300879874407, -2.250473342082856, -0.34394572281387203, 0.7210295125580365, 2.3241221036738158, -0.35601863063083666, 2.479774007700594, -1.7997814054961379, -1.8180633975320386, 0.8415286970309268, 3.5281028937073535, -0.4874233850884148, 1.4414141724795748, -0.3121804599518123, -2.5182360058853663, 2.6048689262164846, 4.890754587736173, -0.8603124403846324, 1.0264100917484964, 0.7237350686990822, -2.209463710216936, 1.459629061343298, 2.0499442018231413, 1.8859595256944262, 1.597589522374147, -0.5896207033252946, -1.8658754003315623, 1.1192231385641367, 0.6383357467318309, 0.5976437822591488, 1.6104941277853022, -1.9638477130228293, -0.6202619666548185, 1.988314987862906, 2.2212426375691097, 0.41909154528314235, 0.697084657808071, -1.5112267388041418, -1.0102132797736083, 2.92729945636002, 0.3388943239757015, 1.004675760682719, -0.6217658415927136, -1.5246484050692848, -1.7279250788573342, 0.3218510791132445, -1.1940357372612136, -0.06085315148280615, 1.076168932720827, -1.4899590786930952, -2.161920640209409, 1.4717966683515777, 0.3957925411639183, -2.624300111428089, 0.538342201478744, -1.3731671163160475, -2.203779133968873, 2.161788165513995, 0.9994479823076061, -0.13410110626567964, -0.2560350753647331, -0.026053056938133652, 0.34578611261472925, 0.9806090070445267, 2.345610610769686, 0.5027522429991995, 0.20438526582124933, -3.7097481544464324, -1.155404838034364, -0.5387952309005757, 1.70137919872665, 1.6090926935015695, 2.084882434559601, -3.374615388510313, -2.066447439002127, -0.2820158003678531, -0.5406017343040581, -2.7358254045278527, 1.1661166498484767, -2.3126100703293853, -1.4180813941562314, -0.7507183035495452, 0.011746003227624069, -1.9975799129957041, 0.7750409103695518, -0.4914330996480916, -0.10959201931660761, 0.09405081061179414], [-4.350705993377209, -9.416945915611743, 11.560157814394247, -3.153643819359794, 0.7332322040178322, 0.06470385163847249, -1.7210763699611094, -0.7656685214673163, -0.36459423795960777, -0.9489524378005559, -2.071905771138554, 1.5231968384480978, -0.3332451506082016, 0.747503725755461, -1.3992332473097735, -1.8062481323989066, -1.8639024843491496, 0.7504056407293582, -3.8070225311279526, 2.25748408156215, -0.1515195029296485, -2.2482350390009156, -2.2535491611298624, 0.04348759146087653, -1.8493795619279185, -1.2683855377212034, 0.41164469115697366, -1.4027525410090809, 0.6426449008603956, 1.1179561837478789, 3.491825392575951, -2.029376613790448, -0.009158033697214948, 1.5873703597177513, -0.9366796398899533, 4.043505524427221, -0.4153937822803568, 1.1190103217711151, -0.39721177886873926, 0.4791992241490987, -3.001727259966777, 0.8442706066717505, 0.29271177043402946, 2.8010749883548467, -0.6772257057893969, -0.19920224708442422, -4.2764520715002785, 2.486141140771188, 0.0014981563335843494, 3.3137266647226085, 0.4693599424450385, -1.206573101528803, -4.225253110794621, -0.5748104506726047, 0.37595882676340503, -0.6578848981265548, 2.100789169451219, -2.0727795763235752, -1.6327766145697207, 0.7531759989768596, 0.5317284236773853, 1.9869508088694596, -0.7218927109002948, -2.2142446430690312, -3.578961234958746, 0.7243315625462043, -0.4465236617240479, 0.6997271867235646, 1.4347070081008821, -1.6668136365228792, -2.7852172549741736, -0.16849072546311666, -0.7967823333726526, 0.8069968463058198, 1.8676600497835751, 0.08086407440339803, -2.4518054727045895, -0.9605447864795337, -1.7772098999337584, 0.7036969003613655, 0.5742597274140055, -0.18573205010485122, -3.6108853915261476, 0.74954806862734, 0.27745840527567023, -0.7608601529120158, -0.3461215936849881, -0.6454333928396019, -0.07043265504736122, -0.855618573972109, -1.7163185885792709, 0.5056414975276028, 1.8214265208879354, 1.465289383946616, -2.5823406815065284, 2.211388337432915, 0.8695564770536405, 0.525471145992143, 0.6901529685058706, 0.9987741103721611, -1.677575497804423, 3.385085813354479], [-0.3794157188591895, 0.8647165230169993, 3.7347629454189692, 0.5300121166702089, -7.858057144890244, 0.0033249728484889066, -0.3539311428195265, -0.35566712071694584, 0.2803619894246199, -0.9784729053717073, 0.7845198973156668, 0.2974587093275564, -1.869275693004861, -0.020217883323251456, -1.9534153113945507, -0.5892420213485692, -0.2266087837015822, -0.2554202935128268, -1.554561385929891, -0.244297148115845, -0.8346805568072432, -0.5472736995516666, -0.7781440707761423, 0.3526197399932493, -2.588109748519485, 1.653281978459714, 1.3183091275630572, -0.9724206458512429, 0.43032295193383796, -0.7794859693968909, -6.45783853073387, 1.3855531544037285, 1.0227654236383312, -1.5262453002843657, 0.513778596087924, -0.002648729075945553, -5.0855306461558465, -0.4606195889312874, -1.3297728636610653, -1.6196778953859017, -0.14515373816509575, -0.6678018695087838, 24.13818413768744, -20.33120796160532, 1.2481450703865544, 1.066168236064923, -0.2960948339678466, 0.41975373177332836, -2.3111003973306605, -1.8537298140001899, -0.5432444993125307, -0.3272956523831207, 0.3104048161654487, 0.27057884148000083, -2.8663805904438546, 0.5233652255035337, -1.4031530900610651, -1.6386229762483102, 0.4927706291826751, -0.6079113661475601, -1.4822810970849454, 0.2827626692882904, -0.6412307048917802, -1.0482554989314306, -0.7055330926968428, -0.5322119538153622, -1.1024937183478734, 0.2757456379421405, -1.4920611247188973, -0.31616893263478435, -1.2365470067192816, 0.1372628466563106, -0.7219529962298614, 0.7362930646384651, -0.7249997091092131, -0.5376940760123592, -1.0427779838944538, 0.2303820857455594, 0.16691255623990314, -1.4974991307699828, -0.877911386548555, -0.025724656596854578, -1.2345264720627347, -1.1921447244427594, -0.9627390514486381, 0.5137526563353798, -1.3389830955514372, 1.4886021635123285, 0.11747638611677691, -1.1225908712932542, -2.286004444092959, 0.22087650654947535, -1.010626761643925, -0.14549141839961002, 0.1714411794842831, -0.06725825579768505, -1.4811111684357594, -0.3777573656999265, -0.5065856077027113, -0.18702932887921242, -0.6897950718742093, 0.1942203456822511], [2.910406029018496, 6.282817695980069, -12.020848186020032, 10.448846963608565, -6.127460907762761, -0.01279231699613228, 1.8661147950003294, 0.8360139354480857, 0.028274030095852123, 0.9974328887733444, 1.8180561440397687, -1.3744660864153702, -0.29457866632374863, 0.26368000387998436, 0.14178302591786754, 1.3129742267844946, 1.430252315392446, -1.0273430222411317, -2.0652272420777726, 0.8907348673973248, 0.3142077441252948, -1.205416877890816, 0.4537438386107432, -0.8962582515341571, 0.9053504785267804, 1.6528715351030785, -1.0571289746187966, -1.8898225735639202, 0.4052558750811987, 0.10770352219532843, 2.7885362959011886, 0.6737162082981507, 0.6539518688584356, -0.9561386207402114, 0.8462081290420436, 0.6848382846234177, -0.342184310516803, 1.6035167561375483, 0.8669856134556563, 0.07066797853342949, 0.20632680183691568, -1.6930310352663174, -0.6359334041218968, 0.3680418290222087, 1.6425796681525455, 0.10540934038500169, -0.18626093432721344, -2.302722621574105, 1.092626379283113, -0.12060087070321324, 0.9712051660722518, 0.570980649741825, 2.2671984921239905, -0.25513098059326556, 1.0270141927338607, -1.1823105424775233, 0.7522344374109913, -0.07773828559337809, 1.8896692461342957, -2.391286205750761, 0.9382584388901116, -0.4689521076194922, 2.617233146390528, -1.5563583370885843, 1.9548895656933654, -1.2263540604185141, -0.6913224111437132, -0.026871489814493967, 0.16859006798672116, 1.0774613257719796, 1.2535947201831945, -1.9622746026806346, 0.40277083270280734, 0.494951063413932, 0.7381618354639856, 0.38498578325399757, 0.4205837335607776, -0.3506666801808292, -0.9560269938343643, 0.4490178868109251, 0.33084932770174985, 0.345467546565853, -0.4261918874580148, -0.8530309514376577, 1.7406530919970118, -0.7343161338285895, 0.24788157829792065, 0.3424698367482599, 0.9026457806939325, -0.5222797952915715, -1.112392556837823, -1.4132894680162875, -0.026187781892831056, -0.5384970131089646, -0.22917306176896673, -2.1860331318555097, 1.428920458749926, 0.9384895449763984, -0.13699892228935706, 0.24316147223748366, 0.8257934927750353, -0.3488510904790023], [-3.71238038696082, 2.4023651940739774, -5.4973201374116885, -4.464600965425814, -4.851627573594887, 0.10404100512438315, -1.8937835114024708, 0.42631872509656227, -1.009143238514336, -0.15921621914885417, 0.5926150607461126, -0.18222410071339123, -0.5551953772493158, 0.3801271963037717, -0.8638351250248658, -1.3863527882524092, -0.07844259406152229, -0.46795274012253346, -0.5153694479354931, 0.6510803458546525, 1.1702778483059457, -0.02540867109199237, -0.37064860189127014, 0.14194208962385482, -1.216994730096921, -0.42737604421120207, 0.14753992519869125, -2.0200240007067136, -1.3471423369747517, -0.2243610049792641, -0.4135932172364992, 0.26944156109225614, -0.3231151335484625, 0.17251268004624432, 0.08114820911073696, 1.0387522836720149, -0.8076247138277884, 1.2139343402972405, -1.1333957466258182, 0.07072963276470882, -1.2293527260809016, 0.5911932512840498, -6.240663522029779, 0.03265515637993334, -1.3375324162029925, 0.09383848773750983, -0.8852431662741247, -0.6353006906624505, -2.8038055371536568, -0.2587264502170725, -2.576303346675579, 0.17987541379899072, 0.5462585943610799, 1.0043336388529693, 24.275110563937247, -19.989659462788463, 0.7106017688510052, 0.1995880237738434, 0.8625107978036436, 0.4566601950462594, -4.715046148955651, -0.49947044736371776, -1.485710015064796, -0.6977117663913227, 0.3599173633609598, 0.3182417636294878, -4.788628881634853, -0.5553486561466304, 0.37483187864897044, -1.9374754127086238, -0.5384625522013651, -0.07100319689542826, 0.5223038968757093, 0.36218567140715896, -0.35494068534406714, -0.9861727350874717, -0.38942223552221206, 0.01806452924847845, -0.10172972888945897, 0.1094603975194767, -1.7354584867566853, -0.07666232713020481, -0.47335753448866447, -0.2863627155826819, -1.7690713965901312, -0.8162078543473408, -0.04976338838672279, -0.12122704076455376, -0.42247224300558806, -0.6466069713273505, -0.5034851055522037, -0.9948833938541012, 0.19772081907433398, -0.23451679232151543, -0.9016275402962274, 0.8866150453710984, -1.93233983699967, -0.4461853512392383, -0.7003351381318411, 0.7011825283816129, -1.4118237291585574, -0.1828244413832421], [-5.468797710592484, 4.50542653459226, -2.5829196349584898, -0.6288581422654743, 14.627599519923267, 0.09694566515277361, 1.6270343068560804, 1.1965410305439041, -0.21858606018790866, -0.009495353582641192, -0.5075325373512959, 0.38386507388458696, 2.3207320495502914, -2.0277204127743125, -1.107293963359255, 0.13446413927436637, -1.1778877425272345, 1.621223438748767, 1.28993987082959, -1.4576067799189771, 0.012035008685069447, -0.24135177225142143, -1.8809676651355407, 2.4121528274495763, 2.776395645541901, -0.4780760056316073, -0.5985705927672761, 0.6966956643584767, -1.3267485769229101, 1.5645548734136878, 2.8220751780152895, -2.1197305685513617, 0.527241806414112, -0.2728857978066434, -2.0075626411896796, -0.05641653490852701, 1.2534582927602393, -0.25108784594761324, -0.1362690385407598, -0.18956440328931068, -1.705664963239172, 1.6214629674392038, 1.4964294664461055, 1.0284889264656467, -2.0788900814885287, -0.5452728392700401, -0.8958558329431799, 1.981855056896174, 0.8177974320313517, 0.2680461766634823, 0.3110187785812753, 0.041264879655577257, -1.2445814358938412, 1.2265813602709676, 0.9869477875237898, 1.230987960964671, -0.7434448274192563, 0.6528221761794774, 0.14598717393628932, 1.6558648723887452, 0.6226496788508336, 1.4967477119105348, -0.20765082206270066, 2.2747011166791156, -1.1652468893967003, 1.7241362485295095, -2.3630523048398704, 2.8820861873860557, -0.6619902380696897, 1.2691570309065578, -1.8356995981234279, 0.8929877372759789, 0.0806497183985373, -1.6911965222146326, 1.0219393446638423, -0.09464098127519709, -1.2791448942725752, 0.2918991124871394, 0.009600852233768586, -2.8657606069598236, -0.13549733256490082, 1.0602180411348248, -1.1030295105658654, 2.5727848740958184, 1.830146670968647, -1.5286688527166286, 1.3807887445406488, 1.6383660756242278, -0.24529281464085978, 1.0671922642142075, -1.5863550735060397, -0.03581620267160136, -0.977107106096767, 0.565958177486387, -1.0634487577164116, 1.0890736159584116, -0.28577549450159195, -1.6688782527066266, -0.8596887356785358, 1.4720802824771715, -1.6659444743403222, -0.11260375847419003], [3.23290452644954, 0.7368098224171683, -0.727240224433314, -8.913550938026855, -11.75225834178004, 0.1527820707860815, -3.1757636216743377, 1.0463987727533073, 1.4609989161323382, -2.4274622803839105, -1.2552860490146012, -0.2076321474816122, 0.4489907022214778, -2.496212300230302, 2.7655614402872066, 0.3205565062521138, -0.6927822805628477, 0.9454446455341498, -0.863405656234592, -1.2235455913250115, 1.6877008867025298, 2.2366605304247758, 0.221474234857778, -0.6379489063175544, -1.9067204868121024, -2.317669361344092, 0.0027698192482690435, -1.2287897339304963, 0.3729986461792297, -1.2364034445642789, -4.740347360567003, -0.47821525861823966, -0.06981896024880276, -2.8887604530061073, -0.4104028178560187, -1.3459115197737401, -1.018843717904276, -1.421984690519106, 0.7747752243775846, 0.4755267849881165, -0.7827442138487858, 0.34489761508105077, -0.4473792768586205, -2.3472644552631285, -1.146815098059397, 2.1262306703023426, 0.7641526992682345, 0.6529165022892873, -1.101652635051369, 0.09732719084711669, 0.5169088476583626, 1.114107635537371, 0.18057243684326799, 0.6142809567957147, -0.5073230770111175, 1.3625046783901256, 0.7803297906989538, -1.5124159362685525, -0.38639329181792437, -0.5386045441718358, -1.9967477720860851, 0.4695524114445751, -0.6955781507554306, 0.4571931753517664, 0.5702631778016307, -1.3587161311794715, -0.06968704784248528, 3.542137152169452, -0.6651433094083351, -0.8031759515204724, 0.05030965556819163, 0.014008895235213112, 1.996601827825576, 1.6774461846666284, 0.2867579374378646, -2.872108694134282, -0.06252586974064839, -0.44220699243570516, 3.6592693453584633, 2.4399684232884757, -1.2069707110762504, 1.1593545696122138, 1.7726508418814877, -1.28496513386843, 1.7263023617118267, 1.7448115441455594, -0.347193209208353, -1.1042059479746102, 2.2136137254368204, -0.9285931694864009, -0.006937074011897278, 0.9475832014355882, -0.30529646562740465, -2.256290596063594, 0.09404664497634713, -0.7610114516149697, -2.2997439423067503, 1.4756555213323566, -1.2056506518544914, -1.6142071486442524, -0.33994932699940994, -0.3237286608186793], [-10.465883632454371, 0.5406072388617922, 12.017826672272014, -7.535637510219937, 1.6243554233922137, -0.09485178575801496, 0.523368081932994, 1.019064990716568, -2.3876228913203836, 1.108838044914812, 0.9684734997714166, -1.2434068953927393, -0.31166690418257065, 2.184947279340987, -0.9305116623049652, 0.6123730094060188, 0.6610307917698366, -1.136333623306578, -0.01858650942796118, 0.3745691191325579, -1.1824967300627023, -1.0307716364321575, 0.33353969453445664, -0.9357018038263001, 0.6193480546443546, 0.644153668645944, 0.23026308474397023, -0.6134816456914551, 1.2811437651293112, -2.2200177825157015, 2.7709003638436243, -0.30321659003996954, 1.1060251532847387, 0.6713372736121005, 0.4842982610181882, 0.1654768805798117, 1.6042134328478077, -1.7082802652084694, 0.38214052339968074, 1.3656001721755884, 2.61452043688805, -1.496205714853628, -0.49911253546864676, 0.6109453213851334, -0.03991095812977824, -1.1208382247993967, 1.7932904995236174, -1.5053028890734943, -1.2528984572929978, 1.169130250213679, 0.7762363301396195, -0.7584276630080662, 0.33788186655359953, -2.350558070786865, 0.3905771417976186, 1.9049118285405502, -1.9567173998735319, -1.9356653493216756, 1.154753467753888, -2.871133062089372, 1.780076294069802, 1.6291449048598248, -1.004748689248622, 0.21330667500045658, -0.24590954684623864, -2.131786323471051, -1.0553349627340254, 1.5151207796708646, -1.6233997576926371, 0.6711605044387784, 1.1074125757765898, -3.929103887370082, 0.795102608817547, 0.8740710642818879, 0.38096862865956144, 1.21962109766348, 0.24150318457045952, -1.512487552272328, 0.06374646407901825, 1.517304729194426, -0.9816939731007516, 0.5382932967651407, -0.16802026618185706, -1.2141101095247706, -0.8060290322331712, 2.59688984026576, 0.2343915083377393, -0.0002555746065528682, -0.045563703454163405, -2.2508972721166516, 1.7481308069751538, 3.3609493602983553, -1.3372679145954909, -0.8577628046457593, 0.7221499517461247, -2.755696525608216, 0.829292749239721, 1.3259500327838207, -1.9680238778400394, -0.49059869135565004, 0.6926003025392609, -0.6147599316738772], [4.807733567067017, -0.9175660874169297, 0.3476664453798966, 5.561374317230018, 1.0020960131996608, 0.0042565728286594546, -5.350569858142081, 0.3633678518748038, -0.15530190880368197, -0.13416104443539068, 0.4422419181471224, -1.0127960391284145, -0.9965907943343738, -0.16503967160198116, -0.024387490117478414, -0.06029156838139045, -0.7329816298895465, -0.5057201302925624, -0.638396400069272, 0.20320130966561828, -1.1433880112880388, -0.3372698196234459, 0.3900826856475511, -0.4433857199810465, -1.5386575364530963, -1.08230544984175, -0.9003958391731491, 1.093665468141069, -0.6403785384004677, 1.2237280582431684, 0.19384536865722693, -0.301444390963982, -0.5357978144587808, -0.8701296106743964, -0.5028525517208431, -0.07561776126181163, -0.14082817753087684, 0.9006797053243474, -0.4608474148437323, 0.5317715828539944, -0.07218346109795441, 0.8582680547260889, 0.36170725196091275, -0.32771506310082793, -0.09055377159694296, 0.1766576406692355, 0.3999403571039055, 0.21251197451531864, -0.8518695685485904, -0.7436238973845422, -0.1764847154487143, -1.624062595235618, 0.1565074324242846, 1.7152354959452283, -0.1697211761308341, -0.26494911893164724, 0.36009337047952245, 0.12030154405004559, 0.5865503969599846, -0.2323157264304514, -1.9359975893133734, 0.1617306149678761, 0.33369628582741245, -0.6464779564252779, -0.8732513009478482, 0.4584665696293439, -1.0298766446273782, 0.09952940200489249, -1.444090534823322, -0.42070484241907424, -0.5003279607823369, 1.0019060540924452, -0.510239548707392, 1.3077433376412324, -1.4147103580656726, 0.23912408919348155, -0.42971785471448914, 0.10524867466522225, -4.878064085963928, 0.6738723659165361, 0.6145740144535919, 0.6391330573425261, -1.274288237831372, 0.5899664974220353, -4.114375032985503, 0.670642520522541, 0.7508677384230115, -0.8172325638739744, 0.012043061512509565, 0.8115784860759264, 25.752497426353905, -19.36292725561798, 2.003859462039561, 0.45537940109851877, -0.2625070250375786, 0.8117799916445757, -5.847196809944592, -1.304341974819456, 0.41840899930619596, -0.6536609708930424, 0.12234210490117646, 0.18740125343868388], [3.824355002570733, 14.302751828947914, -3.381988132717302, -3.7802860623750356, 0.6197092961316542, -0.04192757773631349, 1.2902082408273052, 2.101549334474855, 1.3438652952571337, 2.5326258755261137, 0.8287359424201635, -0.6195856557705162, 1.416490523083139, 0.5339509886457782, 1.5317229245509376, 0.19274428718377132, -0.6256566498975487, 0.47364846076913425, 1.763891313016199, 0.7213596697346785, -0.9027953487575533, 0.5534355515754399, -1.1924251819803289, 0.3995387057280277, -1.0766359634354237, 2.3627737821513377, -0.26478199354906273, 1.9134891909036802, -1.254289365850085, 1.832448684382742, 0.1227423270208548, -2.105880443624263, 0.037252010920578234, 2.727799971018471, 0.9151594802305832, 0.95752727310692, 1.7806800417149304, -1.4144139566699274, 1.0066192204267124, 0.6322674200756719, 0.7421423328952664, -0.17223960743224276, -2.441415818339889, -0.17342496440409758, -0.549043991497511, 2.311601704972592, 0.7673962535563885, -0.903849994576373, -2.0811266054748465, -2.965977030846607, -0.5644721297120378, 0.8841197344457401, -0.6375068267490106, -0.6863082812962974, -1.6127604096669994, -5.065172534193675, -1.2181974918540994, 2.6712665864113365, 0.4877625061634062, -0.9972866936815906, -0.3458137856818076, -6.4877195256110545, -0.10760355680886671, 1.5123431589471943, 0.38310652747324747, 0.16342504849382114, 0.7371118742760072, -7.271167278071184, 1.5093126342948664, 1.9375950198769059, -0.3602297414466382, 0.9351447229700727, -1.2904965916396487, -3.623733499860882, 0.05717687472930283, 0.8943052943887525, 0.6230022214592497, -0.6688813706808728, -3.78024873374934, 0.3199921423144834, -0.843069076714557, 0.5263184148297165, -1.8314179199339355, -0.7223840552817663, -1.5234720282113277, 0.8675491482398885, 0.10533883145474245, 2.070876630367796, -1.2140819302743209, 0.4810547987623583, -0.46895415999971285, -0.7375652761141278, 0.17745116383027693, 0.48851105291291136, 0.422445054786228, 0.4086031920336523, -0.2799308006810797, -0.2111864307924408, 0.5319665560646097, 2.399754562984745, -1.1924477303882717, -0.1170187496164394], [-2.845031863418764, -2.3300451240716904, -0.5422533516893274, 2.081182766066135, 6.490946886807479, 0.07049170177531551, 2.393232398596426, -0.32231340457716107, 2.0782921017140565, -0.4596330759117961, 1.1454469091236328, 0.0023444407702988483, 4.017594695735103, 1.568470959958978, 0.15103979245398197, 0.4625834742658295, -0.9636437445449084, 1.5968384962970787, 2.503219558860183, 0.28192569036635373, 0.6058960249219644, -0.17189486371123547, 0.08161423033347943, -0.0239046825893346, 2.4921777608456397, -0.22765783870775705, 1.0095865941729347, 0.7051774752551202, 0.6431633048095946, -0.9509595765141629, 3.883158067673567, 2.0280595136999024, 3.3318750710395233, 0.8218477007634166, 0.9371461665100309, 0.2573801591082785, 5.492323372690807, 2.6021130421965055, 0.8225370609976494, 0.5134614798982036, -0.006871425544144753, -0.05545048416891433, 6.095262774304983, 2.2416975299341138, 0.5627194396069946, -0.4676610677433581, 0.042783913463920596, -1.0019661637183814, 7.725281523884916, -0.012094949421087863, 0.19022456243058772, 0.31747259523103716, 0.3472519416607149, 0.202774648851368, 6.544632077874754, 0.17782987992128427, 0.343795163863025, -0.0867103769092482, 1.7055313710903237, 0.2868676528361905, 3.9817181900355623, -0.9119233774840636, 0.3188122103486159, 0.21492313682562017, 1.2178098827731356, -0.1170790499857882, 1.884105546641728, -0.37104076703720956, 0.27517387064813326, 0.0025463977663083242, -1.0653460623177442, -1.6760951778493454, 3.0305229683912773, -0.20878162318771323, 0.48712813175233427, -0.5168802308010515, -0.29903827653108905, -0.7455156360101348, 1.435876914347543, -0.19259819405773085, 0.1190612157036376, -0.8297241020009523, 0.897419218900041, -0.5737297204909558, 1.8459545568186693, 0.38918473480578875, -0.4261979028847332, 1.2079658393988408, -0.363409355510973, -0.275592374560195, -1.553788908756896, 2.6610202646621963, -0.4831553352876055, -0.7528745978932827, -0.11186862827207492, -0.850826757160912, 3.451431392796449, -1.2353213227897344, 0.039675834967396795, 0.870111034878542, 0.06423909788766445, -1.3587961773296098], [-4.625522856573813, -6.965881998890328, -2.6922996630830833, 4.145726373233913, -10.790649362813703, -0.06605884181180464, -0.7548638806211081, -0.3514906250201053, -0.8177896076347511, 0.19686036786115876, -0.5242779213936674, -0.3214322895451267, -0.3207763558114791, -0.11331868063784836, -1.0864473823178569, -0.7047119199426632, -0.22927161704516955, -0.8867005922114264, 0.2976862900940791, 0.6417932523448692, -0.43584227160152056, -0.4833177036256746, -0.5494534007473828, -0.36685928840794746, -1.065758694284861, 1.0625846357898434, -1.0958006936190965, 0.06745192569812375, -0.3903366590516483, -0.1761234785250382, -1.2102992818672325, -0.402747049447574, -0.054785335160288245, -1.2083079293722045, -0.5579731166231008, -1.3464482592854474, -1.687046447022186, 1.5223458823769385, -0.9741287468989558, 0.2582149374712437, -0.9716993531283104, 0.039699524800455244, 0.0015545898342478478, 1.1658965162225978, -0.23053899552418128, -0.4334200818323683, -0.061986032971093445, -0.39613628130975576, -1.2960766221507476, -0.8135255135596483, -0.462278797325717, -0.5187315176955423, -0.7523024787297842, 0.0019365278008166707, -1.49146574480914, -0.2064502158917966, 0.08846759076527852, -1.5018560416369922, -1.4562273624661932, -0.3010812325542646, -2.024955950208533, -0.3580593113674562, -0.6502261807972407, -0.22461671215908546, -1.1145382847087761, -0.27624146835840674, -2.8858898383567553, 0.557162048114459, -0.9245596652533071, -1.0515201446151152, -0.9367158588052424, -0.5431014130024233, -4.159614954137179, 0.8847296001674755, -0.5936958754119811, -0.774303889735639, -0.5814009431644491, 0.16741931949988928, 24.659427729837017, -20.53782666912077, 0.8818243561159522, 0.5728162549924253, -0.2753864869395931, -0.572714991728438, -3.1710997717808183, -0.8964208993616312, -0.5369251056557807, 0.2960185059756297, -0.8172673528150728, -0.16306295534712334, -4.809519647797488, 0.4018880623105215, 0.23347929163992492, -1.1831013928001475, -0.54404472766563, -1.4223331900677694, -1.5208293249671287, -0.8628283103420963, -0.6526113483017014, -0.5026260012308552, 0.5523808396535971, -1.603017587400929], [2.3531371020939815, 2.891763925841778, -20.332669864228578, -20.907150778273202, -0.8459347297898627, -0.12612292063670502, 17.391716223239815, -10.054348074641211, 1.3186843797168046, 1.7969486366822862, 0.5191145149018891, 0.7242115916383314, -1.9327465718152732, 0.13355728342893966, 1.3256644957286492, 0.24050522116383163, -0.7923283441955917, 0.2537524871071206, -1.777968441725084, 0.8662566025368137, 0.38564626424593834, -0.004434548895573715, 0.15717773741021243, -0.21555285629637896, -0.1505892776040087, 1.1006634475341504, 0.7123842034442417, 0.5740117626418674, -0.6733122986193221, 0.7717648600414734, 0.6738754279203301, -0.08043475582037016, 0.17374811222148304, 0.10011432563872323, -0.15718012190763544, 0.44049798300633586, -0.038147845937697294, -0.28826161896781066, -0.18604368489976233, -0.46837953569863994, -0.6864575271035903, 0.3722269721154593, 0.18228565734623906, 0.7117200490619605, 0.21491296199355764, 0.5962117489250838, 0.124601639313928, -0.5179476223622047, -0.05127155547025527, -0.5969371530174146, 0.38058704471540683, 0.33211306317430944, -0.1908361708647542, -0.7208575452116086, -0.6653465541472926, 0.7539342618163968, -0.6504217584914376, -0.16586627302403298, 0.00229448955691649, -0.6374522398087695, 0.5981466549949275, 0.7697910638681046, 0.02256194411190742, 0.4666423372380043, -0.9001086996065305, 0.8076004232752612, 0.39170084034931435, 0.29512868701708417, -0.19983190841647946, 0.3430778364990549, -0.3943021903564509, 0.04225750774719622, -0.5097667703495313, -0.036897035572161986, -0.2302946495369871, 0.07157110549198419, 0.38562005424889134, -0.1164621002600905, -0.5465257797016101, 1.0872138578953683, -0.13096151879103288, 0.3796690915788525, -0.15706307798591818, 0.18973187675744288, 0.02465038934489966, 1.5247985262421715, 0.7336014684592512, -0.38535685190560764, -0.5259051963063666, 0.3703632406636031, -2.4024033099118656, 0.9537907481774337, 0.22043922834112206, -0.339541484727091, -1.2128788653243219, -0.4112598246593663, -1.5813258235900076, 1.0278461309368832, 1.2112074663300696, 0.4828765352440347, -0.5707083241565624, 0.08023172914237289], [2.668404610065816, 3.4540020114171255, -8.321524412614425, 9.815161377285987, -4.4049996011530475, 0.17851488761175524, -3.0808683093353646, -0.955787261309631, -1.8243775469206314, -0.33189100168442787, 0.5715591792371609, -0.09695987663448337, -1.0377779536562106, 0.5709149944195383, -0.10651352315994829, -1.341131411889556, 0.03404231634877518, 0.27703644553826734, -0.665002713192923, -2.493579394185737, -1.5057460957603066, -0.46925772807820604, 0.4501439511001089, -0.314581582239828, 0.28934591788577263, -0.27669485495288626, -0.8671491327953241, -0.19775828188587435, 1.2171890022288694, 0.17555509129799726, -3.043159412505329, 1.8497423868496972, -2.3297734663090974, -2.9128451990919584, -1.8684563019411258, 1.0455453374230272, -2.2860814683809747, 0.14961983871258883, -0.5745586509270125, -2.1657862224814064, -0.06803861015503025, -1.0958750920060942, -0.993877610381542, -1.987509363631711, -0.6081553857241133, -0.7750094983023196, 1.501011803213447, -1.9742481348100622, -0.2875304660515611, -3.3254346154252605, -0.5774761407644687, -0.7106501514441701, -0.1388003400598097, 0.4586910688895711, 1.3378183452101513, -2.6813005150761904, -1.055875135646096, -2.8341734282349895, 0.0846173862185313, 0.04759634283054116, 0.6286205758016468, -3.5679963632847804, -0.9639372677654605, 0.7254571031297675, 0.6447643614511379, -0.07034061292032663, -1.7408361225066713, -3.5455041267541634, 0.1020497419637234, -1.124283507968417, -1.2985629058892887, -1.2576392833423453, -1.844503093673385, -4.679309195738312, -0.10777126290768406, -3.0555731260977907, -0.8754065210159522, 0.18761436221427677, -2.6121335522998574, -4.874229066767832, -0.7802798796523008, -1.2272397097423209, 0.3812182007621749, 1.425136767342084, -1.2901176754070198, -3.865370893327736, 0.779994888505776, -1.406342810371148, -0.8044910980534244, -0.07969125273372632, -0.31273567198215235, -3.4859483992907507, 0.110313824204139, 0.23863862791014892, 0.8527805636857341, 1.501806316001427, -0.738719577430771, -1.2167644381969518, 0.5248096195976649, -0.793088643914518, -0.4501498877914007, 0.7086066704902865], [5.10956982851888, -5.335917291193206, 1.4557254494207599, -5.918601251820754, -3.7114287807564357, -0.047877044554339644, -2.8606394374581248, -1.0001025427923034, 1.4440823468006885, -0.26269081309735254, -0.48778703202247764, 0.42351355054427203, -1.800177706250085, -0.6892748978098625, 0.9098608796377811, -0.878997785438653, -0.6363949826246943, 0.12701726486307177, -2.3899770189381817, 0.6383129276897705, 0.5230394155353519, -0.914804042443434, -0.022078423118664148, -1.3740567383509343, -4.516314253961632, 1.7355240936938343, -1.5068457668099655, -1.4414371043499827, 0.22514261228104474, -4.984202423039121, -3.2378622809450497, -2.0063714110661532, 0.07822734767009464, -0.3998571790629965, 0.7623573239431721, -2.692719462584372, -3.60048902073003, -0.9128429096803684, 0.7621667233091248, -0.20781044659648598, 0.6335931947206989, -1.7771940284239263, -0.9321091896788504, -0.6021087236870684, 0.7629537326016846, -0.40256715005347876, 0.8012693208261927, -1.1958547515693085, 0.6399451743793912, -2.2979901629201103, -0.09197747307790095, 1.6721928411209994, -0.44215371514468876, -1.7201931340594903, 0.6840289611058017, -1.126639541445469, -0.39131702466405066, -0.15869940462224585, 0.2543438628986954, -0.26365441638761944, -1.9117320857577322, -0.742880098612403, -2.113553013003164, -0.682260987642466, 0.6953413845451554, -0.4033710256061356, -2.732939635877167, -0.07600946313297426, 0.7893534120216736, -1.8835951851451258, 0.1391611132069636, -1.5669482934893326, -1.5079263475401004, -1.1428547083676523, 0.0018359111364050207, 0.1727360188979744, 0.04024400355517863, -1.5761552782853094, -0.49996580669730295, -0.3423076910520038, 1.0201441467132348, -0.5061823196439111, 0.38414581525268626, -0.5100294401865476, -0.8054224050651511, 0.13821279157437305, 0.6922220786612177, -0.27455512641152957, 0.17733333224256714, 0.179037523576359, -3.080620838435062, 1.196361471202727, 0.02116227360065873, -0.9885664178016254, -0.7267354060845143, -1.0854544841567206, -3.894785122257308, -1.0501351609093803, 0.522909508118062, -0.6370393577800334, 0.798260062738201, -0.9329446393220419], [1.4941943804190925, 10.182590593660072, 2.891474194284278, 2.365777407709841, 1.0937760162838561, 0.004880906960214622, 1.7925989304892693, 1.1239674556796306, 0.007752348293605668, 0.9126695361567644, 1.579894171271083, 0.4345866612684915, 0.43180955137624083, 1.4393392818532098, -0.4625213425707641, 0.7563296834307488, 2.495561083469102, 1.365279049230602, 1.2374770118718335, 0.015325530866491013, 0.9559451152364362, 0.13440442156883395, 0.2489558239813703, 0.792537203678092, 1.7614840841428432, 0.14927826273796616, 0.7516475129231355, 0.5028688000317089, 0.05286477756438384, 0.07477705986959682, -0.06366137320550783, 0.6444131046844417, 0.6245823603433309, 0.34960477598082634, -1.298614624864868, -0.04246859356789309, 8.314378287999496, 0.4329101108156973, 1.0016673362865585, 0.008576002304275505, -1.3835487601683274, 1.017862504854842, 10.806357051144879, 0.5293376388339487, 1.1499331509857644, -0.07649484121014742, -0.1516751683901035, 0.10133244772615857, 15.120170166955756, 0.6383494753491193, 0.030617733590395265, 0.514273393309739, -0.29391100435382045, -1.2009871461071437, 11.954459555915388, -0.12316164166537509, 0.5306307860018626, -1.8181346902601665, -0.24709391540849948, -1.063841909481751, 13.75028283703984, 0.5198833225349141, -0.4319408469167348, -0.07454293760835266, -0.6061065224939516, -0.08271863429180776, 5.739463332063816, -0.7610719064715443, 0.7042658521459989, -0.20433830265195796, 1.0597914064653255, 0.6074094973327349, 2.355267036784917, 0.4766999897852601, 0.9060546613521189, 1.3075740269069585, 1.2891982895351008, 0.06794893971395684, -0.43716021532884225, -0.5561501009354416, 0.4729829269998386, -0.7993875406379941, 0.8865966465145214, 0.47808168041852767, 0.4852534222936083, -0.06366502455564764, -0.3783556325336865, 0.986097399746033, 0.01425328844952784, -0.1510435566248181, 2.353552711933161, -1.1160713930799293, 0.5743639580625896, 0.67886561231065, 0.5880155533364682, -0.09422612021651638, 1.8879262003437238, 0.3303966884623895, 0.0067235387440502305, 0.1019455539927643, 0.7347669718972831, 0.6547857268410381], [3.7104444734275033, 0.10832583825505362, 3.2232354442638758, -0.26704582605945376, -3.1081790962323472, 0.10074730624880388, -6.298503218209727, 1.1803010190459404, -1.1980735475967943, -1.1043310088763985, 0.6210968058440989, -0.7692560951962448, -6.316799632330053, -0.9475498980377847, -0.4348049646122194, -0.9960285251851038, -1.5763507426907841, 0.6831649173554263, 25.06571646797865, -21.023102214482922, 1.6748455126920232, -0.04290589487350215, 0.09874618465878626, 0.8866506553904446, -4.205715839642474, -1.1655638050836925, 0.40538259885395955, 0.14910622031193085, 0.8996847777003366, -0.007730021284442394, -6.279891213963001, -0.13033612438618666, -0.26012284628950133, -0.23935363674738222, -0.5555654195364775, -1.3243701515203963, -1.9429649439483831, -0.2131495372674574, -1.6968617674235693, -0.28659516348172853, 0.2643210038359487, -0.6458276715586592, -0.6704349985506596, 0.20839120813757953, -0.022415821081075083, -0.20130871003297668, -0.823519109036335, -0.6306444663911372, -1.878162992811065, -1.3087129120744527, -0.707128166980397, 0.6371558374854533, -0.13309733387538686, 0.37868494908144457, -0.9931550940836025, 0.0019642993154721316, -0.5269590049936916, -0.46710491559427747, -0.05677073248882692, -0.07653518929617684, -1.3017916431149714, 0.5244266686009592, -0.7797313518170392, -0.6185804340228347, -0.25637932005047454, -0.8352262799231907, -0.36359425732178846, 0.3088265139741141, -0.209912838576623, -0.6564616049427732, -0.1040042036193425, -1.2726055318485805, -1.1753207200754099, 0.5086192139367928, -0.2901607014320403, 0.7282055651356225, -1.467062053782044, 1.8914231778478188, -0.7344161272121953, 0.9474204962571335, -0.11038468943463914, 0.32886739141477384, -1.2145905142322408, -0.48939306587987164, -0.8645328713196909, -0.08429706220723848, 0.0659741170316842, -0.04986096231044965, -0.8850870937942337, 0.19656128935446845, -0.6284814709143415, 0.707801350819736, -0.8777855934897806, -0.38424734834301316, -1.2738115355357857, -0.6213044215220129, -2.827671328352851, 0.8192660048925342, -1.0627787913767184, -0.8530327225658169, 0.48650378428835755, 0.3439866037148858], [8.35444379921015, -0.995789981444944, -12.176677958429513, -6.036558065582226, 0.44171453684389916, -0.031090696023498322, -0.49709454628216004, -1.0879239428583964, 1.5755469105158326, -0.11575279690960066, 0.36994255623485955, 0.4466011281546981, -4.987310628244703, 2.3081099471492785, -0.578916414351555, 0.14385876981053827, -1.666693499321845, 0.5827836417139355, -4.47905851756134, 1.9681199704998202, -0.8368455940850045, -0.5584584931394568, 0.40031582692788054, -0.8982753360632735, -6.354763058747681, -0.23893512368229786, -0.8311454196085792, -0.1898051104030961, -0.21664925183651068, -0.18039285868097524, -3.140862334980324, 0.9264508056100208, -0.5424290274253563, -1.388987360794876, -0.851210022441426, 0.3049308399199699, -3.137764250704697, 2.226783490251348, -0.9541192120742285, -0.11080263132444104, 0.5530584950421336, 0.14992318406819968, -0.9035440479052055, 0.11151982896554961, -0.06534140058693622, 0.5164157228012194, -0.00512416074667681, 0.6881900194258227, -2.6780837275346405, -0.0852765397906754, -1.4761553280685906, -1.909014210373731, -1.1278213766385206, -0.567358299638332, 0.5424329036822181, 0.5170802771646855, 0.5702173887855827, 0.44313628025921475, -0.9959188624148505, 0.06450302501543559, -1.5689394176541154, 1.8004178916377045, -0.6342286396083523, -0.7304516131343021, -1.1363901316039033, -0.771483477566529, -0.5961763331418106, 0.13048286841146514, 0.1764635570429093, 0.5351143850074018, -0.784962024251035, -0.20665512762493213, -2.880122595820355, 0.22411607468292766, -0.046815611575663676, -1.603589160871877, -1.8508333741440401, 0.40102542282401415, -3.4212546694379986, 0.27509083467419576, -1.1103455583332795, -0.19835695591430494, -1.8477351709772238, 0.47660485310279577, -5.875520433865108, 0.663170513311975, -1.8035876119421563, -2.068866471132303, -1.1071787956200883, 1.077158258198723, -1.381355603082456, -0.5636238777432518, 0.8977186855242826, 0.16135306452746226, -0.6239748730192761, -0.10610178274345931, 3.2624264411794788, -4.464243573441452, 2.472657205706279, 1.6233626803941, -0.6930272921411851, 0.8883350669428585], [-0.5476091444118157, -10.334509359924482, 7.694703841306067, -14.417824739944155, 5.000438519723539, 0.04728961337920183, 2.7906531259596545, -0.820464474014638, 0.502458527321068, -0.18354856694821275, 1.2068009839782448, 0.6347398445614205, 2.0944154195483073, -0.8165688817326419, 3.5033218337599914, -1.123179477822057, 1.0384661709546337, 0.026343043333135634, -2.8969581267643725, 1.4966114682370963, -0.6602505176352437, -1.5064857604435022, 1.5083255164504925, -0.5769588051737835, -0.507061192040005, -1.2981066626112396, -0.2891958861995146, -0.12676744237978912, 1.0654078803365223, -1.4352924373535716, -0.14357032277631404, 0.5051179780842647, -0.6165882684613521, -0.8646701503457926, 0.025782007984210518, -0.744966138128509, 0.14692983464598564, 2.0474989570036053, 0.39292587669247075, -0.8175154731787923, -0.4713028933724376, -0.010513347154360147, 0.47890726754577295, 1.6580778931220077, 1.5031762799548356, -1.399839934631186, -0.10334223970786971, -1.3603543410603656, -0.027376556470025924, 1.943073390786091, 0.720157767337693, -1.3446396512871688, -1.2469305526587435, -2.757787390719954, 1.767946299711585, 0.7045003487772159, 0.6859392472839272, -0.6370131645928326, 1.035394681833052, -0.3392770775979706, -1.9493944679520097, 1.810054631657621, -0.9058822412072652, -1.5107324479573503, 0.07435490790581493, 0.20355923145171276, -0.1110661625853791, 0.9900994889171906, 0.23132108381673205, -1.445954254596698, -0.41712329150412797, -0.5230548114740226, -2.368983869129957, 2.32054769750438, -0.9824986600669445, -0.5271606898464332, -0.509098192836542, -0.9499062517660779, 0.09142526531734914, 1.0164722716223107, -0.30371934881400475, 0.1690701417510845, 0.052532185139725796, 1.1446494154237925, -1.4468360543875556, 3.346204238280214, -1.41297253828399, -0.9580781847418848, -0.6287587283963864, -1.708898693504529, 0.3682241035580801, 2.4495209856113282, -0.5024337707977992, -1.5729405413733808, -0.21394428717904654, 1.0899106873266582, 1.1223540755245383, 2.963709806837355, 0.2896039730229193, 0.5586655229323513, -0.08901148469360892, 0.06981699890154382], [12.539775107968882, -9.147691700075624, -6.543419859176935, -4.191029571380718, 0.8890775605690745, -0.10180115630273819, -3.5789553365987787, 1.0418062954925424, 1.4953867256183846, -0.07718330942821552, -1.8425516923447998, 1.0831673314250256, -0.1761218530332203, -0.5391872372326885, 2.0934974989860007, -1.5277628000629924, -2.884356980937086, 0.7329830164727773, -0.7910599641646581, 2.195876326025276, 1.7738201573385457, -1.2404184342561881, -1.2671304353481712, -0.6071822073821368, -2.6859650800034105, 1.8492250548308997, 0.3639832831779544, -1.5436884028898317, -1.3092135635508226, 0.6437952195469263, -0.07402958290330688, 2.1339424029116167, 0.5618172888185095, -0.754325590983824, -1.771030314787074, 0.7828048784746683, 1.3459170856450822, -0.6462563982190115, -0.1523164498267665, 0.4374800555804556, -0.7635912331918622, 0.4702895121703554, 0.47079079651574085, 0.3136216186943101, 0.6499182125223513, -0.0007977908222596584, -1.3727000851073003, -0.3487420590858084, -0.16490546707288267, 0.38303116532125425, -1.191583219077751, -0.19206242498402484, 0.0815561621235249, -1.7110958289174647, -1.4664477034497192, 0.3073419543441618, -1.413816821640822, -0.6762770150882145, -2.318191852479071, -1.0576923507286287, -2.186609179924596, 0.2887528538044907, -0.555601825444872, -0.27587629072617065, -1.8758382671891434, 1.156198375616555, 0.6884844525519686, 1.0735467332791193, 0.6685327052404815, -0.7990808022580964, -0.6027125161215943, 0.03731098257230039, -3.691512469233283, 0.37306295163720393, -1.6240892246293617, -1.1086246596705691, 0.13339451363140542, 0.7496757481079476, -3.1568196043671275, -0.0674996307844737, -2.95233593684897, -1.0663830302927844, -2.2267703179630036, 0.2633076951154109, -5.785151811689605, 0.9084469657469134, -1.9793209601772515, -1.7026640715781283, -2.6376935144024514, 0.2072122854365159, -4.197621525241661, -0.45558133441490467, -0.9750834250857684, -0.1424214188755437, -0.8748680570624462, 1.1113260085905998, -3.7051494533999385, -0.4117428686721541, -0.2873576795030219, 0.9196232579179824, -1.5200142318739038, 0.16118952770968442], [-28.19880541265872, -0.7460380420727042, -0.09105889878228765, -0.6735481031587985, 7.235457435690736, 0.0016245883918533988, -10.863276634034225, 10.283222036447288, 0.6340090480128193, 0.7568250944942271, 1.2661237612449534, -0.31184975029859385, -3.1751362317925143, 3.365224214577563, -0.9125908091037002, 0.6783618977555087, -0.9488932280201124, -0.8087412942933389, 1.1427178834001928, 1.2115863680387713, -1.0058309178574194, 0.6325779232031531, -1.8856532326063045, -0.8075017131322483, -0.09694937934483996, 1.3012905998797675, -0.10442235324752663, 0.7110126489612756, 0.2062753546040933, -0.9021855638096001, 1.0217283966793849, 0.002860157732430307, -0.26107829098700813, 0.8693961212813968, -0.7784540282843077, 0.4606654995477511, 1.574395213398337, -1.242805870026472, -1.2390885847753483, 0.880356105170886, 1.1138153984030719, 0.5396327600792994, 0.22321004872429379, -0.1083540015417684, 0.32444940410422074, 0.14456488435067066, -0.95965761102797, 1.2635241093032838, 1.091749032147571, -0.6462408465602646, 0.4479090251665448, 0.4109336103911631, 0.18342617702435282, 0.6732992478976249, 0.04523176325678375, 0.6055974222567752, -0.5273340718061038, 0.9972239451879731, 1.0836351475250883, -0.8086297565166679, 0.9389544573660584, 0.35217333469747203, 0.3800334925303316, -0.296041824072549, 0.37646373263094896, 0.605456698134454, 0.20536864359592263, 0.33927847512487147, 0.2585184668306825, -0.537693892283917, -0.16477868657348763, -0.5903303758294912, 1.3071983159615645, -0.8148147073950878, 0.3476297300656567, 0.2732342219828851, -0.2570526106486316, 0.9239447109988345, 1.6520353448239768, -0.9151716864373957, -0.3999501333000494, -0.7420003131591121, 0.2426593665145142, 0.5127724110581133, -0.36192469739871025, 0.6643465612194678, 0.0274258692377697, 0.6168332680524405, 0.12659306889121788, -0.020832008936037136, 1.7974670917608835, 0.16532267628172015, 0.3825227899700817, 0.343989933078888, -0.45631337844738085, -1.5675128961209215, -3.4841510924279344, 2.528717003767817, -1.0229385000970668, -0.6609784165922237, 0.4907404317015564, -0.7488052989099603], [-5.789493953027236, -7.228150418520814, 7.6633157910466325, -2.4652138440085807, -0.5619006420947442, -0.053760733423558665, -6.344840193425846, -1.1151375742517846, 2.5645706714921075, 0.746079678714581, -2.187232438196675, 1.5425199900574766, -7.924838212231801, 0.9634117686068319, 2.2813644400790514, -0.6255117254336491, -1.3282337786410447, 1.623070378238186, -7.706876934687782, 1.5953587791135124, 0.5377193557055072, -0.6889572164926681, -0.8566525373148505, 0.7218577775915336, -4.662855404741709, -0.2655351833833979, 0.8740898805228401, 0.5819173814822959, 0.38270687314690344, 0.4386558966040094, -3.023074980287117, 1.1201689123411114, 0.09427147815234573, -0.8184837489362553, -0.11139059134623995, -0.19795804713951318, -2.7514635069622253, 0.3483103041841703, 0.7244397729237788, 0.4377896964759175, -0.6111341329959974, 1.1272023258083608, -1.890664230489176, 1.2130667602581209, 0.14547780011075817, 0.0007779062667773631, -0.9651047593162693, -0.18820412958713892, -3.484580836258165, 1.1893448602746786, 0.11006238921520055, 1.6783878348357533, -0.21949260090905134, 0.3623202628167915, -1.5341095796574418, 0.9574326151479969, 0.9742130671426193, 0.9533311195873231, 0.2523284785792711, 1.0325747502532594, -0.9890369489634484, 2.067696807267666, -1.9882381641995077, 0.10644812842336927, -0.5078715214320068, -0.35575738394110623, -1.8287407356459395, -0.003834383920075142, 0.7649599656455087, -0.2672852943151561, -0.5958134217589289, -0.6027668132404369, -1.6661969518509028, 0.9523174979571838, -1.0939836288664713, 0.07970287148282501, -0.3903207982345816, -0.23401483908655532, -2.468652245227216, 0.869236705188814, -1.2536436595053146, 0.2904908338936328, -1.5829304094506103, 0.8045545795905249, -1.148201329522701, 0.9453076745592589, -1.6341080242366988, -0.5567252855610405, -0.973082597728081, 0.23491630372793287, -2.6341766586545687, 0.1913771269449076, 0.5730831027700956, 0.08062146992233175, -1.7525590910316295, 0.08464700642990777, -4.604349410614009, 0.4266106987058156, 1.1745561253342078, -0.7569773522580844, -0.2560348681558785, 0.5709741502591776], [-0.9256880653182155, 1.2953002098654196, -4.554633244356113, 0.5254969564890514, 3.9782399475468044, 0.15132887333588677, 3.44122351018577, -1.4424562440175839, 0.5224985795437754, 0.5417466263495225, -0.8350575274795032, 0.7696714443725468, 2.409251027521263, -2.3569057562047058, 1.2901729571354343, 1.1845387150034805, 0.959398317360124, -0.14681443602532165, 3.832296270438188, -3.2675034958364746, -1.3594912636690788, 0.9732568607765187, -0.29380971147752977, 0.4737887282461637, 0.9099003632345933, -2.569962992956244, 0.32314208274483974, 0.7482518966735171, -1.7014146268965884, 0.4896175169339809, 2.6470166133480393, -1.5440272270397406, -0.07241170733816901, -0.2567156750829999, 0.028687509568765573, -0.22093620140021725, 0.3140973328986612, -3.7373844108673646, 0.808040830078791, -1.1684646491353639, 1.3129853504689446, -1.30604126303937, 0.8910393408507156, -1.569249451850964, 0.0545680519598101, -0.9795007443314041, -0.15256766852877082, 0.047262439403228496, -0.6348960192353094, -1.2663332163381982, -0.5429737946769151, -0.00385826512214469, 0.44414044772434624, -0.21406571119795836, 0.29578666386283264, -2.122504265543423, -1.1872115921830868, -1.2485995200058924, -0.39805180673659385, -0.18607799383302093, 1.239948683284691, -1.6895377971174035, 0.9967873409609617, -1.77189251935612, -1.5860790294654632, -0.16349747238006127, -0.3487971176938795, -0.5422690479216256, -0.5246015100572501, -1.7496133444277793, -0.549808258445523, 0.4622970163327639, 0.24803439742701033, -0.6926544774713455, -1.6305031877164666, -0.6464873031956241, 0.22834994680011958, 0.21383669049562265, 0.40596898918876695, -0.304047856075937, -2.1618802970029485, 0.07041468172732829, -0.3239121980209917, 0.23416472874607377, 0.8533226843694273, -2.4740953050715624, -1.455532616287905, -0.38945710839196734, -0.035730145443118644, 0.7147838404538961, 0.40725146051419164, -0.6818259623778133, -1.6641737795841325, -1.226098649474259, -0.04447359319086234, 0.5262590276933863, 2.186013001968495, -1.373851471461449, -1.627200235664199, -0.18210404658234455, -1.122807043795909, 0.828042633938], [-13.461085995154628, 0.6057166197673045, 0.1229541135060964, 7.47839661013142, 1.608721202101649, 0.11737489859872617, -0.7961765221890053, 2.1955935101190285, 0.9504854218833604, -0.3495921451758978, -0.006782226409745605, -1.4033894199500032, 1.6567161188461788, -1.0698616452624508, 1.877866662748855, -0.20542854742738473, 2.1716313511979, 0.4296501939154128, 1.876664647411717, 1.2783768499611634, 0.012755926757162257, 0.39536070537582035, -0.9610958678997602, 1.1522672069521604, 1.8379745982707005, 0.9399635613693257, 1.5239991570913467, 0.8803602936863902, -1.1561343023061477, 0.7840136087045922, 1.26472638137718, 1.480873242844786, -1.0520153718685905, 0.8805836127773993, -0.6485201723531849, -1.2659739110275345, 1.3953811980651218, 1.7575127656554688, -0.02783691444389285, -1.9996480893617508, 0.5008691249637185, -1.1894237272569699, 0.8746844138620711, 2.1750863719039684, 1.7971846717616144, -1.607121223528872, 0.611251233563777, -1.2144684781893156, 1.0959406625631412, 3.7373718088906127, 0.8779157195002811, -0.12909405734001067, 0.17438827522489672, 0.26604907131406885, -0.021175070923239184, 1.9394852501815403, -0.6549307569028349, 1.1014271278450793, -0.7346562189141183, -0.8817730844165284, -1.6336495039598424, 3.58883439104914, -1.028451927478119, 0.48815127063843583, 0.5186259102446458, -0.19726807177688047, -1.6769639504547953, 1.8187783989325796, 1.5095813962330709, -0.9514479172823674, 0.6675619677141178, 0.518348824455227, -1.0963351535841734, 1.2883262517458633, 0.9021793873072602, -0.3826873339273102, 2.029609485629073, 0.14246764341592774, 3.5790103707308436, -1.916955719515547, 1.8381749654169772, 1.0503084536831042, 1.7049215221841256, 2.2700791493300705, -2.572578403026068, 1.4721234863214236, 2.0199268557366192, -0.15081697875980168, 1.3652512477578096, 0.6170424829348972, -4.6800003038003215, 3.5732128340225193, 1.325982535003306, -1.2720743238822738, 1.031887398032812, 0.34137854532150913, -2.9296365265631645, 1.624789444388296, 4.89970309474054, -0.9514272254010998, 3.028817059684139, -1.865321047168517], [-2.0491872729682146, -1.7484017486065564, -13.3836857246443, 15.964743222431563, 8.223067950375672, 0.07848994775090924, 0.23213349245266296, 1.2884240784477483, 0.6623345405101366, -0.19601237016375178, -0.9571571498580441, 0.1419942552885884, -1.1699956010493737, 3.6810255492785977, -2.0606184126716967, -1.4657467460778784, -0.1503750005919535, -0.31587020876856386, -0.841682574996126, 1.271876007563801, 0.6181155786291466, 0.02734869596141703, -0.3045530934778706, -0.6981006924386988, -3.7909575317810407, 4.213604301777185, -2.1370928434562804, -0.39027210298635334, -0.08271486846735168, -2.6462271428403747, -0.005394881070898321, 2.052620099309069, -0.18479782975557332, -0.8323586214992741, -0.2422921790430469, -0.49625562011929, -4.593235416344054, 3.5819499590055073, -1.5493021382271381, -1.0158910165308768, -0.10465844736728058, 0.17377940837405662, -0.41772595710383004, 0.3427667820349619, -0.26547537019250733, -1.2399024911070091, -0.6826811481997018, -0.3592400525916088, -1.432970495972671, 2.2645557109156425, 0.9475534503158071, -1.0298523106540995, -1.6615220486859963, -0.626496315163204, 0.7913799768587625, 1.0562349421288495, 0.44353620364616436, 0.42675449703513646, -1.847234799379205, -0.7982947948860796, -0.548749786071983, 0.8880202156664445, 2.265774419645445, 0.2694079060894657, -0.5440904088364072, -1.2803856983750577, 2.976521159262789, -0.16371551519836805, 0.5893006092755151, 0.10195876224664958, 0.4454822677770181, -0.1218045180622848, 2.4057868138227536, -0.0787787630664096, 0.6552864739469155, 0.6726089656380377, 0.7015274875139846, -1.4535769793440354, -1.575796096464401, 2.6861721045898257, -0.5954264257806333, -0.025010081337583583, 0.018641831611427316, -0.8860636098720603, -0.5013866677572855, -0.7793363463646381, 0.4573433213524161, 0.5160778675221349, 1.393858586293679, 0.36714559945497083, -0.11260338171088656, 0.07056830097209964, 0.5187401967966968, -0.4889468519338015, -0.8701947205220552, -0.12800371587172185, 0.7648264183385276, 1.0400361366059292, -0.3419806942230939, 0.6051218597093307, 0.38439172625353274, -1.4229448153720863], [1.9352196571164482, -5.5401493982420815, -1.0099685151458628, -0.047922896941902535, -3.7942032879123815, -0.09576529054416286, -3.4921133986832387, -0.31556119419697004, 0.6339114811941045, -2.264703270298584, -0.6157923002848836, -1.3684205548380615, -3.714407334830968, -1.0345929604149053, -0.37826460705441267, -0.5680723094775512, -1.2415199147993907, -1.3601604965341545, -1.6004385616343642, -0.520738443901494, 1.5863375130727928, 1.3263776184495892, -0.6445370266724376, 0.051083436755242836, -0.746048761358175, -1.2203839204855629, 1.5457702554618693, -0.0152900029038965, -0.09434051207738434, -1.276540063877791, -1.1756145115969476, -2.52217440339878, 0.7099081945148212, 1.2444998399690885, 0.2667803978124132, 0.4256488833463397, -1.379286744816351, -2.850869365904865, -1.2213784952643625, 1.3751140602016942, 0.8740631245932434, 0.9971200507122241, -3.678138125439852, -1.3605556404852104, 0.4715502344325761, 0.8990365060386769, 0.2834942175119736, -0.1437344281783474, 0.4215062319784625, -5.023660714354622, 1.9946482243557802, 0.46767845168727223, -0.15890682547789253, -0.130180258897399, -2.383355465433175, -2.483987830906613, 0.4183549335567604, 1.4281076079879111, -0.2069061666460398, 0.11995634128414712, -2.234533259647585, -2.7823233549154796, 1.911667831340197, 0.5725526251649236, 0.5917840313111369, 0.7531529800014519, -5.377517709879439, 0.9232942517552837, 0.5291935900107018, -0.7412498428302479, -0.3648722433886552, -1.5754941896236325, 0.6035948919725602, -0.3174553255198505, 0.07650981990403367, -0.41224856847182684, 0.5278055825687868, 0.04476692126890099, -1.766639095000185, -0.08278322157608091, 0.07660443283323032, 0.43802970703737387, 0.9145776452271676, 1.155830811334894, -1.6228183697293004, -2.0030933645361735, 0.2882414900427514, -0.6246552221709221, 0.7628630111961041, 0.7049233197092439, -2.6983081153556157, -1.4860157416459738, 0.5417525959383175, -0.30759193912138116, 0.7424367429590657, 0.7881348096902995, -5.075565065105024, -1.0890916309425553, 1.6638232408261482, -1.773532481100741, -1.6225062006079753, -0.426407714732347], [-0.9807941907095806, -0.04333126267892033, 2.158113110763427, -7.034683909645426, -6.878398350614174, 0.21697701100477526, -1.2762463466546314, -0.3446423579409307, 0.28746314116421584, -0.06320888968328402, -0.8096709574665177, 0.6195235851372705, -1.1798815674167402, 0.7252446290550771, 0.5417330212440317, -0.8749313878098893, 0.6142234434862989, -1.6923653831062726, -2.8986569198701932, 0.27057577531290666, -1.276344043254025, -0.12225187108870077, 1.2465164591929159, 0.1790947788701237, -3.7236112856742256, -0.1992910454883182, -0.8387678274930954, -0.0871314773087011, 0.3713835871764169, -0.16846585374521983, -3.0028710256268205, -0.9564724172891073, 1.1192760001459114, 0.4939555714700397, -0.29205814814694164, -0.27377086941118584, -4.620653298108263, 0.1555591848299078, 0.23180170155685, 0.09447657382464648, 0.5167351979683578, -1.4338751868044122, -3.2985383436510123, 0.8550213968650866, -0.5946277807214638, -0.5870037060850735, 0.15308128080726865, -1.4045514117524078, -2.5640858578439136, 0.9690878260278264, -0.6846052906410495, -1.764373750909373, 0.44353886319814656, -0.7733076956131788, -0.6879306441719452, 0.10195201555532929, 0.4028468540457941, -1.4761648355299126, -0.8138633102271153, -0.2722842088805886, -1.2896206419956977, 0.42990932425269984, -0.8013995309829279, 0.5720710477007341, -0.40848892835257467, -0.614657773407156, -0.16771324907535842, -1.5516873972907232, 2.1042340109367648, 0.19899238314739343, -0.4570044386950974, -0.7428124814205013, 6.574846549230723, -5.923945691453718, 4.180700491040208, 1.489170856325701, -2.046412278492644, -0.08891951111135087, -1.4468295204864918, -1.0606065674155516, 0.9290952566003731, -0.21780959071823008, 1.1511648324776498, -0.15666810804739856, -1.5675657164927217, -0.7104420914325615, 0.15669339304369684, -1.092990743104924, -0.10955386826213971, -1.2956682055785946, -2.35174633878635, -0.7382980556266501, -0.3871953395871626, -0.552121865814703, -0.5317059764409946, 0.8749042240992176, 2.854777825641892, -0.9881869652034393, 0.886365608257231, -0.38380676627967, 1.1050923541516144, 1.0047227886787187], [2.530874052732478, -2.3565435048501957, -3.1772727826500216, 1.359915488623686, -1.717954922037041, -0.10424831995928238, -0.2633395295519001, -1.0914743446446593, 0.12699226956821041, -0.9769253031833991, 0.4493246803662934, -1.1190411596450436, -2.6213365467434095, 0.5705491145647037, -2.1251677205644586, 0.44569893424443635, 0.15421578063770655, -1.485814616998082, -1.8400824502637338, 0.4635337585858871, 0.6136404224302789, -0.610986258552786, -0.5003974386148115, -2.5567663429010015, -3.4132852761878354, -1.995976757782484, -1.9308469598830298, -1.1337869987840266, 0.17566389368551028, -2.3931655112785695, -3.325872355599252, 0.23252379997408726, -2.4421009974564925, 0.601619586601337, 1.119541867332977, -1.8828695321148197, 0.3996912416341376, 0.6678049559326753, -0.24256899393414816, -0.49123243343019873, 0.044643991251370495, -1.4958948151254658, 1.1798954782577675, -1.9382168379832239, -0.31611338772416925, 0.14093646369261445, 0.6944507030239927, -1.5423949588559083, 1.1946207211213398, -1.4970742160183674, -2.178610790631667, -0.35371520446681365, -0.04635652536801318, 0.11237628388712868, 1.9245545383561924, -1.3012442252845422, -1.273581436045018, -0.8826634165111197, -0.3683441702030918, 0.472558172476864, -0.11102213667511218, 0.22804681743315008, -1.002520329573323, -0.6824968939013546, 0.03151525144726533, -0.3952556300101964, -0.9836517559667803, -0.7807647764799259, -1.1626051174105012, 0.6068214691212456, -0.5343217931961134, -0.7157562049253149, -1.4166235162868361, 1.2671185609780033, -0.5302544240572012, -0.24004111145796556, -0.6028385520525018, -0.5846054365551422, -1.8268696177973833, -0.828954624387968, -0.602006261387559, 1.0205614771211928, 0.6966823269866806, 0.6021356376738876, -1.42431079598225, 1.352412845686258, -0.48280995479291916, 1.2736403374529244, 0.969626007709928, -0.8326942178039785, -0.265349880311129, -1.3735661017504015, -1.1682035948765568, -0.7070340034115588, 0.3740818266319368, 0.6065954397991347, 0.3328142307622269, -1.4422835107807743, -1.2799362013476494, -0.6744589391821957, -1.6489752151471972, 1.3856325426872262], [0.6188752903424958, 3.130548184818941, 2.4364510064871774, 1.3352597373949604, -19.30957362090896, 0.22304309613786727, -0.3415836676769664, 1.7508677636780001, 0.43960673194356586, -0.33686320243822704, -0.9441803948529626, 0.5057652000478651, -0.9724641605417051, 1.420982386270791, 0.3735973915494786, -1.1774746136124365, -0.6554637619026721, 0.18855237246268017, -0.33215921096517015, 2.7115205088198957, -0.7318131599694502, 0.18352160063741768, -0.4134559716705679, -0.07976481875534819, -1.7432849566077409, 1.0590231785008184, -0.3623336701990253, -0.23068077229118644, 1.3034298397997872, -0.03227592507476784, 2.537120444185423, -2.2984503027171033, 0.5570003788108723, 0.9141084432923224, 0.43837883808878825, 0.8085886166015398, -1.0784321696989012, 1.2203308893650697, -0.8091681952658879, -0.7410819330484668, -0.17458834807931842, -0.06932379734451724, 0.23381305552971507, 0.6162855760459702, -0.5220573881392645, -1.1190067745694985, -0.49581196035872055, 0.1556600404199987, 0.295873487371331, 1.146943363683456, 0.17883945760433875, -0.7117576235079898, 0.6311740077180242, -0.8894249736784969, 0.39508835276881493, 1.3409141176665242, 0.3344729147948283, 0.6542056303635323, 0.04968803469353837, -0.09705827848301544, -1.0888970819775488, 2.02783645777123, 0.6164496565024707, 0.07047385718527409, -0.11864259101109563, 0.4191443182912662, -2.657814110288718, 2.552693173186348, -0.16129406456225528, -0.4493020668407121, 2.5810492171596082, 0.5411266456767664, -2.7281229152323903, 2.1418631707781963, 0.08472498044101413, 0.05483438074417549, -0.7984210657924544, -0.3120717776634744, -1.4249130287898137, 3.3248930793678704, 0.6501287414598111, 0.3601718873627927, -0.9949265326706899, 0.23400219635569924, -0.3341339333551751, 1.6400426488434379, -0.2592984533796144, -0.18692823260120783, -0.2064607006124488, -0.4378287308733116, -1.5531942947712531, 1.028881946637164, -0.07025603017382147, -1.1823757475151206, -0.5480088416391532, -0.3732370988147623, -1.1903473742900916, 1.2787001726562803, 1.1921041524960831, -0.99047132474637, 0.17296990787320693, 0.48811243974415913]], [[-1.2018535444389324, 2.1397101411154424, -1.2605026277522084, -2.7498541851666, 3.4899966300283674, 0.31482358705534697, 1.522436817373937, -0.4258631958616838, 1.2361735965760587, 3.2074114044808146, -1.1884320546563136, 0.21979652370386374, 0.28846149452571124, -3.4465316753795134, -0.17224974335547188, -3.2211719143811717, -0.8520819219195273, -0.44962944051862475, -1.0410133488825177, 2.260090685173707, -0.44736956560783814, -0.7745724279097962, -3.1855002282211355, 1.824557788246834, -0.23445270840333385, 0.8103451911852337, -1.907189543505906, 4.025887580850755, 1.8883181153195343, -0.27763774337632574, 0.3963971846637, -4.5475834298823425, -1.686146268998284, -0.7202347608678085, 0.6690725769867012, -0.12457807722428432, -1.7424458663596494, -0.5987867488701314, -1.2590660988051787, -0.29472006632054587], [-0.020712718877914395, -4.773487503374573, 1.3208289735769574, -2.3128228572909433, -2.6456328291205624, -1.2398827904780774, 1.2969361492907092, -0.18436551847034616, -0.6060177792950169, -4.166033470692995, 0.12114424679529782, 0.09974897491126511, -0.40053050263558343, 3.2731105719510056, -0.6103776416151456, 4.557332080433192, 0.3293112122736443, -0.1889667533404737, 0.2824626754178695, -1.1857446950829142, 0.2034874761488341, -0.7444263449286032, -4.058529723426433, -0.33545620904020756, 1.3470636539080303, -0.367159267804412, 5.107855962363967, -3.310449900330455, -2.2509838141937624, -0.500673442082616, -0.18551628153075295, 1.9329403571234054, -0.7683518405032476, 0.80036020136436, -1.0764263550121507, 0.5907877266274819, 2.9497486488790905, 0.7640020712310059, -0.5183407281628338, -0.8222786958287995], [0.08197251801984513, 0.026710019928175194, 0.09570360330395798, 4.467207011927831, 1.0618611476281596, 4.158532011924095, -2.979359413449496, 0.0005094809958461299, -0.6561802477180632, 2.9244006230476325, -6.077619804521779, -0.07577654653733402, -0.6115388210590221, 4.380983267213322, -0.3858331899953301, -4.15805741573358, -0.9340366111868177, -0.20487248697892554, -0.2728715804678559, -3.088731831389113, 0.12798250887888393, -0.5129282493301486, -3.8915615810756474, -1.2356429376226012, -0.49063787280441623, -0.4236438660856485, 0.09438651038052182, 2.7452788137018698, -1.6917490871768293, -0.9277829136799859, -0.7234853662150251, 1.6211379457540671, 3.6854541164876613, -0.1814368594240964, 0.6452010512328945, -4.414264013138929, 1.417087168984001, -4.167470317213968, -0.5898991656308997, -1.3151161975007246], [-0.7106156702470731, 1.5582021911403994, -2.3049537627490873, -3.3274716470618872, -0.6410280664656294, -2.8870653324792093, 3.6051061697455196, -0.4172192261628745, -0.08312043086133061, -2.8601198790022226, 3.5393431924154584, 0.21312797024078553, 0.8992819998741447, -2.9146345887907104, 0.8071672731627737, -3.6031692018367014, 0.7942726338030157, -0.15464918246763004, 0.48586988006356824, 3.0620860548606186, -0.02420285986203986, 0.46782666896322306, 5.745353562637664, -1.5431539771677338, -0.09989865301345789, 1.2668166353395907, 2.1310829394070185, -3.506416625241318, -1.6843193246431067, -0.8817658664477616, -0.24878481843498046, 0.9231494705794229, -1.7856260091969154, 1.4375891328072954, -0.9968055186607762, 3.19914360137814, 1.1893344904793268, 5.8737352635654645, 1.55695630981577, 1.2565301239621798], [0.04107781434507057, 1.5131242441002741, 0.9468456303586075, 2.8026001782041665, 0.8211129522468182, 0.4424475175259889, -0.40043967022811566, -0.23149782883055608, 0.07551357320228476, -0.9640808617645684, 0.4883553933201949, 0.5887746627145695, 0.0658979347176367, 2.7108069326280972, -0.3526860315829958, 1.8994382557276666, 1.186651266827567, -1.09765775937325, -0.00820867614558743, 1.2271228141476371, -0.33218413194612356, 0.7613093670545054, 0.821802751460779, 1.0440523692672021, 0.3943759337193891, -1.633773405049451, -0.60975993533879, 1.1238431304113143, 0.958543408727496, 0.9328925154224361, -0.6726979409281357, -0.07451373651939903, -1.3333133327129971, 1.6875910529768374, 0.373159793903995, 0.00820273153175023, -1.5166771777392845, -3.2012555267891583, 0.049976014509986635, -6.597760089100566], [-1.0124986147021526, -1.0917496293777225, -0.9056936980500209, -0.4397130162563881, -1.3480443107139586, -0.6925906985466714, -1.3096436938538323, -0.766440029133085, -0.87548335474429, -0.8421488308505882, -0.7143967921963288, -0.9848038033243909, -0.7546219510188291, -0.633665572750224, -1.3446210575603093, -0.45185076552962034, -0.5504951804408369, -0.7249722544908954, -0.5142146346753925, -0.5108836758358821, -0.9147474109225828, -0.9661366840384334, -0.7813521785756246, -0.8705898920987422, -0.9410802234337117, -0.6293101932011735, -0.9364038326470272, -0.4759807348263783, -0.6165172083400221, -0.8002339687681106, -0.42269931663168286, -0.8928796293038631, -1.019685230574352, -0.8883858116458567, -0.5341158113950953, -0.7055282526040175, -1.0923222233543683, -0.8823772212160554, -0.5065298108765288, -1.1646037324936491]]]}