{"biases": [[[1.8869865666536014], [0.002606460145954833], [-0.5194266737685157], [0.20208302302608003], [0.5991563105538013], [0.3538413414061863], [1.043272556750974], [2.0879826888298245], [0.29648830459898257], [0.9075178605657092], [-1.908545461373161], [-0.24939523847853975], [-0.1339411283901], [1.2210674464471993], [0.6778921111210789], [1.2474097178526382], [-0.12204268008643979], [-1.8207442986922326], [-1.382258013815694], [-1.1032729086295907], [-0.8110858996564264], [-0.4726364564061887], [-1.0094778766610017], [0.805485395371976], [0.9957477024432828], [-1.2967878839113696], [-0.1346851183712114], [2.075858039760943], [0.9079280373078125], [1.3915568129562683], [-0.7456347773919937], [-1.7033118534671998], [-0.13155399509486299], [-1.208885622821223], [0.8098673122860621], [-1.4560892153037854], [-2.0151482482888525], [0.7910543741045719], [0.4076937709470594], [-1.1841996079055224]], [[0.6458649343168497], [-1.9395058655215298], [-0.6189531017996273], [-0.7556312257410016], [0.5470274447273278], [-0.030471378226596367]]], "sizes": [102, 40, 6], "weights": [[[0.6840753902894995, -2.5830682915936642, 0.9265926523046396, 0.30793263308797025, 0.5292809050899598, -0.14616720867885827, 0.2190638915863341, -0.7304168728986341, 0.3498469800909205, -0.5778903881863013, 0.09867872612995363, -0.2236033926049602, 0.2783814539989115, 0.22181664839154294, 0.6846425882409328, -0.09515331407622986, 0.25381271932937666, 0.09518300817052652, 0.15446774649968187, 0.27475506968295876, 0.25876496961927303, 0.10456771806817221, 0.09176741801995696, 0.08006252143600623, 0.1068553836883253, 0.025633909810194765, 0.14824629552482732, 0.6513721891210152, -0.011032108009808531, 0.2477789883187272, 0.037127406727267956, -0.46368491389859606, 0.047603203997514325, 0.10384650145679263, 0.25624133671063754, -0.14696983138121966, 0.12603625498252788, -0.38297315446833086, 0.09405827657735977, -0.6734527384916813, -0.12647298792400005, -0.015429373690583049, -0.13786595771777244, 0.4346432819650562, -0.034355980902568514, -0.6120962372470098, -0.38861073359726395, -0.22399408456035852, 0.39808241439416736, 0.36176882259651055, -0.046386704720171285, -0.22008837860013447, -0.001791819402055417, 0.3850471910882965, 0.5680753361823401, 0.5364364761001316, 0.5287305371066093, -0.1563448622947652, 0.7010834503500527, 0.023526708510027302, 0.2600500410114581, 0.4927649774282453, 0.4304496164827547, 0.316375011895787, 0.11269407917327685, 0.3518221307176468, -0.20079935896260348, 0.9016230004707456, 0.1749772756295323, -0.09269612538469914, -0.2672059120098376, -0.11993175210093607, -0.058930306460763936, 0.13235141782031956, 0.2756132983494806, 0.10672628259105067, 0.056082468147409366, 0.42741066142052486, 0.3070924518066473, -0.31098939162911243, 0.3355163476884149, 0.05888803237082031, 0.034691597163221975, 0.1019370950374306, 0.25111528886023765, -0.3595545956905634, 0.22829791401527416, -0.01194620272795913, 0.1371903479865137, -0.20942502474887448, -0.17053823970778512, 0.3384765904340427, -0.2906988526815921, 0.07046922693244172, 0.4159978778281308, 0.1478972832366992, 0.2276619153336088, -0.1715627796806036, 0.11224965806429246, -0.10408696054616647, 0.12924150573487905, -0.3003567082670023], [-3.015519705367646, 1.1456586078324702, -0.9023179936187765, 1.2173483299131937, 1.1419920008716518, -0.11693386525065343, -0.9513995384806013, 0.11405542519762152, -0.4551565831972141, 0.04587225529679254, -0.6370959057156655, -0.33463798570749315, -0.6768096232963087, 0.12209928509696515, -0.32218725683692273, -0.2585444412569282, -0.72404479357586, -0.056027447314829275, -0.5979932581151267, 0.5435264508571173, -0.028228465495898438, -0.34789473935355747, 0.24768725016872295, 0.32058345816498784, -0.12952108877085325, 0.3180536782961657, -0.9413828209357306, -0.11775622858402918, 0.36139173131951163, -0.7109237086109179, 0.483619168207289, 0.3355499026022944, -0.028708172197161323, -0.16091953850251553, 0.29878469279641934, -0.7818160470567754, -0.1401954215958848, -0.06119224412729323, -0.31591310803834427, -0.08871359825586808, 0.012081543666219175, -0.20473341094165023, -0.34343582248472354, 0.1257745673084993, -0.6206827159174378, -0.054263723882851944, 0.14421338934483152, -0.33328201692577136, 0.3197325629294277, -0.29653693345132065, 0.20803904520509456, -0.1640068548001185, 0.22469611962620803, 0.15102707793929, 0.5001961802081273, 0.13917581022488035, -0.049561131783100607, 0.7835288757886699, 0.6901745312902612, 0.49818540309944503, 0.2495748698566998, -0.17284546052866545, 0.4036353418004774, -0.44367337984575256, 0.20191450301554628, 0.16794215662421466, 0.4334131751730812, -0.32767136486963516, 0.4961979985932372, -0.27350047988039966, 0.48742928272234864, 0.04706405728213994, 0.1933766231363991, -0.2297541125817045, -0.254188375796408, 0.4167193436405005, -0.27206774478883095, -0.09232155578133557, 0.21186251823918115, -0.43836119570443055, -0.698045373252546, 0.302834165935208, -0.21662471355437993, 0.2541341139328703, -0.13427449337035233, 0.09611468943337097, -0.8638715445396005, 0.0289796663983306, -0.08110633983120129, 0.010907275054464975, -0.4610955368362539, 0.4726868553959784, -0.3104991020417661, -0.12644111355127513, -0.11234834764648804, -0.3558787486903858, -0.9638206316307022, 0.10740302770554348, -0.41829476482312195, -0.47711313905277297, -0.14424701597520284, -0.32555398660182466], [2.0052582560006806, -0.06515488026652126, -0.7394877778626058, -1.3260310572882834, -0.5076808318991799, -0.02458761472304796, 0.45440751541219765, -0.5580793286556646, 0.48884778834280523, -0.2863878240846321, -0.07725978132084982, -0.308307804714178, -0.520863564988944, 0.3610108861225091, -0.2573844612667044, 0.7267834773869924, 0.09665513534636737, -0.19182132325809892, -0.04396952361452523, -0.36043516379309737, 0.09233284551816918, 0.061854796593148985, 0.19975717069292773, -0.15053194412852727, -0.6829636756258918, -0.018001062493746056, -0.316397195586409, -0.02534831013465586, -0.14939229826848563, 0.46545437287006775, -0.8734047942748859, 0.03597430442935958, -0.9828844234762506, -0.6479680969335972, -0.12869568899874936, -0.31780181189351897, -0.2984897202611568, -0.1702921605549402, -1.1106801162350681, 0.10901775027418201, -0.3242299277345065, -0.029402025051036597, 0.045790012852852766, 0.10018952162107686, -0.18681325390657266, 0.25914804808119035, 0.16823489137768644, -0.03906246118269349, -0.294534761260487, -0.2700800710319617, -0.7368217230094981, -0.5398244715528822, -0.33798768172227917, -0.32566965551487753, -0.5084914116030342, -0.39496956162353286, -0.224972056983632, -0.28558558188945116, -0.7046519113143188, -0.37233306197613186, -0.660661400397203, 0.3600959649530454, -0.9637671905329072, 0.30202254197279504, -0.09000038616057411, 0.06963650716390349, -1.1269153643023768, -0.19243218878309537, -0.8529785726287569, -0.2606501688536442, -0.08398946920806645, 0.1019713850253653, -1.021103346338017, -0.5744954519922172, -0.6138738425299112, -0.3568404199812385, -0.08381505959405153, -0.2071160705072523, -1.5232581731799784, -0.5629718908082458, -0.8741265096657249, -0.20431734259997217, -1.3520420408056786, -0.05679140930888333, -1.0623957264799733, 0.45174710810337493, -0.7544517671205067, -0.1358991141632758, -0.4954168368448963, -0.10107612580561444, -0.5582536986885593, 0.4304332722216471, -0.271456611903271, -0.18928041190950937, -0.5776027604234629, 0.36363775571537904, -0.5164418930102627, 0.6672178997828012, -0.47741177274842583, 0.42327249861149574, -0.012526588354019751, -0.6742172201481911], [-0.8824189644421964, -2.1473943152138237, 1.2422931553097056, 0.8419914004484899, 0.2295950510694592, 0.04172870854193138, 0.18920624206599462, 0.2929505368180982, 0.09901381595576131, -0.10540549024351879, 0.17973495024507802, 0.016971847020467713, 0.05804331343615539, 0.5949359641465042, 0.3568664230070418, 0.0610495512397851, 0.4889898001746527, -0.34837499300764707, 0.2094684371197718, -0.24101945044265852, 0.0067447504282934535, -0.029686960240542137, 0.4908741920147676, -0.14052666828721938, 0.13033218477357283, -0.35671614447623506, 0.2714437429175346, 0.268429991919158, 0.3344860857741286, -0.24173611597303724, 0.4730251165522682, -0.44600828992842606, -0.10446339971379824, 0.4233708177731416, 0.6506210644473889, 0.18893118706938342, 0.02028044434599611, -0.20997977093598824, -0.24470342335470316, -0.3283008951129189, 0.24373854886524499, 0.24754042258548406, -0.44020177942186767, 0.094259931538806, -0.22828759514218291, -0.3605886476275908, 0.11327236897983135, -0.2529492085390984, -0.24494332947810876, 0.2612350201924395, -0.31176355680276285, -0.41765769152850474, -0.038213859847524255, -0.48579950622582213, -0.958209217250605, -0.43955895586611776, -0.4691793251826273, -0.12013564243366048, -0.4477304759937651, -0.2735943508937472, -0.9186236227175987, -0.5397001503830132, -0.5701611285989956, -0.3676963472565944, -0.23247105280094602, -0.255138056187538, -0.789388888798053, -0.14261250202519585, -0.6908860323124045, -0.3198169259156598, -0.38509040167113096, -0.21024057605419486, -0.16609796870590332, 0.015014404166382167, -0.039259221785870484, -0.1504207778047273, 0.23260089999546016, -0.16388263916220153, 0.8457975349238003, -0.7363459396307415, 0.0992564396175096, 0.0072873451184948534, 0.023458933158752648, 0.26707398425750406, -0.18003437954125556, -0.1967848544351365, -0.15424575047378897, 0.041676078049853287, 0.047696239655424556, -0.008368538770390515, -0.28063313474755597, 0.17630051645188474, -0.3524996821235639, -0.0884452695062006, 0.23988997702706058, -0.32273733397552196, -0.08631036095986923, 0.4246119709228501, -0.1390231691566434, 0.23022190453356642, -0.0010383481611395157, 0.16689700460531037], [-1.1357671381421608, -1.870840686094963, 0.8134174935328994, 1.3961318845206652, -0.8859098778964993, 0.20019069092016162, -1.014145608713501, -0.5830823271081453, -0.04270673753747045, -0.258302437623538, -0.4847015164550842, -0.24624570285646802, -0.762649235639834, 0.27334501088678265, 0.30664292382064795, 0.3026606801275812, -0.5597990402826821, -0.2209918515715851, -0.47128285776771756, 0.15878935363669267, -0.06585886503977122, -0.16062944887446007, -0.14632322441838236, 0.14547443635405527, -0.36747180909872756, -0.5641282662486025, 0.14582898755155263, 0.11203962168524073, -0.15633580460022636, -0.44465372889966004, 0.18388286239322882, -0.10508581769104787, -0.06457497905838665, 0.3832021752023317, 0.14028981571742602, -0.192468958740844, -0.3116375817787348, -0.1655457355039496, -0.01544896449651674, -0.16827116790635527, -0.06586156928533386, -0.25290616683785505, -0.4401951302159525, -0.04424999113817404, -0.11699582831809871, -0.05098856769598076, -0.32672084734178775, 0.18290107206634465, -0.735418509271306, 0.22563182677676338, 0.1955687160180579, 0.0015586864669868464, -0.4702328841532528, -0.13376345518906665, -0.7753738316348056, 0.34824308256972547, -0.09549191944862957, 0.03687227583141168, -0.28976698493942704, -0.3656146520950797, -0.7265298299388652, -0.13856575499587917, -0.5951603451741396, 0.12934546628834107, -0.06927132605055565, -0.3883766156215646, -1.0877837887842072, 0.062245185102977454, 0.07128359067238821, 0.07718178332239496, -0.214729606103394, -0.6437128392569107, 0.01951459099410658, -0.26849019450595124, 0.18863720979339252, -0.40713257903297984, -0.3768820205690305, -0.17285982315718343, 0.3636677868384748, -0.35510411198795244, 0.11158105027799621, -0.05854670719210725, -0.09614483043846686, -0.08186066011169725, -0.20247320345701794, -0.09427631155315518, 0.15045802118680973, -0.05293683514291678, -0.2305966207784728, -0.4452546166733247, -0.5172678320828663, -0.12462240201995757, -0.06942560934087276, -0.09833921645793862, -0.20088055898030593, -0.3463473393598148, -0.7612068101074415, 0.10593194899405681, 0.11452893245117766, -0.22650002487003426, -0.15336103077032381, -0.4441541622488177], [-0.4418729733350792, 1.2816175579525269, -0.4323476916601543, -1.4139567296553497, 0.06830599047804553, -0.13701434514122687, -0.11541021039840427, -0.5141025056074844, -0.37911315391325706, -0.3692368674291162, -0.2371339904371483, 0.09254519789689791, -0.07440777167722046, -0.28713074263724425, -0.23286276998190653, 0.2824988763065528, 0.22074621598395672, 0.6585313103430015, 0.0686515981673579, 0.30200565645198946, -0.008810990337400936, 0.11598543502375531, 0.2765484469344178, 0.21981683549610004, -0.315510007992556, -0.19571575348509487, -0.15404915128979532, -0.2838665711383292, 0.11987131867884425, 0.31230613090985737, -0.12365181901556915, 0.043708820786523814, -0.14057200519368585, -0.3749798919862471, 0.07204411366441583, -0.27286247922241574, -0.24078570946168057, 0.10421640817256685, 0.4032044112474516, 0.034311523854541864, 0.006712260067897798, 0.22402322990622392, 0.03429488984452736, -0.5814161030190701, -0.029935467361216574, -0.14333881887705283, -0.0736175738715563, 0.45264556183352234, -0.1036033470009908, -0.307299609862837, 0.06061818321200189, -0.18485515854677112, -0.22444866475789677, 0.4746725401309934, 0.3465108054894654, -0.0740128087996778, -0.035203094535699406, 0.12524776019401274, -0.15292886745181858, 0.45010584379768637, 0.22291393096639636, -0.20100847507435235, -0.3824045872714334, -0.23852068649628722, -0.08287709215954414, 0.05773030997600637, -0.6855885114157281, 0.15954565468224055, -0.23446015642373066, -0.3751383503975387, -0.39226983104309776, -0.22553663937734195, -0.5286361558750552, -0.01681437241901864, -0.6126171584688446, -0.2902081774320743, -0.18083136955747964, -0.343437894331137, -0.3452054546929073, 0.26694449413859445, -0.32342156281188816, 0.5606593404592373, -0.2043316096912044, 0.1862192019810006, -0.48858206536460985, 0.24082614384534587, -0.5514155824090625, 0.17502620806463562, -0.14861696358396523, 0.19929333331469137, -0.5502957407041612, -0.3368435034153707, -0.7364449906960964, -0.06375988130950049, -0.4445159662542862, 0.45283313471108644, -0.05648446208432582, -0.44930521907951165, -0.6144178424768358, -0.3527926317417302, -0.15747090428983626, -0.40389025417086605], [0.7959090875176906, 0.983520117813973, -0.12106412607803545, -0.9563203052243616, -1.6846803135460626, -0.09395630945539053, 0.2372654097547113, -0.1605657479922511, 0.3206832013274547, 0.05980795726532588, 0.23510921611145907, 0.04577803047805054, 0.1186260281094034, -0.04559919158597914, 0.15942952084236958, 0.07993218372209929, 0.10669605611118667, -0.14935872762234603, 0.09807659504452568, 0.1608873966830545, 0.5202235778359322, -0.17116846105227626, -0.06006349258874924, -0.449053784855949, 0.27476551427720763, 0.23968393066166163, 0.6088455714312617, 0.030193285135696576, 0.3518469551552479, -0.176877079078781, 0.10328998496731373, -0.10117082260962929, -0.13278390239452137, 0.02166132056283659, 0.24715859049038358, -0.19821376578006697, 0.33164874500555586, -0.5388985899156074, 0.003703618488665007, -0.000563138463377233, 0.11906737621321685, 0.43148167402607907, 0.40539833995587626, 0.10694124373304348, 0.5854662394914623, 0.025009298014443074, 0.6104441387767704, 0.046374930497797624, 0.3833964756062951, 0.20573048238567912, 0.5714982323948686, -0.02751553651764412, 0.6912354693209553, 0.14941422923578548, 0.6150473205365615, -0.0697255522161727, 0.031024806387398844, -0.12571787822618352, 0.17018744207340286, -0.09773962206036951, 0.36692849747004275, -0.16055781529056307, -0.23785175901782463, -0.10565744943746641, 0.350050397074787, -0.23899105004218293, -0.24336724476686994, -0.24325843726935203, 0.2074769487745025, 0.19617328039918086, 0.3077279663854844, 0.44524785427557406, 0.0037484786115496264, 0.04057873654589238, 0.35392642282633857, 0.02870376106239836, 0.2974092694318702, -0.24681664434795256, -0.1658719916631033, 0.5598912566105883, -0.025823094904545766, 0.25873432268603, -0.011513477117339495, 0.2338037279693646, -0.4256557778465558, 0.44005711722064067, 0.08637672369185255, 0.1653021168281326, -0.14364129230972345, -0.6139048644127234, -0.5786384583291635, 0.8418828828536912, 0.129899096328654, -0.04475015053165495, 0.13430834380498496, -0.5293002357831519, -0.005356705582179886, -0.19145320517561265, 0.49884683846603894, -0.5177982957377516, 0.30330578577462114, -0.1844777650890112], [0.2902344898046857, -0.8377024142406796, 0.7824299382249336, 0.18724283659655855, -0.16654984823554664, -0.0052944088065436075, -0.04511783178838035, -0.07693847564779627, -0.3969991894983134, 0.18272831345968718, -0.30631162549723634, 0.30525415865664585, 0.12416864524738062, 0.006233345519714833, 0.07062909500114953, -0.05078769736501709, -0.04118905251941213, 0.2121102995929185, -0.5138616547274016, -0.2304372357432944, -0.30504676167989087, -0.4194017619290104, -0.34144341287605184, 0.3586422254768811, -0.1896561013471845, -0.31545274011306684, -0.1696124209683, -0.10552485449986376, -0.13415608282232333, 0.20092538232821722, 0.16765503061727527, -0.15992382716863934, -0.24129648328287484, 0.31854040280887524, 0.10055966908042241, 0.28240758322902293, 0.007218631807981387, -0.08438645088339299, -0.3986562583673781, 0.15365525088638549, 0.21697541072362286, -0.10594409131510703, -0.0009206274621987852, 0.2947673110503993, -0.11468443969898204, 0.20455069448276764, -0.13375528735235556, 0.17513528043526702, 0.6048533456971705, 0.013022971303586733, -0.24376656088223903, 0.27542943559222416, -0.09336129456456203, 0.28714398345971476, 0.18464053936098296, -0.4060001344946994, 0.27512220616382005, 0.15360022438132578, -0.31257906811438707, 0.498532975546532, -0.20208986695977976, -0.4419239641103053, 0.5650748342518658, -0.2256236129724105, 0.15839147707838144, 0.1834834245949271, -0.0710429293358445, -0.23993201910197096, 0.23430308145105652, -0.2033168886105884, -0.3923437244174066, 0.11963164607850417, -0.15547905586970426, -0.3836077642265064, 0.21179948518193278, -0.33552687845583234, -0.2907027386262926, 0.6253448341260307, -0.1993112721402025, -0.32451709788683125, -0.03856042306911929, -0.1313956094396693, -0.22174212780345828, -0.19216821627498715, -0.21688206477706662, -0.6820782751438862, -0.0030663800839372175, -0.25247886830167227, -0.06634634064376577, 0.4234697828091244, -0.5539356109956645, -0.32001432620541265, -0.3188641315989529, -0.3720007997844329, 0.014158786588897925, 0.08035011966385626, -0.20097324462634322, -0.2915475255343686, 0.21125874222285082, -0.09132167224442121, -0.10787561134853929, 0.45129304085381017], [0.3348867216228695, 0.5341859327215135, 0.017565443154167807, 0.6521375249786352, -1.1133841825456094, 0.15325423456173515, -0.6560792930830058, -0.0934416449329347, 0.16082520860289598, -0.4644172697958374, 0.07719254376609243, -0.643153271185356, -0.3252296770389342, -0.11082968809927961, 0.04779835202729872, -0.4131159885115061, -0.07381979548593257, -0.3603262946672092, -0.7392555345249929, -0.747181847264666, -0.3069495650203571, -0.17317532838694172, -0.13612224557358926, -0.21304253245856358, -0.4357293579779857, -0.006405249853994511, -0.35169776938919506, -0.4242069779000275, 0.22306001741735484, -0.23586217233026383, -0.6994442365003866, -0.15380807312880246, -0.1293817558336754, -0.3123318873186085, -0.08789023093978483, -0.4086165332442473, -0.6935135335048602, 0.21720191620592175, -0.20024416438453096, 0.006529205488408042, -0.28945678768557964, -0.41528795073803665, -0.8000896550253209, -0.15047349064811236, -0.21517679197377798, -0.08625320835466807, -0.02477290970924358, -0.05677200962267185, -0.789120807197587, -0.40379235927616064, -0.25572873587303563, -0.17870948731793834, -0.15460222386507522, -0.03579084606040171, -0.30450854041231384, -0.2725312308368387, 0.20880789216459655, -0.16197861569850194, 0.1774888997098585, 0.30701241291519243, -0.4431802689668159, -0.27873509050459633, -0.03709692039683044, -0.14861771713545888, -0.1420252093957569, 0.015391036049668065, -0.3020223549863674, -0.22905991054864877, 0.01184668559385721, -0.011341774681777671, 0.395448707048891, 0.04412614541675493, -0.66997089652746, 0.22869785939739082, -0.3165108334332309, 0.04741389391833569, 0.21775427519019963, 0.062277993573024666, -0.7088710461902928, -0.1574549261765134, -0.5736346523504313, -0.24939474814676182, -0.1727847462845425, -0.11477691300348644, -0.47884975469883617, 0.12167178241038147, 0.01215584014982787, -0.12149470003552407, 0.07426466597063447, -0.13583683270122163, -0.31231011199449615, -0.2120848207068145, 0.10275972695600744, -0.16601705900306968, 0.42446283783997135, -0.03807892062599075, -0.6009105900183536, 0.17946742924929296, 0.042123135257249825, -0.11884030852072312, 0.15232215224072046, -0.2783783414555118], [-0.3316238503262444, -0.33344887655304745, -0.4542602401346577, -1.2152611715850825, -0.7447033288908302, 0.16519946381226855, -0.4016758863751703, -0.3566135128255105, 0.32334478777127434, -0.5073958139681268, 0.08709913345942057, 0.3099560524856565, -0.6017333668126752, -0.48755559080510724, -0.21866602881556532, -0.20043705757068486, -0.17090719222238626, 0.05821167422970512, -0.8337945418102085, -0.018776514678267093, -0.5839411087526236, -0.5694601677791369, -0.3261807416656052, -0.1404228610886582, -0.31518073277972125, -0.4192278889126447, -0.14559045068969492, -0.26660682649664336, -0.4283210255167229, 0.10626878953320358, 0.15270644404670894, -0.18646999610848236, 0.2039033306287886, -0.30762158498993003, -0.34209793375166686, -0.13325143632719394, -0.5250732171285716, -0.5392538454716712, 0.16249220572053097, -0.5613758875217659, 0.38713871924807114, -0.16459467369503708, -0.7103592038689649, -0.03878244502394742, 0.014228191645566381, -0.29316547415163713, -0.009486873576501442, -0.07576874296390645, 0.0601149882961619, -0.9393580392278132, 0.14051342796704555, -0.08810521897419357, -0.13975963864623275, -0.17570323324300854, 0.3473779614151544, -0.7743238361039033, -0.020086545883733965, 0.0012041998065412873, -0.1551093182070826, 0.26917474754476584, -0.10996739224619027, -0.09745788684180201, 0.1452930830417494, -0.5193266695687955, 0.32035138981156625, -0.3158293626801832, -0.11769867224721384, -0.10796526048315723, 0.1350644324485447, -0.23005563358993988, -0.13631419778152376, 0.02605031264283887, 0.07979820589355394, -0.46687985556286316, 0.2548937942423303, -0.32188822583925986, -0.27839647990103195, -0.11786426279330424, 0.021643605160006713, 0.09525569349069282, -0.05915459730128753, 0.13303676761438898, 0.1653086686947768, 0.1556299331830492, -0.3397834463301419, -0.019710903053800112, 0.22660206030551266, 0.1439446970938994, -0.21095084840142778, 0.3888802127688446, -0.8235442424594637, -0.45502674227107803, -0.20126111560334434, -0.30190807875916914, -0.3501089636673621, -0.32516370781941484, -0.7699637770087848, -0.10009517757270303, -0.17216169681742058, -0.34135063689564893, 0.16853492102204543, 0.00016136544353324297], [-0.30169933630474616, 0.2523383426400925, -0.3195085386036952, 0.36702158901810383, -0.022432735968535233, 0.07244279897758774, -0.005287261153857303, -0.27489344716667935, 0.11636290228819816, -0.005725339699670286, -0.2491481185519361, 0.1860774264301968, 0.025449247915559258, 0.284091970325272, 0.22383917995271888, -0.018810410774863826, -0.06991567672608263, 0.15966529119866713, -0.11453568645115064, 0.02084091022677214, -0.20057060254348813, -0.03659790389131851, -0.3348469583632426, 0.440862411124674, 0.1538000001253835, 0.3718613303254162, -0.14050842477981734, 0.14262816859120417, 0.0014668987191813927, 0.28872731973689725, 0.20614657591292876, 0.20327195171375712, -0.4323953398737902, 0.1589139889902688, -0.0071313242954084985, 0.26549574172747714, -0.05255152784760768, 0.34634082376322434, -0.3097366496835284, 0.2919848602357094, -0.0879652171974083, -0.15987370070997, -0.22964183828193485, 0.10532536769583611, -0.4309798419791349, 0.2022513404038199, -0.3361776580926537, 0.14168050753756722, 0.0724865877395934, 0.21114919061609594, -0.22576705563609645, 0.08292607641591043, -0.3387606989091973, 0.3678958851263299, 0.11875252498248971, 0.1429605075349505, 0.11852312877328867, 0.25302748072610576, -0.014443022112511668, 0.2277031698507232, -0.06649547421051341, -0.014546771385114001, 0.07399331363604199, -0.20336409139417475, -0.07705036277305329, 0.11826802732408433, -0.3771917747679445, -0.013308300795514231, -0.27156035403795264, -0.19056162193406165, -0.12024722536943455, 0.11906004412289309, 0.051267381723185984, -0.012670618085402766, 0.2618921646854773, -0.09903245054821355, -0.2247867450518617, 0.4064145423238248, 0.09953508942571601, -0.2265600294584667, -0.001493617085922356, -0.1589315520678822, -0.1421575746753712, -0.000563210076619494, 0.05248783825581142, -0.18742830113317285, 0.26176381801804194, -0.1657771201166836, -0.31807270717502945, 0.21901863327377621, 0.12419144219748787, 0.016443874017562886, -0.06592703824247452, 0.04729238170322236, 0.15133019117500235, 0.0074387797389830436, -0.035540000637009635, 0.2181807801511205, 0.2929821598391887, 0.1320644287502983, -0.20820737410010035, 0.0731412374286884], [-0.5602107974649422, 0.14478791869110888, 1.3923631752511285, -0.5572895760903538, -0.3955614949131463, 0.18051496819204896, -0.17794401605756602, 0.4070848147527799, -0.4169823466529452, -0.07292825382353318, 0.09412921375496126, 0.17178024825188007, -0.20494395201282875, -0.015774239110073904, -0.04356593852182697, 0.15142952196225629, -0.076110875656815, -0.02674965289736702, 0.09715517221115895, -0.028528835202299506, 0.29178585862128864, 0.36711787048750605, -0.04594653689170325, -0.042658793323618674, 0.11067844179372913, -0.2925793318738642, 0.20899973620298057, 0.3574483560117247, 0.3505327843240123, 0.020492957697488816, -0.0977963577157153, -0.040885015349825166, -0.11953700791065425, 0.13630673303668608, 0.22951160520464745, -0.19660869133441455, 0.09432678394949334, 0.2968254014338829, -0.09124424447954613, 0.04570181797289041, -0.028491499061328772, -0.008094699411502562, 0.20797115407837788, 0.026605681296525508, 0.18783705625743247, 0.18359806126713854, 0.09085757561171913, 0.20984267570478662, 0.10576651524203609, 0.3647617026578131, 0.12638644028254556, 0.14005612501513107, -0.05236001267959096, 0.11687322997030082, -0.03941657680707583, 0.5404705022660347, -0.11454654118687409, -0.1522893320682994, -0.0674016384119378, -0.049915000409110184, -0.1642601753726778, 0.0498836379596257, -0.1090168553426781, -0.11523290733378533, -0.38194522467352476, 0.1620497035724084, -0.20328306359912765, 0.36082159027722027, -0.20064829744431523, -0.20785917875170443, -0.40593772881938384, -0.07456236935922458, 0.13406788045770932, 0.1581176056958707, 0.0014721985706434586, -0.11747534089842676, -0.3474440197384415, -0.14335021432793316, 0.04809950897004114, 0.4936210941123025, -0.26034648752328887, 0.0796194718988698, -0.30885185852431224, 0.02836927987736302, -0.22160995012144138, 0.3129350730621643, -0.2551997612224391, 0.13651444103866633, 0.056942947471196194, 0.18336500229110653, -0.14703063055839743, 0.07590460798598214, -0.10586588846815541, 0.14263663290960732, -0.4558019724173709, 0.10273634786712443, 0.16203032843524343, 0.06332445509471424, -0.329919946653456, -0.17972217232962995, 0.028380438551734843, 0.17180584417644962], [1.1953922478532413, -1.1726021808073968, 0.06558750427727586, 1.6210603791811957, -0.9993209264611752, 0.03186239501446078, 0.632489832340446, 0.08772515668021046, 0.375958130194626, -0.08096627495912932, 0.3124933414792893, -0.12144630089804892, 0.3328478707910441, -0.0035670581028117007, 0.5448462610743552, 0.09318229034556898, -0.034546106187679476, 0.11935973817671149, 0.1956276424868431, -0.41601038077270525, 0.5409452998040338, -0.09568285971684547, -0.008323907595831263, -0.22012297780746254, -0.11933297301499755, -0.23644434233826703, 0.17843304082029487, -0.049698402040582436, -0.15986532593127153, -0.11770023738922653, 0.16681514407746703, 0.32432170103910407, 0.3797320745843444, 0.18640291728244457, 0.13431638915193023, -0.4386754656290073, 0.657953853675709, 0.553352789687992, 0.35946689785824737, -0.01779461165380499, 0.05809814624480977, -0.4851862270425973, 0.013028178119972925, 0.42226661967157064, -0.07932575557054966, 0.1351112298469183, -0.5408096377352463, 0.005827127786912597, 0.1829026999716768, 0.5005928419940909, 0.07937398710866286, -0.1255354854875684, -0.39448712439937234, 0.09560632633924093, -0.3386711450663212, 0.21448384021618874, 0.40578316105981155, -0.19846173805400075, -0.000271220153683351, -0.5260966584523861, -0.42972099430820565, 0.32035391012859543, 0.13150390564856954, -0.11557510684307322, -0.20106150952756724, -0.23838545139831557, -0.02272086156642242, 0.37532748547565753, -0.05028673300742091, 0.18827941064869524, -0.14941568772153901, 0.16653055466432634, 0.3940328825687042, -0.5121709901682098, 0.4013948043985698, 0.39305191702671943, -0.12714522829825206, 0.5413796989037547, 0.20212153771737237, 0.186962623283795, 0.5148703677386841, 0.5409422873812249, 0.019947461110816, 0.09670770600398068, 0.42752507729236344, -0.01906823500441272, 0.2666403532844279, 0.4780516301302877, -0.008261280139202637, 0.2981150371953452, 0.6369936160686968, 0.5024466799425418, 0.19555283258703954, 0.23695470873835317, 0.2421372724913694, 0.4108875054527673, 0.4605514642184539, 0.13464219844822775, 0.4237869057112691, 0.08687642329894953, -0.31674974295345537, 0.2631215982851643], [-0.03869629101435417, -0.13976363768868239, -0.07661736165244773, -0.2324790811898617, -1.969070918141731, 0.23251138504669167, -0.14648285143159953, 0.24385997154855926, -0.463513474280769, 0.011884679964844446, -0.19760381262599436, 0.11585028851679487, -0.365782581951672, 0.24382144172204512, -0.04527395890648306, -0.034448031831336184, -0.0194165720137383, -0.1474974858949988, -0.3837873817546436, 0.461312631748547, -0.929974522762363, 0.0470326090932168, -0.20296399920268274, -0.052330503286382134, -0.3093966275489472, 0.2176055280466718, -0.6620569412617394, -0.04214943444919701, 0.06300679873747196, -0.1452867680040676, -0.005268048881782729, 0.03180643300513022, -0.5266690327520389, -0.016748275825756404, -0.17882518770178027, -0.3175804555712981, -0.4034534091656544, 0.20479455878618058, -0.366004663060133, -0.021945120337343055, -0.41996263476329626, -0.05902892852163048, -0.5812207484073553, 0.13066441828228284, -0.3057984324461707, 0.17426993997539308, -0.29682546628076206, -0.21898912002218227, -0.19924388617665106, 0.002790181868788995, -0.33406323451128983, 0.2619171442356226, -0.16993049989303427, 0.12082898158130165, -0.05493138611743493, -0.2680239184666292, -0.09976538340306702, 0.10342412742800498, -0.36766847694736055, 0.004861435209644919, -0.3692888725795988, 0.0833456625095205, -0.47163089420149734, 0.03146274527310923, -0.04210197618856762, -0.22908422316429605, -0.8626526917076619, 0.3300517645379071, -0.19189207017330734, -0.2680444122136415, -0.2565016947675908, -0.3432056173588821, -0.6210206067216198, -0.23869865487338998, -0.15465265089376912, -0.024547885222681927, -0.5426692120346671, -0.1827716830683744, -0.5443481573083345, 0.34516415783425775, -0.3717353165490736, 0.07131396566766886, -0.4391790912505626, 0.03894273746435456, -0.5417756066079885, 0.018818151399679316, -0.2744448089100166, 0.20545607329028334, -0.2188578544351243, -0.05803133348565441, -0.1209140747961267, 0.16311764805326215, -0.26868169002737097, 0.11797761105449818, 0.010973456597053764, -0.1936907394516018, -0.2177732511896041, 0.2156585218408936, -0.3306260319264125, 0.1278872430212453, -0.011878020818015655, -0.17708889331982963], [-0.0132743160091502, 0.35646866867116006, -0.4226374431184934, 0.3726216235869643, -2.744970045977182, -0.1189358379990444, -0.2299102912095053, -0.060573771699586366, -0.3622856694134038, -0.05250871503300744, -0.019627006942902564, -0.013574974655390915, -0.5466380936400301, 0.38966599861499995, -0.020148186304834174, 0.07436694877283108, 0.17921693554933574, -0.23161976495670294, -0.3215135178273149, 0.46842413804882715, -0.2793410685916673, -0.12437756786652507, -0.27966726369623934, -0.22134575579739424, -0.19855613369607356, 0.5503741542720162, -0.26473067138815815, 0.1685883235424566, 0.17281203517355856, -0.020278539968299585, -0.003943103194060351, 0.20646855138052214, -0.3911417140268402, -0.1752772022171242, 0.35641097649985887, -0.7143608657795342, -0.21887692363718547, 0.9064840211785264, -0.0007482096475056397, -0.28162553880922814, -0.15688341662578117, 0.026760457479882704, -0.6466957123029426, 0.33795817922942345, 0.09392344856811387, -0.22267533937228237, 0.046448494573468904, -0.4810471636415564, -0.18837095427768671, 0.3352690459845311, -0.0585242987729794, 0.07398162577304893, -0.14018633490255777, 0.23631866974087917, -0.16419653772694826, 0.19321227609541158, 0.2015244297490644, -0.2449469006516419, -0.32310281957174253, -0.11401662856106425, -0.750010112380698, 0.5814853781872469, -0.13110280074381098, -0.20513677117338053, 0.036944969577127854, -0.030406187187880702, -1.0624369660483037, 0.637392599350603, -0.16282877768321094, -0.487233623020892, -0.25256051195875084, -0.468576549523926, -0.5817037031066281, 0.4182996292747255, 0.21883068219829638, -0.13231848676250368, -0.3726809891551081, -0.17083348497727735, -0.5882831482898221, 0.39860902729224906, 0.1800905872701424, 0.01583305729796478, -0.31327251772774567, 0.1696482465140353, -0.7407535773974353, 0.24443763704349156, 0.019346499913716987, 0.18359928614063897, -0.23256462871443204, -0.24785244966190245, -0.18831620858713302, 0.4314727156054627, 0.09562204758452203, -0.16904976149663262, 0.1301164081234876, -0.025566045259352993, -0.31112861309525036, 0.1648504509207753, -0.16040451927851984, -0.2647750787560608, 0.07016380470233438, -0.11244221351816165], [2.766219358504707, 0.13440086590360048, 1.9042554922741142, -2.6983457382549467, -0.27434922168634635, -0.09823091908919025, 0.15980519612779007, -0.15178601201629793, -0.05859168857777845, 0.26940330452454697, 0.48952421457196993, 0.5840028133159297, -0.3593376078753424, -0.0034144833447475784, 0.336908287141426, 0.02775030339876892, 0.06807212918455127, -0.10446607549731084, 0.07794097796830249, -0.3572059005246715, 0.5160012884492325, 0.33956996986644333, -0.18514914699041796, -0.15259120427321338, 0.5334260162276592, 0.0793645774099035, 0.4758853707676275, -0.12204454134018525, -0.18663499335977868, 0.47201581321463876, 0.5213923737537262, -0.6617454255844997, 0.28782748947574077, 0.1000437570540744, -0.029257501501096746, 0.4703315654219876, 0.47247599655151407, 0.033332327432628914, 0.47922501023113584, 0.034658727916865154, 0.5182227046182677, 0.40375653426880187, 0.5670330279350457, -0.16782996331343045, 0.39872288350608487, 0.10656776184890468, 0.4280074914129763, -0.602204760376623, -0.07842223784093084, -0.22493032963029308, 0.28718937043933684, 0.07531879491147864, 0.14209431462696603, -0.30367441872398115, -0.2669179848754857, -0.594227042973729, -0.3441252853432135, -0.02508671486783674, 0.018098776457709013, -0.17947029311650772, 0.046842198173509715, -0.42184258062743496, 0.0731794121123831, 0.22369381542409578, -0.31492156890453843, 0.21117063519547333, -0.30747504383309693, 1.0110375382209187, 0.02027019978057331, -0.3126634852256225, 0.09881084277142044, 0.027503185944211556, -0.1263477227666246, 0.6335869886122891, -0.6658447225353591, -0.4676313113568429, -0.2103535998349029, -0.3343958079130008, -0.4551725603610626, 0.671319069184813, -1.0038571728177408, 0.14677053713709254, -0.49568290772501455, -0.05909260553763736, -0.4872660259512023, 0.46961655836782, -0.49538484412784844, 0.4707627438449284, -0.3903015769831988, 0.13620937194674007, 0.28477740548636243, -0.4923660002406832, 0.47186613420151424, -0.02516646305225076, -0.7505024035603686, 0.7509062649060648, 0.298007256856937, -0.9386651270606167, 0.7168650559513673, -0.038390311005855444, 0.054247665843905675, 0.6065040869451555], [0.8328084220006037, 1.7571606709944618, -1.7828585479090862, 1.7896121721864175, -0.5511925867471108, 0.10909431636969014, 1.2640485796135241, 0.24947347923137186, 0.16669224340749778, -0.07631701618441025, 0.895085311669034, 0.07688286611838639, 0.8995377655502802, -0.15337714635111702, 0.09861950962531288, -0.33651801962907285, 0.5902815616670579, 0.06799014141741729, 0.10152624471099767, 0.19820035909885664, -0.48400089797140855, -0.336588881684961, -0.1911390867773279, 0.269510447979356, 0.30325420940254155, -0.17691158544594499, 0.14263367649727757, -0.42729204027879697, 0.12494560624865061, -0.48496661321563983, 0.6436150153087828, 0.3240753532495074, 0.6018923493007964, -0.28302876529087667, -0.6294801283700998, 0.06890065540654809, 0.3054604039471733, 0.41103537349814256, 0.2635100474825625, 0.056760727023800576, 0.14547458149005008, -0.1617399065730318, 0.19938380764944558, 0.4359948121974488, 0.5136182931649275, -0.2730027555971679, -0.3447618983261598, 0.08689273052990654, 0.503299167959705, 0.06627471039759325, 0.057463248677627164, -0.3397893146457042, 0.32095204803791144, 0.5830580336977302, 0.8094042979772125, -0.44430617851650317, 0.37880614250635375, -0.12696205402045196, 0.336447006046751, -0.057255808795690324, 0.9140367711575068, 0.04051260388024192, 0.27027362632891055, -0.08840409082196217, 0.06150256430330718, 0.198947418883604, 0.8206822351937281, 0.7432199562982689, 0.22956321179633457, 0.03368099750251221, 0.42044161018249115, 0.18114186142949118, 0.3640739034801355, 0.45605768671497326, 0.6528289828591402, -0.386380332475191, 0.2387859289938362, -0.007230248064900121, 0.5842792558076265, 0.05667818799706855, 0.2003241632390323, -0.07633130727654892, 0.3471877803950865, 0.09324758967100152, 0.36778502931278445, -0.14285655310783238, 0.32572680192888087, 0.03435883271337813, 0.15033671479638464, 0.3850928772859855, 0.6627723365594678, 0.09726377809794512, 0.4439133065736344, -0.02108460546662232, 0.6716501664811565, 0.18996312312739586, 0.9599467567241009, -0.1252336703335723, 0.04910250404268053, 0.036732429921468614, 0.46211957685772315, 0.009769986679917906], [-0.6146547319900038, -1.312517356426385, 0.23292252796071639, 2.38186033676794, -1.1051853066119486, -0.1133023283550847, -0.5956767048662819, 0.11208623090967547, 0.08932484709216393, -0.04541466148999806, -0.12963525456385935, 0.04833261778787627, -0.543638232247457, 0.4095828928382646, 0.5343329325286011, 0.3864086348929243, 0.30686642626132443, -0.10132932086097884, -0.7429656857851274, 0.08183104051827392, -0.5938004591160703, 0.06989695703394673, -0.2819775713357862, -0.2304220383286435, -0.42933747838126773, 0.09903579689171686, -0.15082175894736305, 0.3004708917087675, 0.08740955432891571, -0.2545375479661904, -0.202224916262116, 0.22954061541818122, -0.06501474792947692, 0.23278794969108568, 0.25610001344304145, -0.03916215415697442, -0.34175935509608224, 0.4236442474127955, 0.14783868232246097, -0.028883420353134005, -0.03170167238787388, -0.619497598166785, -0.6384045859565713, 0.4599562616136558, 0.3505407397550271, 0.09941891214487353, -0.3236928905568586, 0.025088496326944584, -0.6661863954555551, 0.2895943819134067, 0.067850096713288, 0.18821004035193914, -0.26952772256777907, 0.1916328887258684, -1.1422011205838163, 0.2880328722455, -0.09753503132772437, -0.32297044341129366, -0.37640445116260973, -0.16988757286116501, -0.9106021724085618, 0.29174061832911835, -0.7959056881321274, -0.005649903206663219, -0.0431027760192457, -0.17948978788889075, -0.8064135226030794, 0.2748779781548299, -0.20135838124087538, 0.10282342837602454, -0.3962426486268493, 0.15378737547920274, -0.6803883849236525, 0.3044434109601281, -0.12185827779163765, 0.23512101581595787, 0.01078816907960871, -0.015962099817804, -0.09056869024749804, -0.42886172657671795, 0.08509959984061996, -0.3084959266827494, 0.21915866686475272, 0.06587494234390934, -0.6571239999245708, -0.13623541383529625, 0.26688808644754924, 0.044957067917609804, 0.19633919187714702, -0.21431868753822478, -0.43885846171590664, -0.24317841099711696, -0.38542624168916445, -0.11837427558061389, 0.14620832781632162, -0.2179033983372245, -0.4319609961795586, 0.3428572914363907, 0.022967508225640577, -0.1866863207149138, 0.054605166083749504, -0.011897980337824961], [-0.4846583492815214, -1.227036716624385, 1.6127381252493032, -1.0315722493647177, -0.6669886530928688, 0.07462466099546013, -0.8459930872755366, 0.3668529199155551, 0.12656451944230823, -0.26386483016163814, -0.9363858411999786, 0.3432188894121208, -0.8687072695919091, 0.20295708091169568, 0.21001558223616715, -0.02976157599298888, -0.19972386736894784, 0.013822811105954048, -0.41461330762222315, -0.06592472910611814, -0.05798744245476666, 0.022126570950562786, -0.21763615473401057, -0.09809384786586292, -0.433229236147359, 0.006961420056065339, -0.06728708196816786, 0.4652589122622134, 0.09935332136426314, -0.24615898345994283, -0.671437309917199, -0.4171703427837506, 0.16789794838034655, 0.1796460267345785, -0.0761801788599175, 0.10701202422891659, -0.5726677430351219, -0.0018021978016641697, -0.3014108104071782, -0.20014196591637062, -0.26888496496741543, 0.1880471000333348, -0.16428962269146544, -0.27038475277951196, 0.10528220507099122, -0.1274488313452914, -0.32243653336711253, 0.39222412597388734, -0.9154818109008799, 0.08464554981982815, -0.013822505243979455, 0.13385985343376444, -0.6058993714517081, 0.03706380311215838, -0.8749505809509748, 0.2816094180342669, -0.17516003271331732, -0.03404296716071971, -0.3369990603241946, -0.024028049805168795, -0.7971229973933591, 0.14563620150946516, -0.03490969019090396, 0.2825371938641763, -0.4725036364656828, 0.04771533983138635, -0.8340277083257245, 0.06315843590857216, -0.3338117931580102, -0.14001001289308726, -0.3457978351339012, 0.1409902983636346, -0.5025964964092868, -0.03360600246029145, -0.15924439406045163, -0.3516258884596414, -0.42834763296072254, 0.18697686287298473, -0.2790763040624257, -0.06351172914249974, -0.47949731885923963, -0.38321425823357663, -0.6047969087397758, -0.055727218777069494, -0.5860877833912551, 0.15005583175774348, 0.1365058959639594, -0.24477688156153488, -0.3941758103735362, 0.13397374531684755, -0.7271182431825934, -0.2794297744237287, 0.06444410680164676, -0.4869599794991473, -0.5113611172433878, 0.18056957142687105, -0.9009263368003666, 0.07252949664710619, -0.18332958747902678, -0.30861476683948197, -0.5233542479849238, 0.3198876366697168], [-0.8643303529206029, -0.3926033544877795, 1.6022574464455728, -1.2351990517918887, 0.9821904458399007, 0.002783641979071661, 0.08864024774442823, -1.0598215994384714, -0.5077350122957949, -0.24171772704817246, -0.6667059474678924, 0.22130281753020117, 0.14884257342436497, -0.7099339151875715, -0.7179685124764622, 0.6434288137119979, -0.5653952754617689, 0.20684290891478263, -0.07746665019932807, -0.8782840433140472, 0.2054036084035989, -0.03901397928556304, 0.020981073781566505, -0.058412245651662524, 0.01693013629562235, -0.5265905785736286, -0.4185918112190602, -0.08562426079879099, 0.05646604210085407, -0.29218660121006923, -0.03467646591687983, -0.5080399015359488, 0.25528069888465316, -0.23316798880512332, 0.32974770170613943, 0.4610781931915361, 0.329500875619395, -0.6111075285270285, -0.1876360546908001, -0.32280528550527093, -0.3367982194139863, -0.07550228675860626, 0.7213164260406799, -0.8413205315859534, -0.11612694681237154, 0.11731238140955538, 0.1795980052047097, 0.4581549084354, 0.025033069248668518, 0.06976039411091257, -0.14581886200344257, 0.2627506804729204, 0.44879944722491927, -0.22347001018565926, -0.028497121121015535, 0.07179767907675744, -0.34169454977853886, -0.10341608782437235, 0.007290244743561947, -0.5446093614550405, -0.06222094670578387, -0.23406600473105738, 0.06812498654973102, -0.1917420442535414, 0.10612916405281918, -0.5560742885357192, -0.07196532150497595, -0.45668642199209025, -0.09061642517293354, 0.02620793190297734, -0.2523148362996958, -0.27326851128303403, 0.005691826458142935, -0.3237737626595219, -0.4447579595797355, -0.27404591428369207, -0.298351444955692, 0.022406379805098412, -0.17344895440025648, -0.43177778671849015, 0.24003348511793482, -0.07421601395851905, -0.12431848341251656, -0.26827727565973936, -0.16471525809037396, 0.0006043564713266456, -0.06693227411091521, -0.3372699798566819, 0.02588692440572676, -0.07467470027351704, -0.06843485270828578, -0.0036893254809740386, 0.013623921475078802, -0.6354140619341966, -0.17919738941866406, -0.017689607706467107, 0.21357599979975883, -0.5546437701472775, -0.5703923235386511, -0.4475626001585702, -0.06927597760678818, -0.36275372153845714], [-2.228870483480261, 1.6101875012192812, 0.13714805050162104, -1.0774803463252904, 1.3051241041392698, -0.12140381438835504, -1.0375660469909873, 0.4770757243341964, -0.17763974290071374, -0.20570349309241912, -0.23895411205862294, -0.05328710352616352, -0.3506795238288235, 0.7274440188303085, 0.31666987554830994, -0.4652107263086919, 0.581756623143229, -0.4721861595992642, -0.4537366285134994, 1.1101098191038028, -0.27831360512078634, -0.16079511717754558, 0.04554887495375796, -0.273319929380642, 0.15007087352324242, 1.0875798777648753, -0.327102438207218, 0.301115754068935, 0.2725437875503997, -0.15173643168124723, -0.04511787920906666, 0.2952868451284019, -0.46519758265538685, 0.29223720924738855, -0.1580802749627019, 0.6165788202231343, -0.1100058974836429, -0.5219355178537938, -0.37053947134859894, 0.031792630968616856, -0.20558672039337983, 0.08410021631625621, 0.23190265448163463, -0.28847135010077724, 0.20165989710053434, 0.24306366393924786, 0.1502076279403132, 0.05376936030625622, -0.41411611622130445, -0.28437029359537136, 0.16856797513427849, 0.4157119257162214, 0.24866651352775399, 0.025619555010223248, 0.09991714939490752, 0.009026694376078828, -0.2593528725848766, 0.1942785837069988, 0.2792344130491383, 0.028521017599593104, 0.4021969726828824, 0.09409318422059065, -0.14003821617952147, 0.1351317327406179, -0.40214585532629504, 0.3809780967278348, 0.3504140886488729, 0.04989956243134016, 0.45252090896832964, 0.3802512712644529, 0.09082784473248186, 0.5474984173011344, -0.19766455842557362, 0.3774063191092459, 0.019848464751055117, 0.04504458221588583, -0.19148418239655468, 0.26067335764638727, -0.06816950316718935, 0.15364834740009967, -0.37191645898722875, -0.23154676848908654, 0.223593367594719, 0.058882552004802156, -0.3941900570304051, 0.7260005793594674, -0.4954623818358327, 0.03918625178657229, 0.5127995791155502, -0.15404097003574235, -0.4655913830025155, -0.3858651958685633, 0.38211815456390397, -0.22030890354208113, 0.12827860996041757, -0.4320685519046384, -0.5536050652630004, -0.16427097339614502, -0.2575925149187607, -0.3714162172492236, 0.3976415496553734, -0.4798155631076396], [1.6930607536818738, 0.02885292130397136, -0.8489691232937536, -1.0264748621478375, 0.9184407997122395, 0.0614878396100907, -0.02787718298186699, 0.08376855073819411, 0.3203218618703114, 0.13943664830309602, -0.27349180483852326, 0.1121847605649977, -0.20626472069022267, 0.014759777616501284, -0.7592197643071203, -0.10693946887623203, -0.11353495019092244, -0.21069460451440966, -0.6861987166635656, -0.1827190051011342, -0.6266616861242372, -0.2444336788972644, 0.15098431318856906, -0.3098090059378077, -0.6668398986449892, 0.08076795790351615, -0.787114313880372, -0.32080167513170516, 0.24314875405023256, -0.2777475089911865, -1.1225875836581527, -0.6306494812194936, -0.7444238851241657, -0.24617087463200787, 0.532343905689243, -0.6270995165444253, -0.4930102459849327, -0.3981660655424162, -0.4258508863888424, 0.1243663118492663, -0.2616839739977873, 0.02116506215824985, -0.28248318388953375, 0.10732826948403203, -0.3312601344985841, 0.23457690263312267, -0.005565326320200123, -0.5151329604261309, -0.5677018113797919, -0.2606450394739362, -0.4769988270303098, 0.0833598156554607, -0.2512054785273468, -0.1739869307449141, -0.6518662527383113, 0.18745992229222083, -0.4021655357463087, 0.29893920795058854, 0.23512016483500137, -0.3013959765011794, -0.5640953875198491, -0.5475062889709797, -0.15594210626087662, 0.030569105213061172, -0.09465774384821449, 0.1271412135920238, -0.1806347345681468, -0.2961651213235284, -0.10726160530519929, -0.20569039512067794, -0.12161995473704353, -0.32712461405051574, -0.41881111144438243, -0.3041364957106211, -0.5660443984595255, -0.06575801744676346, 0.09182388135115496, -0.5303638598659063, -1.0287168746247601, -0.35764781478344576, -0.4189095895988808, -0.1740013484714206, -0.8078945670073826, -0.25630427090671964, -0.5684195701438849, -0.27702127332071014, -0.6385168707988323, 0.08772544307111678, 0.0543287384376354, 0.10498993311083758, 0.37236064437451083, -0.38901372649643917, 0.0878079554096377, 0.2664872360698497, 0.23562884382884214, -0.10142574445327943, 0.13945464213079478, -0.8963983665723155, -0.0516333551390726, -0.05682718095657115, 0.16236926221884318, -0.08200412193382592], [-0.33313876108394214, -0.5278704347620381, -0.8686235164356257, 0.8415156197837865, 2.098995911508849, 0.02515671570383411, 0.2630400636539404, -0.019633718627775038, 0.37617847302248586, 0.27978881049478443, -0.23150520627943783, 0.1721035910389522, 0.32677307884231577, 0.1896398855432239, 0.444259473533312, -0.2018071723649705, -0.32068497492967035, 0.09806711253075062, 0.02038412072669803, -0.06699756458394256, 0.34546181098114087, -0.004636362987806638, 0.06807429671459332, 0.08257811735081075, 0.15939407074189124, 0.2340882187708977, -0.12567868558929465, -0.07104056910026947, 0.3232263217069197, 0.027804159593285468, 0.19550693961128993, -0.060911014017207, 0.14270446272577306, -0.14820011093547072, 0.144503370458087, 0.10637900749341046, 0.1736683559004775, 0.06645230722102301, 0.1411148451028726, 0.1651294908143674, 0.05728692677683263, -0.003977811790892126, -0.10401772599962356, 0.31473742874629895, -0.2862025339419974, 0.1558451363884854, 0.04929988815931947, -0.08733338364270629, 0.1413448546191816, -0.2973232691605913, 0.2951260383305778, -0.05620668337424147, -0.24205667231709163, -0.09751050676398428, -0.3720484329095083, -0.009762471787018823, -0.026848803203368084, 0.0018289502663258938, -0.10494959670157081, -0.3948266909553129, 0.37948899009988485, -0.12221679489997599, 0.22350393187351178, 0.16215252083976947, 0.3232624315321926, -0.1582890846651384, 0.799597786309632, -0.5160515151013298, 0.5562283932769597, 0.25147041722762076, 0.09156831100040938, 0.36023539709212427, 0.09319425510980692, -0.42199082529144133, -0.025365708420157805, -0.21177758728480467, 0.20262821204541287, 0.06031077976797043, 0.15229275793732447, -0.17787098593550385, 0.2877913928171607, -0.3619468432731291, 0.008639579510954051, -0.025247880198369786, 0.4345676226703213, -0.3429471641334901, 0.09955172202413388, -0.2656612756237424, -0.15710626179222714, 0.2124455254619923, 0.532648946895198, -0.12280452022348706, 0.07082445696444965, 0.0683605261970704, 0.22765874882726192, 0.08526230178777022, 0.34317967811100036, 0.12487082379110237, 0.1697057984665735, 0.19357966807601312, -0.2104426512748524, 0.2115353665480977], [1.3723091335480415, -1.0613444985964826, -2.6960759434755794, 2.6370029228404523, -0.8124062860961546, 0.020595577595934868, 1.0970992252482183, -1.048665413845933, 0.19117050163573185, 0.25712591318726413, 0.3156305060791274, -0.3158010758951799, 0.5402373883795062, -0.9299218497034564, -0.12333660068644993, 0.07375708723238367, 0.46410128215840185, -0.32765098533319115, 0.055624668561403266, 0.21140324245540348, 0.24623198234106405, -0.11631958705348648, -0.05615360879710903, -0.12200015343264242, -0.4237119962062048, 0.687274895653525, 0.2031309041859656, -0.5365560934741005, -0.22301785374419003, 0.18394659834476448, 0.14629122075419523, 0.8517161496854095, -0.2813764056313362, -0.267904340428153, -0.021196187151400932, -0.42617086610132127, -0.07741833572034507, 0.25959734938312407, -0.36674860296701894, 0.04717894759223431, 0.40538468755714935, 0.26133910667619437, -0.4633181999474789, -0.12791707371266364, -0.08373463024690592, -0.22097630200772342, -0.3814468874493617, -0.3326320966280309, -0.20291840147693632, -0.30061524387769384, -0.33833015668936206, -0.22141212387694054, -0.17181557030843558, -0.5929318894162469, -0.35567697272765625, -0.30177627241856136, -0.13643817350587664, 0.19461116059133385, -0.11010134093249604, -0.4840188944594701, 0.12818480464942078, -0.46756911774425597, 0.32574107987900425, 0.027176926129464964, -0.11740231190635426, -0.19256428795469913, 0.7275119258095344, -0.8542932172565452, 0.5888522752595494, 0.21612198239024105, 0.41140140797211094, -0.18156613257605042, 0.6868391383623943, -0.34925696475527146, 0.36177163968742365, 0.051543036220778826, 0.3460568421662846, 0.617800563978094, 0.680144055199082, -0.75006149195944, 0.6443744624133309, 0.1951554335224764, -0.10027700439295091, 0.25370036543807817, 0.6440233539761298, -0.2826883388673306, 1.002883841377563, 0.20966429138671883, 0.34886339906986935, 0.18579852405631592, 0.6399597519776447, -0.41872066510017336, 0.25516529755963624, -0.3729948938025167, 0.6047291409006909, -0.12315510985547255, 0.3002199580661925, -0.6415154391136718, -0.21803335325419607, -0.11491063699336222, 0.6151013825608621, -0.7530218325594231], [-1.1049516323828463, 0.03208536979778956, 1.3467350068095623, 0.1624602529183409, -0.3057772217703962, -0.05480750903302041, -0.6063790553201529, 0.6445756241397036, -0.5136476900543495, 0.24178884176220766, 0.46985156031566033, 0.052527956980746755, -0.04897595617142364, 0.1971058325259401, -0.0017029237960279864, 0.4086267650074312, 0.08839326037883657, 0.23222656260170346, 0.34514765095397065, -0.09036615977880344, 0.3631148407569902, 0.13010925592133346, 0.32272121209574095, 0.09476178886419677, 0.20476470726086637, -0.2838431112667865, 0.17112648130490016, 0.3020001979735968, 0.17949802523269076, -0.20479155464998788, 0.3785936329369213, -0.00952321365924225, 0.4704139838176659, -0.014394058921164733, 0.13626949747557043, -0.03429419459376834, 0.06520737811245766, 0.09340276631456569, 0.011521421288311528, 0.3107362676732618, 0.28477316482870696, -0.22767199800422983, 0.08848426224272272, 0.06063573533707581, 0.13785902113764198, 0.22407544486490966, 0.41966291594538047, -0.05972449556833271, -0.014941581222881684, 0.07601983233722294, -0.06459707587139499, 0.14644804019805924, -0.008265829408472827, 0.09129118515603928, -0.35621165645533537, 0.10013303703723798, -0.06359465868484684, 0.10693778821869768, 0.30621630207823214, 0.00458448886854062, -0.3406596869824659, -0.13870505992436838, -0.37039296752200895, -0.043427291024698465, 0.10087680349949198, -0.16191960956021648, -0.06989823249127013, -0.04851932450347552, -0.01208721637846953, 0.09278780178801274, 0.19364032101078985, 0.2939174079125565, -0.12595145309753433, -0.25984843429361176, -0.010941564608999801, 0.055446964841024377, -0.16659818202128637, 0.21068697704697892, 0.05893476774826149, 0.05751654138695689, -0.04700796791214541, -0.06862410854862747, 0.10840990714478277, 0.1819901032280055, -0.2546018261039243, -0.21891620120850802, -0.28823935515304394, -0.03487921642198647, -0.07504843980398343, 0.3594891291455614, -0.23842686340779878, 0.038882670797854214, -0.40391039582087707, -0.043648762648798044, -0.2002464055946476, -0.2031867612578954, -0.02274280218751568, 0.538795545913698, -0.3591863152235709, 0.08415510581622448, 0.15272552200326905, 0.22954900368925807], [0.6846469983217901, 0.5274565925283834, -0.6424416137639085, -0.3087620702916143, 0.026185413113815826, 0.015294262665473799, -0.1022719966894867, 0.11142252263551423, -0.0654151123989811, -0.3086044736783755, 0.000283115282230631, -0.18832625767781191, -0.17669270355606337, -0.0988835673284242, -0.3422302916691984, -0.004722730900025678, -0.017064580700955307, -0.16295579674390775, -0.0880512879920837, 0.252656988656434, 0.036435950603797826, 0.0875564925806648, 0.08183962597677014, -0.12421224687395012, -0.041817264612373346, -0.11683088894618009, -0.07775401067303386, -0.11271728224880447, -0.2638116007909677, -0.14650688402581463, 0.0642021095506018, 0.16256940210061713, -0.07597705662070064, -0.04498454816773341, -0.08313043298496149, -0.09609116630927209, -0.06067996441851282, 0.17770722731878388, 0.3016688978456133, 0.003478286782383499, -0.3099057273259208, 0.16736491915484777, -0.1551382151134176, 0.1794129200570913, -0.18349142994402765, 0.03547168993521388, -0.21339197013884628, -0.17597590284004253, -0.09255637758326388, -0.15927006389639264, 0.3249171074461641, 0.05698977508486201, 0.22001026294170054, -0.1623574090752686, 0.3220045738795573, -0.1685522342625112, 0.0675674331636509, 0.05541081962553934, -0.25353193965844684, 0.12618457519713464, -0.016317019211625615, 0.05950255703118297, 0.06947068244259126, -0.06031672230083416, -0.3629916045120361, -0.0500933315499156, -0.08003144616298848, 0.06886348029649776, -0.18575727164527908, 0.23595316211176376, -0.17161530620330823, -0.3724576045651587, 0.01595042038737399, -0.10680009899447061, 0.10509500947100973, 0.06424181788554603, -0.03427304837639995, -0.35578395578827926, 0.06372098082940221, 0.0006355116319654395, 0.31207629129957537, 0.20949002903970262, 0.02065799396968527, -0.13366042848247645, 0.0014188749741597868, 0.19296954335211947, 0.14072553824214015, 0.08631149401887361, -0.028987277246431773, -0.2787084511802596, 0.08029600072733205, 0.18552556697442796, 0.0254758439551848, -0.05102856294578305, -0.002271845418980243, 0.2770687679152213, -0.149716957464488, -0.23959476540120997, -0.06683286075414845, 0.20021951492899137, -0.15536746532036835, -0.0055048499640410345], [-0.2667322054160416, -1.2162430559593034, 0.13744894033789207, 0.40057722640983473, 3.0393521002542716, -0.1437920076088213, 0.5501044321154219, -0.45023396377603897, 0.18766994639362772, 0.18440163403107218, 0.01891800069248591, 0.20477758755323514, 0.029502807288868373, -0.5112893861994677, 0.16378982671137512, -0.017358620279529093, -0.04250722549654227, -0.0930346137860797, 0.033035071107860955, -0.24309765643205145, -0.5898951933548963, -0.06999706022389018, -0.0019831692709866866, -0.010221016340454515, 0.18500938834541175, -0.5557868213878542, 0.12000457217322602, -0.19439909098379024, -0.3694794198665071, -0.05885119011607449, 0.6137003214391682, -0.6101291004820458, 0.04806191008475874, 0.293461807054239, -0.054009110387275995, 0.01830872513876806, 0.5074293887204481, -0.47446089897119514, 0.2896708491455057, 0.050120898018740624, 0.39717206814218414, 0.01501668778846693, -0.021953861514130573, -0.06813029655791362, 0.14515728549929513, -0.21606481157494478, 0.20122017462501526, -0.2954969447660239, 0.19996617228593325, -0.21098606703225048, -0.08774239336693854, -0.16082353158571927, -0.030470867380806756, -0.39578824567550314, 0.0014846984260058489, -0.5118813833785182, -0.06118225554565761, 0.05473345034828199, 0.1926489069533844, -0.22831516693218032, 0.08377931786538025, -0.45072352954534833, 0.2967523267383378, 0.34106870323286936, 0.2021414132776132, -0.28276060621561594, 0.326533648093752, -0.7210071573804273, -0.007510412752488535, 0.0956768898552766, 0.026743361123777617, -0.2632355776668288, 0.48725914369580153, -0.7271707775599301, -0.042300309782474024, 0.20521739632409244, 0.5062223798314803, -0.09935115312377903, 0.7972078686595853, -0.6665970042602588, 0.3402327458804621, 0.2898357241336385, 0.48779235533839616, -0.2191154678838076, 0.8393360776509391, -0.8007810585458889, 0.30323395041633616, 0.037361806871608984, 0.14546120776310967, 0.40983888084950265, 0.13371373823087987, -0.35005551572318905, -0.4316337691409771, 0.18940418892277958, 0.08949458207376446, 0.21531337139679327, 0.21399490231728077, -0.35041427854361884, 0.2773574759019601, 0.286573195403828, -0.014494276321011459, -0.11078890000564401], [1.2653752492675163, 1.8073165050779298, 1.7360082952398246, -2.3798310471532917, -0.2492168687582165, 0.011223313118677225, 0.7120565116470959, 0.013015107647136202, 0.7421304121300871, -0.09146869211003947, 0.16975930702584946, 0.5315869798798711, 0.45327303920274037, -0.20773328431144675, 0.5513898026114463, 0.39708957395378297, -0.011656587971042649, -0.23021298891741568, 0.2060927697424226, -0.18057613055460628, 0.24385077339184352, 0.3289478912570385, 0.11462198857811394, 0.037847237316788546, 0.4559407648055745, -0.7885436359268932, 0.07072947309154824, -0.24670045302330118, 0.352848170139192, 0.007082094235924522, 0.38310830965197723, -0.19031222365878941, 0.08639545834037136, 0.04788521610473632, 0.2711148255957933, -0.4379363596306822, 0.4169149954169946, -0.44852038203271655, 0.09238819783819377, 0.27130724966607944, 0.2414955351979381, 0.47339155660257365, 0.17238180860136304, 0.10904243708096906, 0.3471571310905738, -0.18332990737139407, 0.08372169300308387, -0.08324211894486588, 0.23759496963519827, 0.4017094883617765, 0.35506603310862817, 0.02002371867571095, 0.23240791465480973, -0.19527723703210859, 0.8942657067096512, 0.6648270726179504, 0.02434161186493448, 0.23909934412367392, 0.32799741772201974, 0.6502172383663053, 0.6218070494458887, -0.08302864598035846, 0.07304846677784921, 0.776438952649701, 0.4002330655759965, 0.04944196071471016, -0.023118744964638227, -0.23169167846904895, -0.19155311889000645, 0.4750442134202653, 0.3656207799605895, 0.3928659082066563, 0.06713507942513113, -0.4412575026476553, 0.3661729199760064, -0.5968151186628063, -0.15916749533657176, 0.053687789090618054, -0.26503614284869825, -0.2449451595869303, 0.05260584593611751, 0.41544327977578427, 0.48553360135628504, -0.4004419246785032, -0.39832194229848983, -0.08133391037742933, 0.2718801593544269, -0.23741483794356016, -0.20179644593767176, -0.13670096668992077, -0.6417934187636191, 0.42655395967343623, -0.30128885204736133, 0.25938616491243055, 0.11098132590768052, 0.34366409193687086, 0.44302920175556054, -0.6122879551734883, 0.13444365735147762, 0.31781509170117617, 0.11022883108376214, -0.4173261886145962], [1.1877995857096861, -0.14453305730799687, -0.16118251668863845, 1.1464211025878113, -1.1590324017615825, 0.21947105433442388, -1.315714609868929, -0.02513647028336724, 0.47682253620848475, -0.34185370016239647, 0.3174379147026196, -0.6201718109438696, -1.1665732767007522, -0.31316264958499324, -0.07592439383999049, -0.4383305452168662, 0.012942220121735543, -0.4526584243649006, -1.1983598808695506, -0.6458850694457876, -0.15838487329027734, -0.5493874362276762, -0.26140718547006153, -0.3504421529005028, -0.6952125687233337, -0.04729683851129814, -0.30838319804499253, -0.21522570368730434, -0.01658385207848161, -0.5741437416416858, -1.204571198643191, -0.12970480010764923, 0.020535521522881035, -0.3399239949682284, -0.1828771176086102, 0.08356404561064042, -0.8283093387430852, 0.28591714470486773, -0.02883756288616094, -0.04237855530936971, 0.14666817677778016, -0.5714458471668965, -0.7805271659815209, -0.05242980958371035, -0.055605319033596015, -0.1488626246150765, 0.10823328557957809, -0.20376952094289993, -0.37611560899188595, -0.4374581752766714, -0.15859580200723702, 0.13880776893033295, -0.08599993770360506, -0.08415853235812411, -0.8815636177826432, -0.4817577974552653, -0.05124274926568529, -0.2688049514286787, -0.06270701634630613, -0.5547931138980304, -0.46020566392218276, -0.27321314575740374, -0.08883429552914913, 0.20962952043918945, -0.06744055777561046, -0.6730491618113404, -0.12919147178918372, -0.7388325719298708, 0.23127137321393842, 0.388220084987698, 0.43934586945036874, -0.37746142231271973, -0.43928201050981214, -0.27341205957893766, 0.07434970580043875, 0.220894248139042, 0.20321681027098612, -0.3576608478712746, -0.42041284413542557, 0.10455375040963436, -0.11246221385097942, -0.10041896245150707, -0.012782816130842247, -0.020305986605979303, -0.31231053121995506, -0.48682178860165, 0.08254148887892451, 0.09330656630461243, 0.025412857081964862, 0.014075036718563461, -0.32344101334959013, -1.0276243856494507, 0.35435434799415655, -0.0689122369332318, -0.15012788103669397, -0.45212604575142956, -0.6245608009169881, -0.31709263438610763, -0.43374643900665555, -0.1618769488639859, -0.20159581841175087, 0.2500106903019956], [0.2744989652015499, 0.44264484185849795, 0.5057627600119884, 0.09337334951034482, -0.8535944739503615, 0.10068115129968275, 0.06413766081261635, 0.4032876271497983, -0.27379524166632974, -0.1475275718154935, 0.4291784380713397, -0.00286339848757613, -0.1754028384161631, 0.4239986814820351, -0.07616164953846896, 0.22735068282590082, 0.0809781989088751, 0.09394081532804444, 0.15272504670283527, 0.4273274618608774, 0.3975693544643057, 0.0187780622132726, 0.02856604813842876, 0.016276457828969304, -0.22678768441378497, 0.05605667439843363, 0.18667913135773828, 0.16520560868582435, 0.0623997676686953, -0.19940565510231292, 0.08051111641872777, 0.2102477734339106, -0.22607946176088997, 0.032287919723949406, 0.017274320411934392, -0.1996163228511572, -0.3904134031314516, 0.12359192686081424, -0.050848426928942515, -0.23162924206601734, 0.041204502704386976, -0.005882005799583558, -0.32306646133710687, 0.08312883253507786, 0.011184828473986486, -0.04029698829817001, -0.16118396888134043, -0.04642708876229121, -0.19053777317595924, 0.44347877672745173, 0.010924853722141182, 0.0056834949175146275, 0.05027366306058057, 0.0977057801899653, 0.014315603766510275, 0.29161698602254954, -0.16059098291789028, 0.16771931588732134, -0.17333816676948066, -0.14154241406762505, -0.02739019835900405, 0.18474398811215925, -0.5112699175392085, 0.1194124573403843, 0.18191611377803463, -0.08137912183432458, -0.3903428694365324, 0.4198555134088659, -0.34289933277897056, -0.16429919148575395, 0.09307580418456947, -0.19188481809780072, -0.031333285124535926, 0.5286182731056961, -0.14662307459022345, -0.13952030338143856, 0.009010560288823959, 0.10994164125117438, 0.1389525110745389, 0.3503610362799015, -0.15784925949920772, -0.05205044407214088, 0.0780719982531124, 0.6599078473981579, -0.061795935344936166, 0.24658098692279487, -0.12925366573366054, -0.005918629792339349, -0.030831931275594176, -0.020022029273471704, -0.27379404374275407, 0.4987088710127785, 0.0705596355553752, -0.35208070753541265, -0.12989301390916463, -0.055379070395881747, 0.10056845906265383, 0.7179838142322833, 0.043515087831427546, 0.13084456435018918, -0.01000142636273747, 0.29186253280306557], [-0.2694443612799178, 1.5700532923153845, -1.0404225243659706, -1.0147210406334652, -0.5539312191686845, 0.029025282245300803, -0.40306706854500035, 0.04808169110796996, -0.38773933379424524, -0.16957664410234544, -0.3207396512786237, -0.019102804290854265, -0.20068689750309607, -0.429274111217444, -0.14768683609836133, -0.2386308855216222, -0.2942810317956849, 0.037813078000484515, -0.09875450721338747, -0.1430432332921234, 0.07816185188750398, -0.2237268815744027, -0.03475588839583709, -0.30707123475358117, 0.13099911165994724, 0.3776288225006458, 0.07166576223558205, -0.41248438757838063, -0.37021718610289167, 0.25189593916473363, -0.005398727256498739, 0.009131501895664716, 0.14367677460018796, -0.29389613469970627, -0.2440206561600248, 0.09105610757951207, -0.5327819227089436, -0.10813699674200242, 0.2357883672881779, -0.5215766339572204, -0.16105433876004802, 0.0196076566851636, -0.9266553258451461, -0.402259152926611, -0.30523472891919373, -0.27556675504853967, -0.01616697576277481, -0.3271843353653407, -0.3383095165560915, -0.28972189899725137, -0.02076374716103814, -0.12511315912002877, 0.1494643558017909, -0.18276373946644942, 0.17321329120096193, -0.33583822675921776, 0.22276069113148184, -0.09805274787189427, 0.02821699511080738, 0.29631175154361994, 0.12957542822887863, -0.08728191789271522, -0.010015057534458647, -0.4385904461868232, -0.23562029592258235, 0.1245392800178345, -0.3332090723772373, 0.19660224313438615, 0.2511006520620605, -0.33318499041230853, -0.07067959851366565, 0.2179265473115593, -0.4709041735717541, -0.0902059975657729, 0.02711129740598747, -0.526917765094907, -0.07887443945684856, 0.4126298973333675, -0.6484579657282742, -0.3482898536182576, 0.009601917063147409, -0.6217489303885927, -0.14856248515567846, 0.1468730547718132, -0.616476553687046, -0.29576715255615105, 0.03739903400116934, -0.5031599537673203, -0.06774181691634111, -0.075107173780855, -0.6340786672435637, -0.530802594280146, -0.22892264924000322, -0.3995511091505396, -0.052784336869474896, -0.0020744558785149936, -0.24661217558225815, -0.01584467355137673, -0.08924234422301898, -0.20465142714903006, -0.0835008099816499, -0.02133021738765469], [-0.7540108478665163, 1.3942274607663105, -0.9231863190486875, 0.23418748720559227, -0.8852803286602962, -0.024498946147182486, -0.3661703201122177, -0.09715579637437223, -0.25791071097777335, -0.29552159465557276, -0.5245663856546878, -0.11509258157534051, -0.19085940243102498, -0.39702826086925863, -0.32017631858703854, -0.08018815051622037, -0.2627565098728669, -0.06603309144300142, -0.20141545504266914, 0.2528725704471286, -0.12845305648673355, -0.15386886537791858, -0.18505744944428992, -0.21129669433092338, -0.3347073970821697, -0.23618202665152063, -0.08260897531594238, -0.49034940845918606, -0.13611664148741398, 0.06283913109430388, -0.20513766370412767, -0.0712129145044753, -0.04127404553775332, -0.17153602466196427, -0.04343471699480279, -0.00545115394186783, -0.5759139430015187, 0.25899674840627784, 0.049365436246643656, -0.27691373598316227, -0.14332053360613786, -0.4683871215830758, -0.6567782287047603, -0.39275770383764536, -0.38435651011313954, -0.05055585571939838, -0.34188513198433407, -0.04528328483289272, -0.08719507859051662, -0.21452592589692068, -0.13049655934776277, 0.09246279389636851, -0.2692456891484013, -0.15437858161038745, 0.03487118739375295, -0.2270543216683554, -0.33909192059904253, 0.32107013220682834, -0.3517768746104549, 0.024030482098739685, -0.4323623557418063, 0.15265362168597654, 0.09102826225301547, -0.36893669486232694, 0.18754134395852706, -0.08033764723254372, -0.1377729548577434, -0.020224909560768205, 0.1193967139652925, -0.015762604548500737, 0.041809849769338624, 0.4478817960075751, -0.330700012744031, 0.049032818995652774, 0.018237511319138835, 0.015599091789883852, -0.17496755590615037, 0.02788172808062405, -0.4590549236973234, 0.6078684353569553, -0.07596964046545251, 0.02797566163818757, 0.05143662328437657, 0.04370776771640244, -0.4121198848251066, -0.03814513060282923, -0.22025738844801893, 0.1081271609574467, 0.07302375443280815, -0.10030602008894304, -0.33531587583851447, 0.24165808001082545, -0.4165236004179862, 0.3727404979205564, -0.26682744522321655, 0.36972331180110807, -0.31857109316627374, 0.07808681221432738, -0.27167948237550643, -0.22873151260198268, -0.4550289259314131, 0.33001926375457113], [-0.004440384985430442, 0.6099584069440378, -0.2843835555743511, -0.5239642834442332, 1.708730085245085, -0.022426426905036875, -0.13421707264964985, -0.28160420906576034, -0.29237080871651683, 0.25070696947574417, -0.013059716128054665, -0.19436610547334415, 0.14387974770912332, -0.13660921569711534, -0.25277111472206865, 0.016729992478465957, 0.36853281787449077, -0.15533199613474735, 0.07225849581770101, -0.06370543936130643, -0.10649946055841636, 0.3790469127509541, 0.22049615019134622, -0.2526284667547479, 0.5856241655326412, -0.3480099858368166, 0.5821227493557786, 0.06151339272657662, 0.2359796884759708, 0.13073489945107555, 0.24609865648647025, 0.03691108531756523, 0.29620267346583207, -0.010369377596694786, -0.016302142857145957, 0.6264108164718037, 0.1565182161764765, -0.5297160721308776, 0.6012269076614442, -0.042870424176019536, 0.17795007639043955, 0.11029347520589182, 0.5387287105889115, -0.0009306539153288837, 0.06905851024695632, 0.3582230737154719, 0.38142510307134725, 0.5727019292174265, 0.16964252296017637, -0.3943744249037178, 0.3366434651512389, 0.19973530255541022, 0.14047870446565014, 0.08064612313639419, 0.1457438028024103, -0.27818679678419594, 0.007677285752832518, 0.0694073740008865, 0.404085496080659, 0.5055807350977878, 0.007622529930406672, 0.05153530924340667, 0.02924079745004334, 0.23670943044477138, 0.09880954839489389, 0.23153161760415053, 0.3270975196709088, -0.2121347944431753, -0.4609735186788273, 0.6109787665957772, -0.016711713734568107, 0.4166216401831902, 0.39390778697940537, -0.37057506595911766, -0.3159518137310019, 0.28040207532595834, 0.31365782753572125, -0.06580281031351187, 0.5293854856139399, 0.27378930953656244, -0.12905416511803905, 0.2978389431983492, -0.07126319357085961, 0.756832425128543, 0.4192485681173627, 0.5029549266209024, -0.1889172852088776, 0.21718708745489965, -0.04390271393843609, 0.4007019756599286, 0.07901951181523896, 0.19283060159656346, -0.2845304623203711, 0.13775321980941965, 0.029682595916685525, 0.04412391866389484, -0.18754186189019792, -0.18452954824324944, -0.5445342949334114, 0.0747823332810624, -0.0014028021411722563, -0.28111943210315], [0.8712930988364147, 0.9514569622102588, -2.7314992212864206, -1.2304106608993854, -0.8175362530490561, 0.06709694940912499, 0.4849733393168621, -0.6262739616419292, 0.5888566313701228, -0.35369922456504105, -0.2044258283755917, 0.20337991562738889, 0.3004291054015991, -0.2027222979974099, 0.21193340243745334, -0.17314868757359156, -0.19405772890158068, 0.13940694273888302, -0.07021665316814973, 0.18203987992893061, 0.13855468302144794, -0.17994301577185476, -0.35758560457854727, 0.184296062997055, -0.306075908676892, 0.13765738169952524, -0.47199329589471245, -0.3193801479522318, 0.08590869321464616, 0.2880893076942945, -0.423410282319164, -0.15390518668570827, -0.07863594060658524, -0.26885364924302546, 0.24178861419711808, 0.07900398954471316, -0.47678619443464487, -0.3297820886138782, 0.03866452646098973, -0.2797454731007079, -0.11094647446847145, 0.33005190624218017, -0.8807584568845609, -0.2219788170377579, -0.6778272407889846, -0.26072739267718814, -0.017120682869513994, -0.1479031313256913, 0.04862863652447825, -0.15975003741670918, 0.12204926191650757, 0.006251478768680441, 0.06419439392193688, 0.3957660976473578, 0.4012005714578091, -0.6306285006734329, -0.25103408338546457, 0.24701392701198088, 0.020892880145751462, 0.9466759396470962, 0.01152927302569057, 0.037519947360071616, -0.3021538488522365, 0.2044980341886466, 0.3107963875163954, -0.09490093743533635, -0.2191216631576755, 0.10185121312332365, -0.001281425051098119, -0.223130011124848, -0.4932945212888825, 0.1795792907666433, -0.08064579252877965, 0.22117111175473383, 0.1090324330021414, 0.1176249925101938, -0.1455952928919395, 0.1542660934689905, -0.2233797461635462, 0.32781978984967514, -0.053499511338975854, 0.24318422837574247, -0.061134090752954146, -0.1406918706772997, -0.34581855409950085, -0.21426472181896156, -0.03196721009731501, -0.03225865283440607, -0.04425436067997351, -0.3428910619674957, -0.11248709590414803, 0.06008203864887046, 0.12385094567148555, -0.08961601634400693, -0.12913891910668845, 0.2155569908080432, 0.38048552943413816, -0.5635141522774361, 0.6763678554946636, -0.18919525167119103, 0.03211339897863236, 0.18406655346530518], [-1.2939812165917572, -1.7820770205834437, 0.5768766250400758, 0.630429515908387, -0.24464016453552673, -0.06455517214189196, -0.09634633125677705, -0.06318190408488468, -0.07439147977750508, -0.07066938409131714, -0.015664826268016255, -0.07311974513248053, -0.07159677592049761, 0.48298777947739896, 0.15812034150379617, -0.2844981991099345, 0.4009640598430322, -0.4466932585143784, -0.2752423783600342, -0.030210315647584016, -0.3995666844948206, -0.1525707355032928, -0.018116624735904658, -0.2658059060990143, 0.15167853091828792, -0.0773728154516037, -0.061096496524712114, 0.2635727910449247, 0.33193544797214725, -0.19059884666369306, 0.38417040567655497, -0.4072945294283312, 0.0736449098432844, 0.16194124322665304, 0.10493106949364918, -0.083142369501812, 0.20098612271895513, -0.42906746720240607, -0.2965560186470017, -0.16183055247543524, 0.02840997999258195, -0.056484353684947725, -0.37898810700556035, 0.3868763265744482, -0.3401770614482203, -0.3460388803499125, -0.2755843550134566, -0.169601942210171, 0.05191188938366288, 0.19923962247300656, -0.13951090617369954, -0.31297834142003483, -0.12873757549498469, 0.07475342960130993, -0.07815760953010571, -0.20912012621368745, -0.4384881855212431, -0.3513194117913414, -0.5161751151821452, -0.19221095431845586, 0.13701086732688406, -0.12432793600804884, -0.4932462755388072, -0.11012268906168571, -0.0904273753342747, -0.16570215331821603, -0.4008330312732643, 0.18066727949930986, -0.3062302413020499, -0.22341241144787288, -0.40528424430001203, 0.03128577220448867, 0.23882530024527218, -0.053553349338360555, 0.15136037247472633, 0.09828820732760063, -0.06867181106636164, -0.038887450606669365, 0.49224798524413893, -0.4480332249290498, -0.07230481164224847, -0.4197759517348737, 0.17619173274870933, 0.08353582566821006, 0.012301624395077466, -0.1323688754527538, -0.00862191374486503, -0.013336223457678724, -0.15136660070168192, 0.09374706637510148, -0.23781035356171176, 0.28925134796639085, -0.29024993818897904, -0.14368649574359021, -0.3154198688938581, -0.0625618243716179, -0.06873471953867911, 0.40697321520310487, 0.026030490585412243, -0.07181607005764905, -0.08244251197223273, 0.043220724541794195], [-1.6874474590724002, 1.3416541806009359, -1.6437736412753239, 0.2861543093432337, 0.7037437376361048, 0.1047784376646045, -0.3285293316693235, 0.6698712385708584, 0.048797541649640425, 0.09144943076875933, 0.27264044865904236, 0.002971097274236777, 0.0842173356449728, 0.33109691544162395, 0.09815331478498952, 0.0023897195341902127, -0.3414451860511547, -0.16727930281630704, -0.29357258347781473, 0.1223394856643224, -0.2759772885132706, -0.018556012736140326, -0.018590756625001526, -0.08432665557773239, -0.20116413110262454, 0.22557702637217045, -0.4029899338878533, -0.07056645459736079, -0.40191385713461814, 0.1631490807405656, 0.08013633722590714, 0.6730412479249935, -0.1460312360627145, 0.38899776716289586, -0.3742130492252989, 0.4260673250826639, -0.39099083833952536, 0.550039533387206, -0.008424888184872819, -0.1542918120419417, -0.4513642289835004, -0.23925555691016082, -0.6290669481128515, 0.18671630716124185, -0.23712843509403506, 0.045101983756696655, -0.48233478526608986, 0.09657489736044995, -0.17451679541195672, -0.18113325945664235, -0.0682521856587346, 0.1345774343731524, -0.14794394280937193, 0.2811588204187325, 0.04108663553351376, -0.4775913793132221, -0.03810924074355571, 0.2771742802895907, 0.3843104524789926, 0.24685138712015278, 0.4640623130878601, 0.048802829507997705, 0.2717496862909177, 0.16854021189151785, 0.32353666379281365, 0.0021653329335897748, 0.3909553411101874, -0.6074140358737145, -0.025559981848783556, -0.1369916615242163, 0.6433089095757096, 0.5161240912412324, -0.1682211431909931, -0.16235793994437325, -0.5076561460331057, 0.03519377968678123, 0.12171987131704558, 0.2779196893099204, -0.26346798928203824, -0.20450554032291968, -0.7131766448758278, 0.38560597292900656, 0.21901212720604038, -0.057281547571286597, -0.13489073809669744, -0.07845668173560905, -0.5594772076618805, 0.03808483285163474, -0.1305146817918479, 0.27502462715374226, -0.1885798322355844, 0.35998186980401653, -0.34436076453912107, 0.2403295833461811, -0.07958516787195581, 0.1079340505953654, 0.10642944174063418, 0.7586136230280157, -0.481548796894047, 0.7046044991708613, -0.20407101989133064, 0.019417254868692155], [0.534767062894765, 1.0216305065577589, 0.9650392779082991, 1.116504425386743, -0.1489915488614751, 0.04039146341679783, -0.5017225340820776, 0.7013474412431416, -0.02849456483956298, 0.15710574479108813, -0.11946944751501877, -0.036225945606949105, -0.16302678998640446, 0.14773677930370543, 0.48242295359428045, 0.10726160092961565, 0.14837449429894586, 0.2647537212465087, 0.5481479653462001, -0.11553369245831578, 0.5219121587716057, 0.3424443525365731, 0.3666031577259624, 0.11572728810110883, -0.14059910376009482, 0.3859558415862613, -0.21651256803465876, -0.04015382321829582, 0.6492469704773804, 0.03476142770116165, -0.44227936423375486, 0.17745690889748908, -0.08281573274925726, -0.23150898031323439, 0.24934279139530346, -0.15904840743509727, -0.10602462525456163, 0.4599270893874309, -0.4019384240091726, 0.2578843608763151, 0.052154408361979224, -0.2468725180624994, 0.33145149489889936, -0.230061147977335, 0.23947869362791344, 0.4887549057471798, 0.3206888046639261, 0.4512366928662705, -0.07257617151531719, 0.048548753191301364, 0.22547924094523603, 0.20013803519268752, 0.09450195475035834, 0.2974761347681667, -0.4968789492025608, 0.28345436794914114, -0.13295953715094821, 0.2595170593608422, -0.17547269649918246, -0.09706710995147069, -0.14072738339235769, 0.21381874791730215, 0.41510460768694346, -0.31673037985509034, 0.046734183024484725, -0.03407416773226395, 0.08440525281920683, 0.25803637735132473, 0.6842940923548211, 0.07974859032362532, 0.6960861042920095, 0.1559450588566989, -0.47488987885517736, 0.5412880950100486, -0.17127024205779115, 0.13372668571679178, 0.2494186206984375, 0.29898972765663967, -0.7933383370481746, 0.15181809414962705, -0.4716184258120494, -0.19236985819845331, 0.14675133476052038, 0.04967060235336303, 0.007399321761220237, -0.31105154254834405, 0.1090005802820759, 0.01578574619929767, -0.1461080727575113, -0.09653044158892204, 0.5537224595106166, -0.16552457335927984, 0.2637508628464432, 0.4798124745123829, 0.2864642544391254, -0.0200323799682497, -0.04987006930938583, 0.29557638122866114, 0.11409076904742155, 0.17092083579728634, -0.015743947213615807, 0.30272397228056513], [-2.072216590861383, 0.09877202713141787, 1.0759820842850476, 2.2169809647791183, -1.7993034093886917, 0.022637726529956475, -0.18224926884315387, 0.6270679458050654, 0.24844129532161632, 0.5113887006337671, 0.42676914809088234, 0.20308884971565355, -0.2917823154314678, 0.9811108726641953, 0.08558031269287224, 0.1802414370806593, 0.12953649804192396, 0.3120618091422989, -0.533515478765984, 0.7581043070421875, -0.6660316675815915, 0.013254653275719867, -0.042507076726435646, 0.14283930039790235, -0.1752119656056173, -0.25531694260798615, -0.3394968407422584, 0.49522791531292115, -0.13182502401268284, 0.05439451560015856, 0.38994582373426073, -0.2567963834634029, 0.4419106669575617, 0.1120464894778056, -0.10042166942633174, 0.3148494823498354, -0.07911146505786158, -0.055803023904869895, 0.08215350742441208, 0.2875717012805855, 0.11657021980193144, -0.239158476736292, -0.3640197292198385, -0.02015376118682778, 0.09504595167584884, 0.004959323765941604, 0.18405584914393047, 0.059754473691616, -0.2977883324013493, 0.15126018306463312, -0.5366975699575268, 0.23259391919633585, -0.23960078405802704, -0.06312960020400864, -0.4063698950269733, -0.2839257861654434, 0.06072718684753159, -0.07602680823864504, 0.364717030496788, -0.1387688470038252, -0.23716612180707208, -0.2825112969540752, -0.28930420406077156, 0.5512601352043731, -0.12977344245611974, 0.207486210599408, -0.1835854216262652, 0.0644208831379768, -0.004410150949807019, 0.21939218971798996, 0.12616089596091185, -0.14534135491722988, 0.11141836864996313, -0.031837981081644796, -0.07619307831958531, 0.10316611870741665, -0.18669571526224712, -0.2905195805785835, 0.5127853723560241, 0.47340431078321304, 0.5289578167161704, 0.008852121521457888, 0.522639298113617, 0.8358897860952634, 0.4539573567571639, -0.24269926703387615, 0.4207351962758846, 0.35457966377729394, 0.6300579783863579, 0.27378894380046576, 0.2425130456580803, -0.111563628355997, 0.4051756025027915, 0.4030032894819797, 0.05054235888742084, 0.6296838965408407, 0.23571381615622836, 0.4546940645092384, 0.23961886656721945, 0.0032613400685794526, -0.02149896333801986, -0.10178730386728345], [-1.9659811679806825, 1.6961446409645262, 1.881142490322151, -0.23422194283447484, -0.7151391162884077, 0.07691611958719048, 0.22437974657291335, -0.34140570287112426, 0.40553084042129245, -0.6812056958328192, 0.4907074465500075, -0.6981513722705014, -0.016710719420891255, -0.43541790770698036, 0.22488311542603964, -0.08724570394141747, 0.5176990382992966, -0.6164307615474813, 0.4896205135960055, -0.2138356373010453, 0.8478861551738246, -0.045104165369361966, 0.2056904986756414, -0.2591653721120798, 0.278241521105787, -0.3786925991141243, 0.8532481019006166, 0.5425230942486551, 0.3408785218204003, 0.3842603684470814, -0.008718570865880283, -0.6769787858268712, 0.40662976548374247, 0.35360628328900157, -0.3700077651144176, -0.0682183275717952, 0.0695835630845152, -0.5691221611116336, 0.11468857217602978, 0.07610203854892267, -0.0814039302114672, -0.03628396283065902, -0.28559726832940197, -0.6644428078445546, 0.1451245849155287, -0.34658044302762664, -0.12594570715398323, 0.1311944607199876, 0.09744674108611807, -0.8643365392018132, 0.027443319664472235, 0.03048846050877476, -0.16037283016946724, -0.019751313355063464, 0.708761406646265, -0.06951822959392234, -0.006526709950028742, -0.23429711184647972, 0.5585589685161132, 0.04576670496323801, 0.24919791584703258, -0.13233196712969897, 0.3894836676836032, 0.2250377017713979, 0.019194664082771814, -0.34797181681853806, 0.02714677480866303, -0.01447988903520716, 0.19602590697698716, -0.14072823026815365, -0.26644340912052894, 0.26766004875929394, 0.02106767302624986, 0.6055816582041044, -0.3880779299025228, 0.18765406552249958, 0.4318545267344875, 0.2900987328107987, -0.28679831764967745, 0.8625903715269375, -0.1093797097966031, 0.20887898162443957, 0.06724581095855185, -0.6706130265265449, 0.043413988250126836, 0.43917743809430104, -0.8117757404098329, 0.1549162696889094, -0.1216916450569677, -0.5302864962586515, -0.2873580404427949, -0.23024120903140846, -0.7702118465436636, -0.09521907014626912, -0.3179585700593681, -0.036739952466818104, 0.06075169517931703, 0.10398380735029322, 0.04636921662290531, -0.09750831386534935, -0.31217455967525604, -0.03239745809646649], [2.4953878152447357, -1.0739153944271773, 1.1878500003886572, -2.1205067212455457, 0.3164415290821196, 0.005529799386856328, 0.1741903378628556, 0.16122605021685832, -0.01960151563254702, -0.23177259617032614, 0.41062068554451614, 0.5066670195971206, -0.046098991605062395, -0.3466606647895628, -0.32165216683938574, -0.0794803776793929, -0.07770477269564176, 0.5102583893489386, 0.18504671121119123, -0.15510507162581755, 0.43725982375974665, -0.15548493034501124, -0.11503450552104746, 0.1489242018117745, 0.11927755765584717, 0.2794391318699801, 0.06972550901755745, 0.38099641649229166, 0.2854072025982281, 0.40401876683805643, 0.2636143986494035, 0.1453883244208435, -0.27949203052534727, 0.1845017078183929, 0.15831997924914795, 0.29273826666497027, 0.3548904749514286, 0.3458624942415389, 0.5313550608213767, 0.021932476217773087, -0.19189819954306497, 0.3939575896242965, 0.20135561149420944, -0.4234810232797065, -0.3556037151142025, -0.3044557761993226, 0.04295481957148522, -0.5344301050968797, -0.2233727678194388, -0.34505926275602516, 0.0828421038396472, -0.20398748322425272, -0.15387398507762504, -0.8329442171945395, -0.28704811248516426, 0.3986839525374614, -0.28638840658229175, -0.40694940182665446, -0.4784014313599033, -0.9970251315430106, -0.5142434334626147, 0.36615129839830013, -0.34844317518725, -0.5661350027075329, -0.19462254995047995, -0.6702898909058159, -0.45987596505389633, -0.6403054671285869, -0.7589494218972576, -0.38375370683944565, -1.4299597002454636, -0.039242901082242224, 0.10576078304234791, -0.08926482369674625, -0.9248602867860299, -0.2660511173639553, 0.43324134346228105, -0.2838317955514243, -0.8764334053669124, 0.40746144964700864, -0.5934550059926059, -0.245332783288071, -0.7474654226668915, -0.266793708481665, -0.4473996799953943, 0.22185250287846223, -0.5945036251845541, -0.8815222856897534, 0.019314072940616336, -0.8256467685489016, -0.049723525573330124, 0.5811565931590158, 0.0013959157184578498, -0.20272050489643045, 0.3426182101154002, 0.09418726618159799, 0.48769900092637913, -0.3363207600755795, 0.5021225262298531, -0.30476050165322616, 0.40488561165545744, 0.706783302728705]], [[0.006946477331364104, -2.8760468605287954, 3.806801118549042, -0.9746392377632053, -1.7998043199108724, 1.184264199479815, -0.3415765800277942, 0.10769571991513477, 0.1481535487144064, -1.8670905663389536, 0.5433216806456342, -0.5198583576724467, 0.8134929710328943, -0.4315073063717689, 0.7925395675846159, 2.915683799740687, -0.4493763266547156, -2.469619695663443, -1.4263578802011931, -0.3478778215809796, -2.699026268289536, 3.114048967045783, 0.1741329904310634, 2.39805617995998, -1.301538561124352, 0.24512646370801314, -1.5353843335203394, -1.1527332432193602, -1.0426812609266498, -1.1571112699907626, -0.06515539568459627, 0.06304366604450497, -0.11773182781459689, 0.5419531339934175, -1.6732195365106888, -2.1071114384117995, 1.0976064422604286, -2.593445598765152, -1.6141713139828555, 3.1536867898435763], [-3.131927113223665, 1.4155991480519774, -0.39158671354072233, -3.393194664381401, -1.9886959900398318, 1.0051813102738214, 1.9830623848270441, -1.201483145261773, 1.292344507423469, 1.1640627293339898, -0.5669221226148232, 0.053353627103935444, -1.8798122897419858, -0.4710299274866774, -1.3739832213656937, -0.5883993737219648, 0.7195794797087646, -0.5551027202075641, 0.18558561890608544, 0.42556476467607846, 2.489434958770751, 0.1482544768913738, -0.01701763309354459, -1.1878428117286461, 0.5358193989916991, 0.3079366258781516, -0.48744694645261966, 1.9674104581149703, 2.1775933305782345, -0.10014106552361222, 1.8077992261159759, 1.6398186174290972, 1.4300749886214168, 0.5982381553367319, -1.7856974397370327, 1.5467436291424963, 1.5447908622116522, -0.285691128577255, 0.979775754357844, -2.441989288826082], [0.5263416768839899, -0.7779386854205151, -0.5481578488892305, 1.5026629488730723, 1.640315912565827, -0.20176064369435773, 0.3726883875933058, -1.268390834227256, -0.7239019489793639, -1.3993514651863512, -1.2302069465919532, 1.0741210314167204, -0.131252365711543, -1.6035619880519838, -0.749974684027076, 1.5158042600379666, -3.553515458147572, -0.3129920669873761, 2.4122754915683338, 2.1854992772109356, 0.1417711967041035, -1.4107536685694888, -0.9070280501886677, -2.8626171309341784, 1.1941202505647586, -0.7515821622378216, -0.41544436188703127, 1.7452106824104014, -0.17480972251173565, 0.5136989395404025, -1.623782644439714, -1.249560862139303, 0.5139433715618222, -2.9968999356432393, 0.5982417609018006, -1.8682018680771442, 0.9122225994103405, 0.19945876619734557, 2.921368246219336, 0.3283028650067561], [-0.030546126186382454, 2.026271621403669, -1.8944487604108813, -0.08348159876177592, 1.1341397740757047, -2.346883634667323, -1.623098075387894, 1.4586068912153638, 1.9388300985576647, -0.7403042002178403, 1.1051565933179426, 0.05987389408681537, 1.0390639610478998, -0.09528764091898641, -0.5148197890536295, -2.8506192864349433, 0.9483180628438965, 2.4210457780165493, -0.6080789541298223, -1.7489760935766903, -0.33575476524163494, 0.37666902758988524, 1.2192493835896356, 1.8085742762815742, 0.9143476772910811, -0.8489684481930381, 0.24405880639233796, -2.836674783082085, 3.391475130558662, -0.9638618549718865, -1.1217215877197315, -0.24001076466420437, -1.487979643992581, -2.0451341545282, 0.46314156464670986, 0.38617344997517006, 1.9132590928437614, 2.329984610705529, -1.3134379988524072, -2.0425727386321872], [0.4069658637172586, 1.6990966340486575, -1.0700857555875058, -0.24669352353030832, -1.864568755784631, -0.11968611372973051, -1.6937896247042317, 0.8534671375483268, -1.8308655506888536, -0.8479601082273723, -0.3577065304519984, -1.2253329771230492, -1.1973244899912867, -2.4927360645035295, -3.520216482590656, -0.6678199348841977, -0.18563798670145476, -1.7840036037602727, -1.9662118097509185, 1.7273650889205352, 1.2834078813322436, 0.745269929646373, 1.7001314150365872, -1.0512671272795442, -0.7922238383782277, -0.061160535766554364, 3.909491694580024, -0.15160590045409061, -1.4414010156131833, -1.7225467498500078, -0.9602313967418951, -1.6376080768896193, 1.5842820125801713, -1.1178777422046058, -0.023436525607851123, 0.623966425246913, -1.9410920474925448, -2.2806059599047974, -0.21938665944787186, -0.23561161099803213], [-0.8871382615648657, -0.41447442367345083, -0.23897580060972998, -0.46306304174665935, -0.7593953967362896, -0.7685511406856406, -1.0216557857001463, -1.1800619019538687, -0.5789317023171231, -0.5755396192383723, -0.14921373389666368, -0.6478398589510305, -0.4627003581524191, -1.1762059490296286, -1.0451970176346497, -0.6502153153391065, -0.4997609694366184, -0.39861114213325066, -0.12491598158376858, -0.8896178986627578, -0.4213319852315312, -0.2838007029897607, -0.43673123773038675, -0.8597307892599555, -0.5868975567807091, -0.20051734126321252, -0.652892290878438, -0.899543972715738, -0.7336976697869637, -1.2222348755462822, -0.37383031684531526, -0.44059108746701436, -0.47080012483755107, -0.6502025499789558, -0.7234306838689598, -0.4005611194610751, -0.44837267063834696, -0.7755487391283317, -0.6263682037725333, -0.6915338227359131]]]}