{"biases": [[[-0.5595506101809982], [-0.5178280491022318], [0.5163988323564264], [-0.6104929829588865], [0.9686202428484976], [0.579437481274484], [-0.8284138534499991], [-0.36864980661256047], [0.3430840565937686], [0.17983164707970412], [-0.5869034484506775], [-0.40139528478979725]], [[1.601068211885659], [-0.707144925295936], [0.38842074821450323], [-0.3656327783800662], [0.6754331337021603]]], "weights": [[[0.33979085077152477, 0.18194092704130596, 0.015422083775064753, -0.15177460692254482, -0.15015877962260896, -0.020989381379771795, -0.2382337365974496, -0.4715854605940894, 0.1112439376232959, 0.1791282206039501, 0.23810825041148379, -0.30049179406944204, -0.1511044733202537, 0.1214664199126551, -0.06201784975870611, -0.0017559120375357886, -0.17414594440253264, -0.05307456529433403, -0.23920306316229192, -0.09942139786452034, 0.03940719605882391], [0.07581897283032069, 0.18054526246224809, 0.10571201878928545, 0.031193386220251897, 0.47322976709186204, 0.21781866848206774, 0.442131634659969, -0.3916654326597454, 0.38391099776886284, -0.05156730799294579, -0.018828503970246113, 0.1944891357825235, 0.20836521639542963, 0.10398515511257768, 0.07809632448409456, -0.12559030132139942, 0.03877542579098587, 0.20303731297090385, 0.013777867803244614, 0.08017048068300563, -0.1296865365817614], [0.049241709099560105, 0.049397670981498484, -0.0732724531004697, 0.02001572807127157, -0.0874029542272363, 0.37577801332005145, 0.3113493159600656, -0.014905193780350505, 0.1197276636863977, -0.10321532802183132, 0.20140458636793285, 0.07186973911824505, 0.19442395700291282, -0.02309198892559127, 0.31169531174545856, -0.1492730361223415, 0.02305956287017026, 0.4595245648428059, 0.41309338503007315, 0.42535018867705887, -0.1802483266780266], [0.36401853330423145, -0.004192880904452293, -0.2506700647935796, 0.09923416510094808, 0.10011153088572304, 0.033364702317009755, 0.09003664157693747, 0.0830031480652742, -0.45711222594385487, -0.0971844012466852, -0.12118690591661427, -0.08116730185940808, -0.1506719630962168, -0.33717878527184025, 0.29497759639555066, 0.2022641342229566, 0.3127035868090924, -0.34872092404680977, 0.27029053676047676, 0.09302209337584989, -0.07309054472206032], [0.07323349902714696, 0.0342692464093791, 0.140523483428114, 0.5842842000388186, 0.1420392712912474, 0.2801212392137061, 0.06786984488108222, -0.1864039730422568, 0.12417192107032698, -0.23250333486945174, 0.047661799483090385, 0.08891375312839211, 0.2088583641629298, 0.06613921816624024, 0.16587930834051823, -0.2660381865342219, -0.41792859348660016, -0.37854309663316055, 0.06964669919922208, 0.16381445929168523, -0.22887023918031338], [0.14059427335220093, 0.18591134518340877, -0.2588298286806972, 0.36916781393279996, 0.29382171284736264, -0.45282525181920014, -0.17642243733409962, 0.38615066325402986, 0.2930888382378845, -0.05575429067105942, 0.15093565460751035, -0.08159236123907379, 0.2663704330738715, 0.23246040821217218, 0.04245071934248722, 0.16443394776469433, 0.05851562793368082, 0.057071657015450444, -0.28366136060785024, -0.5584367727512296, -0.08483799377758283], [0.007415822668811241, -0.39841313213628204, -0.024017897459443098, -0.04331697851839845, -0.16522872501476496, 0.24774862954516086, -0.30382478083233394, 0.25649634126140874, 0.10969407960301529, -0.12311645472757032, 0.08103309829249147, 0.24337075652540438, 0.07627579940177598, -0.03070472592745924, 0.3713710369595024, -0.03744972907618351, -0.13273098955158757, 0.08627244571968185, -0.3087078503669479, -0.04687235796001416, 0.06810005433662292], [-0.17620374780146567, 0.5302006093709617, 0.007092521891781494, -0.20189070806805945, 0.31630853979217777, -0.06295148197876028, 0.010050642539886483, 0.17189843570040264, -0.30103437859488336, -0.1990152354608032, -0.3809559625344669, 0.12525080914986575, -0.09385022591997712, 0.1354742407572366, 0.09808210098013607, 0.15532460172487228, -0.1784038443112605, 0.3646742538714729, 0.1628992950111337, -0.08464418423131012, 0.014699095808397868], [-0.22336928040502413, 0.18695544855837173, 0.10762971096708591, 0.4037670509008905, 0.22426242448582873, 0.09114804448929807, 0.11363749004413791, 0.3495111662691006, -0.13620313630090672, 0.36556684790214083, -0.21225400012037224, 0.23299289894829647, 0.13785723394933405, -0.1251052051508252, 0.002972503788607337, -0.09395668858956961, 0.2829772154213171, 0.11296542217639921, 0.20652664209277488, -0.004255935909344707, -0.023069294555620557], [0.28217838044708843, 0.18925653798629902, -0.4052427502152865, 0.3995813972630784, 0.1882167714535865, 0.03221593601882542, -0.3044790366711833, 0.11669059000771698, 0.1716451778049835, -0.16809550167774, 0.31246180567304627, -0.09205886548857578, -0.16755050546249534, -0.2608773600254153, 0.18182336731612642, -0.31282460146668817, -0.04943324080845129, 0.2313007044207212, -0.1738407037686862, 0.11423673404760819, -0.1175893908594776], [0.06234381046795113, -0.040227142944850316, -0.3415532416134088, 0.21460927609125827, 0.2711649196357771, -0.0015298424357018438, 0.05384626213434772, -0.06568164886873122, 0.18685854064457944, 0.400640363649702, 0.07619388552127915, 0.05575401861406891, 0.62796221957994, 0.37951677061262906, 0.1486387263532822, -0.06958218525269612, -0.1610440547229246, 0.08769473238446597, 0.08099793704420812, 0.2734327631270346, 0.025085023627848705], [0.346381668153814, -0.10054634377911456, -0.1698062082851619, 0.3354695720780916, -0.14630924722614178, 0.06642239961446288, -0.18999936050063104, -0.35234346633232055, -0.4096619978097377, -0.08879453857922127, 0.05057230884865585, -0.11693821462031685, 0.026074478317715928, 0.27522701789911447, -0.1505659251292209, 0.26153961556737326, 0.19600212470002704, -0.07736626658899094, -0.21664105147418244, 0.01951465453794779, 0.15044001162241843]], [[0.009464857659972004, -0.08897269573209372, -0.39772512521578984, -0.13518783130756126, -0.1714969176806067, -0.09250168948980626, -0.4157115563848667, -0.24046389907608592, -0.3894000513698993, -0.8317200824323926, -0.3823161817601976, 0.026700797906912252], [-0.028125637245067687, -0.6227313116611835, 0.20888575956540104, -0.11363886391479312, 0.31164264599907215, -0.6003295012902231, 0.10254731728500549, -0.2106711963876388, 0.13134887120402927, 0.18446294357320797, 0.048604879221110495, -0.023942318504707814], [0.39703791456698867, -0.2715964283956872, -0.43625928792671276, -0.2273928232670356, 0.2027928603925615, -0.054133815612762946, 0.09657503871979625, 0.13247585713992957, -0.18514642563417333, 0.1324805887038925, -0.4334987340848354, 0.5058524185039444], [0.33425968200647765, 0.14914016466538593, -0.13755400956685523, -0.3014143865682018, -0.11651507146972873, -0.2579996133464001, 0.10128355166487453, 0.08882356819553816, 0.09956924413386721, -0.2379409271731613, -0.6567435979228274, -0.12973489831142687], [-0.2650395055766718, -0.33384974875378637, -0.8129442438655784, -0.14845568887337796, -0.4436400863339277, -0.5736626679064148, -0.12013281073548479, -0.09126704140200675, -0.5742178766286764, -0.1187921085656687, -0.6078779972049743, -0.21239877308596328]]], "sizes": [21, 12, 5]}