{"weights": [[[-0.33631383844597124, -0.278219785334453, -0.1378333624529881, 0.06941893191482808, -0.15826943512030806, -0.182448173312422, -0.09883474531682442, -0.13363632816681903, 0.17375945583125701, 0.4279295796311537, -0.0313486057983382, 0.04243579784722936, -0.15650215332043718, -0.3048816791867807, -0.04883425760595801, -0.14144597186322524, -0.12849503935530887, 0.42374138284457646, -0.1314604704708529, 0.3631745437713811, -0.09441308540457581], [-0.1632534708995933, -0.18538976277534466, -0.302131919266212, 0.24353328546489597, -0.025120808971156396, -0.008849498155581404, -0.1343078915284053, -0.0033593459925161107, -0.41373217052110167, -0.2366422488368344, 0.19390202242749202, -0.10136091203261935, 0.328079831620762, 0.4306225094334242, 0.3453492811778281, -0.0360781615361478, 0.2324272092559408, 0.09678608756907828, -0.03604045496681297, 0.08501365482773973, 0.22380590437465206], [0.04199211089486941, -0.1814540798623442, -0.14388107112127171, 0.5383763732884368, 0.290034444634033, 0.242066887840653, -0.029177962436312505, -0.15052399599916164, 0.3604781227308589, 0.08006854949566108, 0.1472182015046371, 0.013587453212362386, -0.27144781093678005, 0.13870781882332855, -0.14900931308973359, -0.05954715779962431, -0.03144355736950462, 0.3112125411284755, -0.07837668850424935, 0.2766068991657303, -0.0013344908338303496], [0.04112399946196124, 0.057298502079952046, -0.342223535423765, -0.3061455364017682, -0.24899998413701901, 0.10566604560943973, 0.11044477265491698, 0.022449049085514417, -0.15612647829392684, 0.11425699106839729, -0.008892057509355393, 0.16796239292862902, 0.1270375353528205, 0.15776728611662896, 0.018082897429462754, -0.21743820130182537, -0.3721144112193978, -0.1520796308091439, -0.2786856020965216, -0.023609623733205177, 0.30035632506046106], [0.016638829458161128, -0.07522506093846364, -0.07867783825916733, -0.06443550430673389, 0.040466520530893405, -0.08087573394780459, 0.14345882496296247, 0.438255903734793, -0.0747911135469076, -0.042901591494014846, -0.22767837502828298, 0.026636998749193022, -0.11694074346746108, 0.11763999960658894, -0.14229715869786147, -0.037852389435680936, 0.3579145920930063, 0.14453278307251222, -0.44140266057520877, 0.29576219923699565, -0.07786054351599217], [-0.3151826646125357, 0.015147190178018292, -0.3004368266056733, 0.12653522164581368, 0.10055252635055005, 0.006181896390148037, 0.06879248847338133, 0.07446121812491806, -0.08616718250182213, 0.18150807749004869, -0.22783526584768574, -0.2597247554981063, -0.28780458799023295, -0.12498709666163012, -0.13266051729753672, -0.34635998336311763, 0.10769943648004633, 0.05068468039270738, 0.11351431979303835, -0.46178526467484876, -0.1167057944282711], [-0.12295643840143844, -0.07038316670225976, -0.19787104733753239, -0.4081821346327692, 0.019753754039758823, -0.18924415044132317, 0.09555235678814944, 0.04333454676763212, 0.06338505593338489, 0.46105506553902853, 0.09647268469713097, 0.17275427832451404, 0.05545354752173092, 0.016937420056183473, -0.02702360692817964, -0.3506762689318151, 0.13875057516705838, -0.10302031190951069, -0.2951661970954703, -0.06883394299949212, -0.12977726027205852], [0.43134846192302273, 0.18068854839606918, 0.07162768980383553, -0.193029982626819, 0.15751929502234185, -0.11448207561244976, 0.5498739217486535, 0.5176350979137678, -0.19525889161052873, -0.23067762057187677, -0.175793219415567, 0.1469320403191247, 0.17151640765821705, 0.13102127600678873, -0.06859881178236872, 0.12295120080775436, 0.285099322699038, 0.08256924554858121, 0.0228449948979498, 0.07569977782247762, 0.5847105012231699], [0.0343037473091772, 0.1880233341655794, -0.2007186414400978, -0.027583169792537287, 0.497563391254611, -0.027630593409673065, 0.13651694396204223, 0.16676678841328832, 0.31476840408781703, -0.034837505185908, 0.2778717832549716, -0.1758221648776744, -0.057827037649524266, 0.3995115117363181, -0.04217530210645547, 0.32806543294017226, -0.1367075383644368, -0.2741059595047281, 0.028427843181644336, 0.3529522196292561, -0.13020595665042345], [-0.029565832272198934, -0.0011443386700890862, -0.27940287711686246, -0.010767899027750395, 0.08007616309058282, 0.018777270773305585, -0.17636855346078542, 0.1597075292820067, -0.03413790840725199, 0.029736051168782175, 0.06772749661418832, 0.020981784428218273, 0.4732223357107919, -0.1033353495910481, 0.25409507464523806, 0.33746909831234734, 0.2911408704568419, -0.22490613636865966, 0.14527795314480518, 0.24314675964942103, 0.08424936962849063], [0.12054272624735261, -0.06950334088899063, -0.009578671031096393, 0.1317535126097388, 0.2191500659543922, 0.1366137254542419, 0.2648072602867869, 0.10686059385383592, 0.07156438458374892, 0.12417808682098037, 0.1679382089535489, -0.38420559039754465, -0.05120935958996755, 0.3252309913310337, 0.019098892740567443, 0.10834828753830879, -0.22260364897077098, 0.3992903056316087, 0.3213095577853193, 0.13230842798358625, 0.1018588459800329], [-0.1608189814309572, 0.32724918746877435, 0.3312712348846196, 0.17906829621268888, -0.1747661697457035, -0.4232720399507783, 0.2477406161703079, 0.01922849960369745, -0.06914244453732057, 0.2346142494578451, 0.22105718673650787, 0.2092267216151478, 0.2972828359346636, -0.09575952252120651, -0.2859459369892842, 0.19942741156226979, -0.2860309004455542, 0.23124855640530828, 0.2627122119850173, -0.2470569011878495, -0.39953584758187627]], [[0.2058268004777403, 0.39568940300465527, 0.015865159739382538, -0.1563017673761835, -0.09341791950406343, -0.018213033324685397, -0.2927301576847967, 0.24622235828508837, 0.42174570127567607, 0.1167278893128772, -0.12934191285073027, -0.29556711571124666], [0.32690728322181933, 0.02919017556824287, -0.001150126561785379, 0.4968973744044272, 0.371656487112431, -0.21658434765275106, 0.3014881964404832, -0.6801421407581287, 0.15704002016296598, 0.2026327180608292, 0.30644060729090267, 0.12220413514488244], [0.2601167577582786, 0.5561126769147405, -0.3261232522723127, -0.24889199900976278, 0.12010304017986753, 0.33220426300094047, 0.06012768076937019, -0.4299829233576047, -0.35987880337334865, 0.1464739848187458, -0.1526924097489165, 0.09711533477242598], [0.1267662927646626, -0.19349282231383944, 0.12508529005681018, -0.20577209901276325, 0.07324302280795411, 0.036218733091489944, -0.2238517700670399, -0.07683981781719429, 0.028211093269066918, -0.8047746362754158, -0.2991484666107064, -0.03292016107002966], [-0.26100060847833895, -1.1280678633685117, -0.9815995743256534, -0.04468158988532379, -0.2762516163142889, -0.314531858212224, -0.08789760702873083, -1.0142803668876843, -0.6065588747775745, -0.7676513128568832, -1.1888408201845322, -0.266823975680122]]], "sizes": [21, 12, 5], "biases": [[[-0.6877521017341829], [-0.5006992552801555], [0.5554867085315753], [-1.0265903865753847], [-0.5856948679751941], [0.045068105726244596], [-1.994094811748944], [0.4287393624338652], [-0.21504654186103667], [0.7489826849669542], [0.6420655623666182], [-0.9255758263504115]], [[-1.0702926184027273], [-0.2938460464830909], [-0.3367529023178309], [-0.24668711050675676], [-0.4700192215173266]]]}