{"sizes": [16, 24, 9], "weights": [[[-0.7395266875420284, 49.70350229874753, -24.949271552934814, -12.28425033182352, -6.050543954791632, -3.031614149248591, -1.4998306203900351, -0.7367178701993558, 0.7393026549521874, 49.77783384927227, -24.916610425861464, -12.249660322628314, -6.053252439857955, -3.054329367683828, -1.5062932686532176, -0.7703757034554094], [-0.16244541379876662, 0.8380456896669548, -1.5205226223112507, -4.056159849101752, 1.777237338704983, 0.8893890462176717, 0.7208669246152772, 0.028478823785834866, 0.08945637422744966, 0.19441432961452376, -1.4807556071889658, -4.055480009421613, 1.7926074032270256, 0.9669842085419379, 0.20683914651028662, 0.220030177269996], [-1.4639536283911467, -0.030751038282741634, 0.0056478065449401945, 0.11501588153527258, -0.0838338433639789, 16.123015078054216, -8.138118190854469, -4.176409293356052, -1.6945519876597772, 0.04734718561476942, -0.12269552722751156, 0.03114652338670155, 0.10124725128572087, -16.15407420176187, -8.087619505917013, -4.060222336558008], [55.26921600039073, -26.21678880051691, -13.77650562805228, -7.048972637245651, -3.5807066500318134, -1.832871627703884, -0.8392521119962543, -0.4402976196083682, 54.10586306646128, -26.272907815050598, -13.73439513006994, -7.033226430153217, -3.5651649561757273, -1.7619529850562978, -0.8946423009055772, -0.4478785228481524], [-0.5975510951867494, -0.704062225365093, 0.309760037103189, -0.08285833987530332, -0.07613730912513635, 4.452178639452196, -2.2205297429581674, 3.9793119744193297, 0.1442766071444131, 0.042387913008875136, 0.3804965709573966, -0.08186853271060895, -0.047082481171133776, -4.571156464720969, -2.216129067217726, 3.7543798720893204], [-0.07843127518132349, -0.9532108237255866, -0.5729096709397521, -0.888713864835079, -1.6356613127461712, -0.9134831213707456, -0.1694383947175786, -0.2552726980105923, -0.019731726101459235, -1.7852793235784181, -0.5601569810324817, -0.88094752323608, -1.6329553869548283, -0.5973367114416029, -0.34268471721156596, -0.12805830916335212], [-3.224162229691628, 40.548896699691134, 19.377548329191665, 9.890530436807142, 4.822661454658386, 2.2965997500443724, 1.3211205538242226, 0.6189313994330312, 3.3265623127161446, 40.48842659586314, 19.39330804672207, 9.927994655255864, 4.83754663155905, 2.440900096228489, 1.2831061845627878, 0.6186529274871516], [-0.018947244329417523, -0.33824452947348926, 1.1004805243150406, 1.8157840073814513, 2.7300098306669827, 1.629377477623883, 0.37290044287328244, 0.4550154335614763, -0.005748559754600067, -6.512609429596544, 1.1139000630126943, 1.7711642642150174, 2.7427661219373096, 1.0495646199246842, 0.6833253145039637, 0.28878833187400427], [0.0650084088483757, 0.014583553701014542, 0.15649068638095145, -0.05065987336946352, 26.65860664580153, 13.376446564959014, 6.615227114567585, 3.310162307024351, 0.029653895405069075, 0.000113489754438237, 0.138783439430635, -0.09324028101907479, 26.64899940530751, 13.320561381477743, 6.688400386081263, 3.263490727533252], [0.06860656813748699, 0.4641971899405106, -33.549102861816756, -16.886636855582477, -8.250481382555826, -4.076302847956845, -2.0464782515371422, -1.013684974145633, 0.0008702230362572904, -0.3024017231811039, -33.56908450986532, -16.86422997065173, -8.277071871933277, -4.156248078133956, -2.107638478793762, -1.101670411454161], [33.925118765215025, 17.239994308752213, 8.582175653329907, 4.077425902819923, 1.9371339472316218, 1.0296285370900913, 0.5392233202651094, 0.26854878442465635, 33.87433694365039, 17.159560896883157, 8.545773579532591, 4.081222693070318, 1.9299653732298998, 0.9585238538335761, 0.48937502951902884, 0.2506396284622532], [8.047223314388727, 5.761444750264858, 1.8655335415135863, 0.5913585539440163, 0.6143160939188131, 0.33286836896610394, 0.2577848023262346, -0.04047122515076794, 14.50343343443965, 6.266524590959244, 1.8609526635046, 0.5070662713805465, 0.5422484107188699, 0.29413008800430457, -0.00949496512160886, 0.05771024102335602], [1.1728257070623003, 0.0034505828322465943, -0.029634374157561427, -0.041714857521656656, -0.07959893469013639, -10.928633129311518, 7.066896605170281, 3.5465395912675843, 1.3119366180853311, 0.005245269379544276, 0.030417358057546202, 0.027710627758770007, 0.05473352389455421, 10.770837626991996, 7.2048840831407714, 3.5155731831752606], [-0.10052389805360809, -1.646609321705727, 0.8447220028417322, 1.4280693561961693, 2.0640945851120005, 1.3547378944984636, 0.4151015711083895, 0.3909620770513549, -0.0469930449021337, 3.3164721039683474, 0.8468371639988158, 1.4601768001815654, 2.0736519061048604, 0.9619229453462077, 0.6338376437282948, 0.2967738016050091], [0.686832490123858, -0.09230174153618977, 0.03007915088751701, -0.0014419823606188278, 0.0349044227880721, 16.808572489225842, -8.388802632634473, -3.6707975980342566, 0.9108506725533649, 0.06975578515602118, 0.062393868504990936, -0.028337096372445334, 0.035357095357428495, -16.72711615127614, -8.336267085063048, -3.790597882474354], [-0.009457686778907496, 4.8344579678783575, 0.07939352073510075, -0.028575800589167564, -0.0990529713207132, 0.07258645424582476, -0.04605544839931376, 11.371895793063521, 0.058372176010858846, -5.303518475890921, 0.0018507146993568572, -0.0483885341088335, -0.0155380795101048, -0.01362923655825382, 0.04559791364036215, -11.64597537982377], [0.03527199906760102, -0.1481535504962311, -4.17824887324029, -0.2593210657246933, 0.003167090231366147, -0.0009541667819828286, -0.05374827386953569, -8.873790008816567, -0.1276203801847765, 0.24561403306497467, -4.058487639843316, -0.2556854948999475, -0.0064272075917013605, -0.0604840940141276, -0.01489569607147634, -8.896475085789831], [-0.09835029723847066, -0.5194439925943641, 7.858101131063957, -4.124158065237678, -2.11104669268811, -1.114874246833504, -0.5102216370762253, -0.2884200646332547, 0.02828958254247071, 0.3927183550937479, 7.941340760901531, -4.158802270329181, -2.074122707874781, -0.9721766420772516, -0.5112539365319666, -0.1451492863799026], [0.14115221151116952, -3.893500602342193, -0.07184758344762553, 0.047682631932988315, 0.0018199343136503913, -0.07814490168903214, -0.024592365258304463, 10.842682179940965, -0.006753433892570853, 4.01551015915777, 0.018738388077382654, 0.05073445649442592, 0.02584876701036053, -0.007799008383991278, -0.016089937123741977, -12.09079174101829], [-0.5121573759828913, 0.1956324928996869, -1.2499518376998846, 5.59235867471437, -4.075666971619354, -1.83087754780191, -0.6777810381643166, -0.5696285442774643, 0.4993917516945774, 0.33264473701026154, -1.157300584641581, 5.651955287552841, -4.038034093501674, -1.8092153386403098, -1.0042088800768114, -0.5741135303032775], [-0.04334439442958931, -0.0077985119054225765, -4.318381876345612, 0.05923134231693498, 0.07675432887446552, 0.008974339186366831, -0.03384447674731768, 8.800984574514054, -0.003081340897844101, 0.0773264260302624, -4.468424862422598, 0.02139056526467409, 0.048120941411199714, 0.04053590162129311, -0.046563208887509526, 8.730258452454425], [0.07378434680721316, 0.06273404785058201, -0.10311091062483703, -33.17151792966806, -16.53529545317484, -8.291285329558745, -4.1288477307109215, -2.098608678918244, -0.07097520453695072, -0.06688257141679488, -0.06794498065183918, -33.190542818416276, -16.532592725707673, -8.279847435306813, -4.174450858372868, -2.0450726772117123], [-0.0488852493808342, 0.6340173323641402, -0.7192550857038105, 0.09176245363076117, -0.0757600057113273, -0.055583318737189975, -13.128036479291, 5.361690320327066, -0.7094587876483338, -0.39904608195191277, -0.7134574346677561, 0.06718835829618669, -0.05952461270552827, -0.10121427859891595, 12.978897560358494, 5.550479370166794], [0.4186822968438716, 0.4016004934402116, -0.6234732844759031, 0.05965864877418707, 0.28037378363377063, 0.29698040001774617, -13.013342227389652, -6.219721066864494, 0.10531727817461721, -0.04607815636773321, -0.6335351299497979, 0.09631608372372978, 0.2778743308982592, 0.44737417718893546, 13.47838895701677, -6.349974947071113]], [[-4.210953522589533, -5.407011891771014, -3.5323904642389974, 1.0563134361843964, -1.380676508794074, 2.6746719398735324, 1.1889533875821496, -6.996012667446446, 2.6102641928327937, -3.9080539952885918, 31.825967296987308, 6.851256822913317, 3.8588524764491856, -6.169160916494851, 4.802284919986587, 1.497148357542483, 1.9966512006251234, -2.449816983994099, -1.7170138701097761, -7.391446102744252, 5.889376967698004, -3.962300780561329, -3.818650916618258, 3.276092473317081], [-12.586245082949757, -4.221797814016399, 6.60895339568644, 62.40495940522619, 0.010976167381712027, -2.8034493463677883, 46.13623479362539, 0.44793842549942176, 0.12161221617112752, 2.7174138579801856, -39.82272729488196, -21.376203373444262, -6.7514651261159395, 1.5081654958986663, -5.298781262458868, 1.6798884730327646, 0.08491511902138277, -0.43049423432439127, -1.8822604156633922, -5.444562876029148, 0.8906288968703315, -0.2515725790474492, -1.4001504461818683, 0.4375286881111548], [62.593508567128055, -12.596316441483081, 0.05339017818444122, 0.12428241253307763, 0.5547762445332703, 3.2204677960909933, -48.233029109449554, 11.736737822203228, -3.1036959992735853, -30.980094470727344, -25.073609717348436, 25.960466993321763, -0.2930859811166625, 9.937592289058395, -1.0056945112935278, 21.890422371300296, -17.311120595035185, 7.135585222096085, -21.847003670702613, -6.292696137225323, -18.268427384190506, -0.8634226398316092, -2.307897917446416, -0.4484789928504023], [0.9372902927469818, -21.185731552322736, -1.5206040730073573, -0.7055654452959671, -0.828705523691505, -15.753203418626386, -0.30720580049739277, 10.780425470318379, -3.367610228858047, 65.5207212613914, -0.70791023046879, 0.31387182638102984, 1.6665277486432397, 10.314444899047805, -0.012976794721825426, 10.529967030846105, -17.588775240949253, 34.51360889058458, -12.360147073419391, 0.6933025692677103, -19.409475635305107, -27.978159196397918, -0.8841650047459643, -1.9490925977207563], [-2.0190770750062157, -23.555389684967484, -3.5664670909730556, -1.165096867333862, -0.2984558699619252, -36.80642327364375, -2.4873214921893054, 21.100915312098017, 15.718224797877472, 7.995950681675497, -1.6470179768698436, 0.6876767902666174, 3.896470121867917, 13.733951332738599, -0.18452589099811106, 0.09780047442319342, -0.31326501302521087, -9.005558428839905, -1.8652242726625832, 17.855252820367163, -0.33591971075438015, 61.95996606501427, -2.2636982585484975, -0.3474825689461841], [-0.7109017647168364, 5.942516559221179, -13.754540486146405, -2.2179365490470344, -0.13575605238595023, -37.37604341871687, -0.1513839240379402, 32.634530062567535, -53.9300039117103, 8.253705388096684, -2.1671939006776535, 0.2595861653123691, 14.507217776501005, 28.93766590091454, 9.448322453179584, 3.600830858306184, -0.7907642230108511, -9.152187502064637, -5.094943578005032, -15.12994636979077, 2.324691222085832, 12.361097315131898, -6.181204944598228, 3.815421662733479], [0.9785299205120945, 2.7744719916644045, 27.157263914576525, 3.0779725355736653, 7.007741137941645, 2.380831630026706, 1.2070881567559837, 3.003828569981761, -1.7307914590546039, 0.16630435235063212, 2.904031585502334, 1.0878681662842127, -28.091090330811806, 2.8368986314006936, -33.06354555557723, -2.4836797089303047, 2.225674210238624, -0.1564457772842292, 2.9743859052517765, 1.2666991203386087, -3.8928264148767604, 0.036905836694414385, 2.4715333231480234, -2.1192851776934796], [1.412741411970033, 3.84435265548257, 8.046802101646225, 0.7533610841256628, -12.514819930195571, 1.9079732130653677, 0.5579757517765632, 3.2900631085816894, -1.3955884796946993, 0.6148967678981435, 0.25734583199199834, 0.9135191031711861, -9.2301766075504, 1.339721160204379, 2.281534103811829, -8.307733456088021, 6.9957971188429156, -1.0583642304475784, 9.435322165734643, 2.283244550654874, -13.641453377523758, -0.4736410577712285, 30.400683757644348, -30.13957087227722], [3.073973705469943, 5.040662210277968, 1.8579178415057092, 0.11684514529912685, -2.723321821447952, 3.145791636749514, 2.7274063456261266, 5.457237308054031, 0.5562432243749229, 4.883843019906161, 0.13984791672495017, -0.11247416269294065, -1.4054155407890458, -3.834723408699574, 1.4168508597792602, -23.570663444744504, -20.679119499894206, -3.132526169579076, 24.907543082340442, 2.7502264091619266, -14.7182491739585, -0.3935035125356965, -1.22960023553836, 2.1807399541389447]]], "biases": [[[-0.7950506781990104], [1.7390868664585184], [-0.3963419968823618], [-0.7606914204552299], [-2.8654467842623936], [5.80645807275671], [-79.31549270459021], [-4.59074530703294], [-51.75031882294227], [66.36637812856942], [-67.58201649108702], [-20.76613094918255], [-24.457602736387233], [-7.25357685068851], [13.22399975932247], [6.257379528177912], [8.070833162816447], [0.2848672435822464], [-6.432458239769115], [2.849490282267069], [-9.198751510611865], [65.36287148543481], [-7.083909134953278], [8.518152671772972]], [[-7.949451849643035], [-11.009115864647153], [2.881916964966791], [-19.641928850855308], [-29.175033410769032], [9.399812684742477], [6.3920928921712035], [8.170606804880725], [9.179243195936273]]]}