{"sizes": [12, 8, 1], "weights": [[[0.24482014970530822, 0.09391195558762638, -0.6831411233633156, -0.5809039738684144, -1.5618732278018712, -1.4285185389224768, -0.04516764556399328, 0.4658246687188787, 1.7611012732555897, 1.1330535153289536, 0.8292207324329234, 0.24809509325980603], [0.012096648467304396, 0.5112435842731116, 0.21990523811537452, -0.17776627518585073, 0.8362296682103416, 0.46671221914178285, 0.5297541116718087, -0.12946471015591643, -0.336862788096508, -0.48778430460817884, -0.045723969109761425, -0.17021341527505937], [-0.5331141540452818, -0.07787086011001555, 0.1675574831950158, -0.3971886298983743, -0.03607294556494548, 0.3874286477542402, -0.26495591422349807, 0.14126164826192458, 0.5475105460183346, -0.1768815490903141, -0.05190705873376216, -0.15842748406087784], [-0.9205839017514509, 0.6014506100894924, -0.23666282327296906, 0.030339142475917635, 0.12283827684606086, 0.32984926403972387, -0.027062165524739227, 0.08239652213615485, -0.28618711373561534, 0.33217066599462874, 0.3429668068632995, 0.04017326370639933], [0.006691611814396827, 0.22609113802887548, 0.5824095757078473, 0.5784780988131806, 0.89904658734159, 1.1970110416678048, 0.04511383008734238, -0.721387831707029, -0.8314198367350355, -0.7987062228193912, -0.5465249755084204, -0.4298096124866983], [-0.4543887424889444, -0.03877326291211758, 0.7045997257359118, 0.20975238991838643, 0.13854953539677967, -0.11272548370050153, 0.19838088048133182, 0.25120812380470936, -0.14049941942881325, 0.2737940180439549, 0.348835843878488, 0.23875891059077098], [-0.42562120905342415, -0.47475846781183045, -0.16868792655820894, 0.1431871834152646, 0.2627646243553188, -0.5857154978141748, -0.15988565280671638, 0.30051357553344843, 0.4526560098812684, 0.006827899471286137, 0.6847148375891612, -0.04263072213093752], [-0.4889144995543905, -0.05524630439233151, 0.21764297048816855, -0.048634937112662834, 0.24991991163407906, -0.19608935586229215, 0.1776714056914281, 0.21439144037295027, 0.3156918267580178, 0.437242507241553, 0.6015305669471527, -0.2625669908836946]], [[-3.52247434400056, 0.8779491641720065, -0.05298240124539092, -1.3462229452082932, 2.177639116832084, 0.2678827410378852, -0.6796215207091556, -0.06475048077688864]]], "biases": [[[-1.652553254140978], [-0.5118244308613908], [-1.0654904315021927], [0.4575207155068824], [0.40583074439535644], [-1.327827978627223], [0.6740619744479917], [0.17236250386991164]], [[0.14460093354086911]]]}