{"sizes": [12, 16, 7], "weights": [[[0.5295611635182516, -12.093659110264744, -6.1069024529071125, -3.422839660790629, -1.153749397938288, -0.2618591700308429, -0.016772924390905258, -11.349041398013332, -5.719090962852433, -3.060719177691692, -0.9871475658130785, -0.5423589372403896], [-0.05613559795042561, 0.05223474869390141, -0.14369788936530284, -0.38466430796420614, 6.6013445245470415, 3.9924030452790076, -0.21962951853371626, -0.1890463270486195, 0.10592368161339817, 0.3064362074198968, 6.39581766635143, 3.7492192354165157], [0.3120212033442989, 0.0889479919132395, -0.2795100017493179, 7.05172476954381, 3.301974916852234, 1.8549133615532278, 0.2760569873996129, -0.27561693829157774, 0.07317926298646134, 7.286254592880608, 3.2793212259753917, 1.870474512003793], [-0.4078255653271782, -0.2639946389638948, -0.5003225486175442, -0.06313148710618623, -6.002080799343661, 4.415614733968709, -0.4279706247215584, 0.19848171614702093, -0.1666557531293386, -0.43393695231551427, -6.767691670527782, 4.4314831868567754], [-0.2811649730646476, -0.4742321012549808, -0.5634211202979904, 0.40306260622738255, 1.386950440947123, 4.692742580178733, -0.5336092492891855, 0.2763950801619306, -0.81724379585249, -0.08529548805316782, -1.456989785741325, -7.422388163312313], [0.45387119315501934, -0.9296179113775389, -0.4288673557070147, 0.190339802399195, 0.7690918091929652, -7.552705879557702, -1.1372144466153542, -0.5064847512536598, -0.42792445087553543, 0.5650033557234367, -0.030718376323682198, -8.109527414132245], [0.15442815599163584, 0.3596560163705512, 10.421307613982748, 5.164909867590217, 2.517054300779216, 1.2961130033937045, 0.04002437204699136, -0.623857036322456, 10.436114582502864, 5.18514877786546, 2.4129871619969925, 1.2555954082405674], [0.2982204738571293, -0.09381708282915294, 0.237740574032414, -0.1043080528121681, -7.424402278797449, -4.604806793651844, 0.08589631702383131, -0.01913474732897804, 0.2357552828793625, -0.13912260151150704, -8.237377803427531, -4.965872560105087], [4.044164669198575, 3.3839756488150554, -0.1713367282099132, -4.357628601832813, -1.910907777708257, -1.1707000831331527, 3.917923056125497, 3.513446886699202, 0.032131168612651785, -4.076618859656584, -1.5015154165208016, -0.8470545278536866], [11.884373414529584, 6.029218864411524, 2.9756469496028894, 1.6105561394473549, 0.6951454949937562, 0.1840814839989208, 12.03168019025311, 6.141956976398462, 3.078722724855006, 1.5892325970117271, 0.6330522199857067, 0.6027015560706289], [-0.21479609689824714, -0.04195766037243386, 0.27840775520090755, -12.057430076303707, 6.510454977001011, 3.1827676399930196, -0.16018645533127712, 0.12241963223881251, -0.027090242805991694, -11.86682403229682, 6.467427921745866, 3.107709683735467], [0.5929379357047371, 0.42156276986416663, -0.060113834171680806, -0.06664203259700231, -1.450249845588911, -7.144820936863156, 0.5929608797543002, -0.3316202789529591, -0.8590999225083609, 0.0046562627229864715, 1.300053808643548, 5.447377067045977], [9.765024816513785, -5.744729079791286, -2.95528347400975, -1.4286515300994256, -0.5993400090884851, 0.07338606540310481, 9.554701954740416, -5.094342352953148, -2.8432334173939773, -1.3350060086490423, -0.517348457710096, -0.3970253487952709], [0.029385610946708395, 0.20856455798438248, 11.856294425167349, -6.60358237164426, -3.5822895699484407, -1.5935396360035963, -0.1120106231844791, -0.28874063046182585, 11.659651252553171, -6.741922027668364, -3.569557215469621, -1.6743784797287267], [0.4404931941167638, -12.324194128385313, 6.863979293677236, 2.988307647584691, 1.6587207790814977, 0.9341309408171389, 0.44909019675955947, -12.47181673919945, 6.837707318697022, 3.053087658159904, 1.7919001148190368, 1.0978152161151988], [0.09433025276372504, 0.4265573330148052, 0.5339765076183252, 0.7262682146685192, -7.46494921876382, 5.527079158217185, 0.27987589556144565, -0.17599475584469457, 0.4400302452655303, 0.21838021385419698, -7.244773403319583, 5.485543909298239]], [[-6.632672043764073, 1.1039071726388823, -0.8416205756230278, -3.3258057401916843, -1.5073657571164873, -1.178988115881881, 2.38732338846799, 2.9549464825717164, 2.5045760435122433, 17.612561735694694, 0.7175715116545444, -3.5564961316078305, 4.367498224057911, -3.8267346831735516, 1.2815709247549174, 0.8755342326199919], [-12.706916235481168, 2.507643398801835, 1.2858460643095415, 1.4361666215785653, 0.3035821585473934, -0.17849057897280526, 4.9535304240060345, -0.44107858556203955, 6.249295917682635, -22.82252664034481, -2.0966537304292716, 3.213218301701302, 18.55481296490957, 1.1196288724760906, -5.345712002585769, -0.7620942790756688], [21.104564972714655, 1.080406240068582, 1.1344779733801476, -3.5841054945892177, -3.0424461116681147, -3.1752343343512597, 14.29314552754066, 0.9060013023997798, 2.87901920493082, -1.8141668453326425, -3.4186321141635063, -3.043273103199657, -0.4126398324864907, 1.6899647539998328, -20.4692219744325, -0.5335268070380371], [-0.6982954709471821, 5.333801886644859, 12.01282727620986, -3.755093959584706, 0.38350240137934855, 0.3297356443691982, -20.234427384221195, 0.18645622368116907, -4.2019366898874955, 1.8599791830553531, -4.902186002240102, 0.5846149722530605, 0.2445398795187523, 20.27458673647479, -1.3951142302111885, 0.7551426482077822], [1.0567902685856512, 14.336032894926898, -15.941220735333944, -0.04248052912420139, 0.0021047348052935493, 0.06345507190948313, -0.8390908159534881, -3.3080293552575752, 2.4733854330449296, -0.19901041777370945, -18.50803358574827, 0.4041469191604607, -0.6639184161591779, 1.2372496581072403, 0.9595253149204287, -0.476300346242274], [0.7761479436426064, -11.60447995991844, 2.1892709548947296, 14.096321462560114, -3.4655118883268723, -2.0485231921315075, 0.09971687669126468, -15.945001183912586, 2.266424708677084, -0.4165934974696288, -0.6267600368792299, -4.804266987813039, -0.08457895814837686, 0.7721018526918088, 0.5465826995417691, -11.582142106214148], [-0.13122052185770827, -4.767086106345636, -0.7110177549846767, -2.813485916302185, 11.228979938739817, -15.034158704275852, 0.9849764430904552, 2.9401912777271377, 0.22187870855070213, -0.684251646022527, -0.46740232367076867, 12.314432324771634, 0.06014999293055016, 0.7421143476857843, -0.06690777857605473, -5.908193916651982]]], "biases": [[[22.613769035385126], [-11.56395791326535], [-13.40841271607165], [8.590646108499712], [-0.3796899971136749], [2.9418151203766234], [-20.03333840380049], [5.175838374152841], [-0.1573308558358287], [-23.74243621382842], [0.6949650330961376], [-3.2136837292014055], [1.0148937892896515], [1.0268802473531888], [-1.0256026952206365], [-1.3139537761606082]], [[-5.330818223173664], [2.5887868485408054], [-2.7930853683379353], [-1.7110191381091602], [7.343769498655086], [0.22492127643991588], [2.3259642610215874]]]}