{"biases": [[[-2.011335200689621], [0.3382636390960217], [2.0727098012030507], [2.5281157656990825], [5.913597506472828], [-6.090419372753572], [-0.538379048861428], [13.03934448898718]], [[8.311142499099095], [4.808682510575332], [-4.4295492505573515], [-1.3375363117718189]]], "weights": [[[-0.5074637562529144, -0.7126585540741808, 5.7263085761054935, -0.3224700093727015, -0.5096783450475811, -7.064022171419769], [-6.068206937707048, 2.8533377157304844, 1.3623429662499493, -6.302500091220946, 3.6939060005868427, 1.700318920746939], [-0.9234360746053398, -1.0872479604038672, -3.462080417136465, -0.46574224795318503, 0.6092667714912418, -4.856373357932913], [-0.513266976803986, -2.3357708566110373, 1.2134495350999979, -0.30235507514512855, -5.781876797069838, 0.5062882320103151], [-0.3256295078237695, -4.5920711804465215, -1.0233290612712174, 0.10149020058812656, -2.5874638685137623, -2.1786494122047726], [0.16548733100231508, 7.05110604189902, 3.922491068763632, -0.5992255744620839, -7.587072329033922, 4.672196794375454], [-0.8109133927168741, 0.08634019397460839, -5.79310554786305, -0.17341367774939762, -1.1186249493143885, 3.428933224495201], [-7.09000315455246, -3.4652191571072635, -1.5775514849231167, -7.001969199481974, -3.5390803076951607, -1.665198147566211]], [[-2.428325064907788, -0.668375825393044, -0.4163729920339488, -1.230477729384238, -0.3517895293359753, -1.3690524651552114, -2.650349610258319, -11.811566622225058], [-1.3948405385898657, -9.926091548833796, -3.420156862903541, -3.754243410158745, -5.499791606825389, -0.43321196248467503, -2.2839183588115843, 10.463272343600897], [0.9999650792834232, -1.5033135181885449, 1.271499018037017, -8.19705815676686, 6.438325597303779, 9.609152289967826, 0.7510341965550267, 1.4847874585700822], [9.791141542935522, -1.1644617448953338, -5.84569793654862, 0.21656948134780798, -2.449211407242232, -2.391665646432707, 8.60268233637156, 0.9379238390217669]]], "sizes": [6, 8, 4]}