{"weights": [[[-3.0509546237449743, -2.5798909861755455, -1.845481935987149, -2.298897643380301, -2.3629094759094715, -1.8393046732920875], [-7.218765141766912, -3.803012708414973, -2.1080274497960083, -7.712267530296652, -3.544233126632443, -1.646866661561893], [2.7894756807693017, -2.696961942264972, -0.5676666162817091, -2.8602092160507184, -2.3129381216293754, -2.1907279368693504], [-7.114729732648367, 4.080642672923779, 1.9024784539076285, -6.631346680108609, 3.884928057147524, 2.1181145080849757], [-0.1872273617606888, 7.187481856657147, 4.2814374040971375, -0.22828736560696095, 7.836291057939794, 3.978577990587028], [4.829860787142321, 1.3944668303637524, 1.1584089073531862, 5.106362861094443, 1.6531743040850844, 1.2603516428322077], [-0.5101392643157439, -6.444669245852228, 2.7301418694352253, -0.30998392751857157, -5.05193098020717, 3.295322869566161], [-0.711422834154981, -0.23808114585181073, 6.579690831717799, -0.2921002544769387, -0.27652657331568303, 7.249319256715154], [-0.6168245128320914, 0.028300277694096446, 6.34045016944048, -0.018414203285311185, -0.19155303754396744, 5.870402309595594], [-0.16792442839838145, -6.776856043548125, -3.2826734091470695, 0.08295656862242788, 7.167985176815169, -2.6030440821840037]], [[-2.940861166560145, -8.763485610582634, 1.5691738150352477, -3.4109358862746806, 5.55857070261363, 9.414587814392466, -3.6038250633412665, 2.8079792526733214, -1.0615607607419826, -2.149792310217939], [-6.306589220676324, 13.219876464468575, -4.955586117090673, -15.015154765802633, 7.4645682406833, -3.946658433207133, -1.4817547214257671, -0.23219950604406456, 0.6143843420835329, -1.3687173690973111], [-3.5296290097298186, 2.0469748411669952, -0.00036381427070533864, 3.4074685299546417, -14.120663655312198, 2.662962646085979, -10.404955036940759, 8.093895645787095, 2.335663417711563, 8.049491390205292], [-4.433160111597681, 0.49922113715953703, -1.839814985259005, 1.1015987399753713, -2.0913827618370653, -0.13196581488957926, 1.0798318494951278, -13.424704183433931, 11.037824957422085, -0.7818182455751524]]], "sizes": [6, 10, 4], "biases": [[[4.097759823053834], [13.794326980431235], [4.078370928829643], [0.031393991192483976], [-13.107420266513975], [-8.33893511639107], [2.1842402116854416], [-9.71001479112389], [-2.2914248249740536], [-3.1862233259317327]], [[0.2844824441442596], [2.604882406682437], [1.866140916556364], [-3.1253186967112567]]]}