{"sizes": [10, 12, 6], "weights": [[[13.182119633236974, 6.183510255910191, 3.4106678859213213, 0.39564502887366665, 1.1332272215353345, 13.238061253951384, 6.482979953615751, 3.1194448594329693, 1.3395654212721224, 1.018639344979004], [-0.49882713517528127, -0.038580201520142805, -10.943999670035536, -5.585417549874821, -2.744122676277241, -0.3767872289692458, 0.3334498054686764, -10.735470714282293, -5.410574494747751, -2.693783788194117], [0.815703805328029, 0.18508372899900447, -0.21623764695639783, -9.643503152253658, -3.2042863416012666, -0.0037390097806452678, 0.2232245115704026, -0.009631232522894906, -10.279427116587327, -5.343616651983167], [0.12951401356162806, -0.0027948095020336574, -0.10700741324539753, -4.332816148679057, 10.783203313069167, -0.013420816802201132, 0.009049134600444408, 0.2074179475722038, -4.59017547224932, -10.560632465134516], [-0.12162777461223456, 0.0294204358181567, -0.23780353142198674, -7.635856831333335, -10.592528974534595, -0.10469834711121441, 0.14566271430541142, -0.04435473782875204, -7.655846777923208, 2.8352416521311685], [-0.04783257178892645, -0.366173357111005, 0.15788617380679057, -0.010863489201439815, -9.766027609456875, -0.2347222683028888, -0.24261424312839056, 0.11075235617743634, -0.24925787956893924, 7.961131947362604], [0.3905311259939908, -15.246114672045104, 8.654868275228639, 3.798005510250378, 2.8430827673521, 0.9177085299525768, -14.872199267917143, 9.105819782000754, 4.398218489233352, 2.285124111831106], [10.699342671496971, -6.066018382725011, -2.5597771419227437, -0.9515172738544394, -1.0498139647583442, -10.995903335547169, -6.713874616549678, -3.0969342320769697, -2.21719086353758, -1.2395069041748032], [0.47014455248863435, 0.17813404247511716, -0.3217211510839636, -3.415701683478243, 1.537631596545992, 0.48725343572668683, 0.17199074099954437, 0.38568119468488354, -3.5831558547584246, -5.0541094687166], [0.7546666828726557, 1.8603886042414375, 0.17789583511119653, 0.7768514412965617, -0.3716735317333779, -3.2479681825069346, 1.8200517115340256, 0.18387406596405306, 0.32871796950521015, 0.6160994480419354], [-0.3814530021296349, -0.19489728554495248, -9.071701169471927, 4.38572503354499, 2.682262238707965, -0.1884359040000895, 0.5555869173725926, -8.920079565827177, 4.798825151025477, 2.5081683644516235], [-9.870904270363408, 1.9025794490654186, 1.3401544064858608, -0.17684119103161858, 1.5644777052733403, -3.3589301962764635, 2.019854313599053, 3.1574440614022645, 0.8906196301163446, -1.1225157743357919]], [[17.59661224021504, -5.073962578110937, 2.8508039948789383, -4.837282557757358, -3.925967255820897, 0.3563663924224907, -1.0665853583700182, -1.7064791906893961, 4.27546884847461, -0.8170763006835188, 0.8692055962568848, -3.7601781857922845], [-16.535473377395803, 0.10470664755865272, -0.09941278498885375, 0.8619434187301878, -0.9016940354187221, 2.059722762652327, 2.6465683642338784, -15.698276035318992, 6.019782827156698, 4.900666907342272, 1.2513048373101703, -16.638753087441444], [-8.451117838577902, -12.890602745964603, -2.690884903090696, -1.4286637633907386, -0.8493907349982289, 1.5726162539673998, -18.101624369931805, 9.0189428788271, 0.6490157963245995, -14.859960708389416, -1.1385229343935104, -2.084284785070301], [1.7872280160537002, 19.809826818555507, -1.4807020042725887, -8.481078255553856, -11.470032761601823, -1.225933228844981, 0.82491689159056, -0.3257127308563634, -6.442327583208108, 1.105873985590775, -17.16516052507562, 0.9054843317445559], [1.0943032687788732, 1.5826234623792168, -16.604605465069184, 14.61394720219677, 17.91154837655607, -10.638873193322059, 1.3837274079923945, -1.5388524990694639, -13.882810259372013, 2.0213281575258977, -0.5252842828695111, -0.5668597150108092], [-1.02387095104069, -0.24023138818380993, -0.5682558670481471, 22.20840658596256, -3.914094154290832, 16.139803013277753, -0.8583383959558071, -0.020180152153210618, 2.3613430619481646, -1.1749190461513952, 0.4735411793115456, 0.21354441964350024]]], "biases": [[[-25.453046464808846], [20.524566272990516], [5.724680264686185], [-2.676155143251072], [9.730819772761523], [-3.4677835472159755], [-2.4484867034698854], [12.10646837499732], [7.314719607922076], [-1.8339198322260488], [0.7765501807957481], [-0.08292980431046604]], [[-4.378325800729995], [14.504593512885865], [23.26629165920436], [7.515516898587189], [2.898669261529447], [-5.37857381993111]]]}