{"sizes": [10, 12, 6], "weights": [[[-0.0815833864565747, 0.039352575404681865, 11.06945981904411, 5.859320013635379, 2.800138100514316, -0.21290813136895792, -0.19160226392668653, 11.073041665426562, 5.5474467336330555, 2.955066795600377], [-0.13062933127294335, -15.825897111261712, 8.444264051148965, 4.038480790764227, 2.073578567137929, 0.5678355572115749, -15.888412234044502, 8.436253332502243, 4.081468654758037, 2.05481350390665], [-0.3657144633807176, -0.515378136767994, -0.44093648913084854, -8.953913572336507, -3.231595170532116, -0.8956350682156367, 0.2837145315222295, 0.35819504279328845, 8.905724138548827, -2.900965544580692], [0.10991481491758967, 0.12534763565787593, -9.512855914556681, 4.7830833582646255, 2.470494813296067, 0.20956402011652633, 0.06044739668011109, -9.446709821226307, 5.167044485189894, 2.516151064742733], [0.21878568137158033, 0.29284441457497773, 0.1420619953599149, -6.203770144945987, -2.072384094939744, 0.12357009237759167, 0.34617559510726686, 0.08607405090832113, -2.9165864409409132, -2.254807310281108], [0.06447200214419076, -0.1114439922099241, -0.0774451884354301, -1.9874137342413494, 8.051418394492016, 0.036533084806852884, -0.01535904820585372, -0.03795837501615324, -4.142013019105462, 8.04156844792501], [0.3875092934750482, 0.2092103555840292, -0.05222657705819474, -10.322237346972317, -6.759743723398222, 0.27231516081091556, 0.05473887774704314, 0.10142499368231703, 9.772566490607245, -6.564010798168412], [0.6126948109933685, 0.045726079814790654, -0.6055302877349231, -0.936177047546764, -7.872750102255986, 0.31779469354936096, 0.07345866149488225, -0.3181955726558861, -0.08899589694486044, -7.85232116628104], [-17.1200993415369, 8.800907856486658, 4.8425691819223555, 3.004442024949745, 1.5855343311757883, -17.841759775810573, 8.936352185023056, 4.83251937843758, 2.7242432165572787, 1.4160243033715016], [-0.6043744219332813, -0.13917714547221868, 0.47852149618984546, 1.0764255198958128, -0.13235872986895453, -0.8401375587428173, -0.32217472052756313, 0.5462867280031874, 3.2258764929300736, 0.05772459226283693], [0.3390454844763367, 10.33673234419844, 5.055411788281017, 3.1387231085618597, 1.4952291009197063, -0.711507100167049, 10.268202296431866, 5.012426641479542, 3.1720941409255756, 1.566638944671012], [11.840908383926257, 5.6469615012014875, 2.82259247238497, 1.5195146410648108, 1.097524750370055, 11.48947461324994, 5.840037009545579, 2.7683996173011, 1.8679560906221275, 0.8142338884775354]], [[3.518144914812254, 0.6077101988209855, 0.795136091454094, 1.293275983875113, -5.49656945862898, 1.2814817643225263, 4.910521683332968, 2.364838985739893, -3.7189599301532876, -9.74059227196723, 5.255752889149019, 16.874577024608797], [2.78501971489835, -2.489402946881528, 0.3884815486181715, -1.5659956588028332, -0.008905878318341512, 0.12886955500940028, -0.7914875980852097, -1.5817879708931961, -18.970606266566683, 2.464475152915377, 13.387237423950012, -17.70852127468021], [13.350183894929812, -20.06914303445641, -1.2094854640515604, -3.5043685264617785, -0.01767923656840958, 1.1258072827480499, -0.6767549991439648, -0.3726512830539443, -1.4791513038030581, 5.321167709400854, -18.461371067972756, 1.0638959950054636], [-18.776046709754947, -0.1441101422228784, -3.3367371840874576, -16.643130241118364, -8.951687566743942, 6.6670257702178795, 2.81836831116152, -1.1382390412300434, -1.2305911486633472, 10.807342583026033, 1.1241059273597809, 1.543060505774235], [-1.4902637258715543, -0.33418070964172986, 13.430800324856802, 0.06568193046826107, 10.352823547700101, -8.801104235630392, -20.3611823671253, -0.07498097626800057, -1.1737884319576812, 9.249846827786127, 0.10373718800553677, 1.07465740229558], [-0.3231098800287274, 0.5603431403783989, -0.29129160082723343, -0.023873383479114683, 1.8933708705747052, -17.856967810745786, 2.300622505072777, -16.542650607323633, 0.3346123423502197, -2.0095017361389216, -0.4929789428846882, 0.35078756189606014]]], "biases": [[[-20.77789557290151], [0.12220543318756179], [-3.0541842028179906], [0.4258372775276947], [7.087934817674958], [-9.709165681775724], [8.61156043473077], [3.5767395587924766], [-1.2568896919756993], [-1.7151224138225323], [-20.61539111588395], [-23.080481760907787]], [[-7.679862243509577], [11.636363806348893], [11.617287960150472], [12.347199722474777], [2.577043231447934], [6.029891783007909]]]}