{"weights": [[[-0.3950661234541847, -0.15416195859674606, -1.544036708273117, 7.451447354358022, -0.8377834977032792, -0.31651141418000406, 2.1357463616762833, -9.146443848715364], [3.749013968577152, -7.182837480347347, -2.965378406129125, -1.9084040303525738, 5.072320490341803, -8.988553438337423, -4.085221833737264, -2.447039908449297], [3.334132503314305, 4.7863380149394725, 1.6250543128413102, 0.9724560167906744, 6.407015269895683, 4.304767079730322, 1.7378969787695713, 0.6615654309517524], [-8.24858951193105, -1.877780840072595, -2.5150478282448963, -0.23030862457224696, -6.493915075946208, -3.0673386109413605, -1.9783017515871182, -1.9878397963552337], [-0.12863123022631445, 0.15583225809666335, 4.470465696732481, 11.128439262046454, 0.03832299294899039, 0.15800528255805635, -2.110211815514878, -7.068586685995084], [-6.712617060720558, -5.723288264382961, -2.4350761104931338, -1.664054039581528, -6.523182871814753, -5.862173679290521, -3.479216822727548, -0.9834126084772107], [-5.423163862008209, -0.014263754116234841, 5.390878594747701, -1.829281048465003, -5.437677833571684, -0.24704205150731323, -9.556235798077426, -2.4151340345252814], [-1.3518924317168988, -1.2534494049659775, -5.734886032055612, 2.380909662798848, -1.9172660346929908, -1.1596673435482379, -4.853967094514138, -1.358504473178751], [5.20701730878276, -0.9004303502893699, 2.5647241485331054, -2.9113184856078744, 5.560342044731884, -0.6267861712353862, 3.5075704796239933, -2.921714115039995], [-1.9907320004674065, -1.7712610725891407, -3.5464879969335668, -0.8841315390368766, -3.340156597305763, -1.6888638407243302, 3.350544898656432, -3.5220111220806243], [0.4478659702614044, 0.15689357333087983, -6.2212891886429444, -3.03003517478254, 0.4562886492103095, 0.34972474088975664, 6.98712152881002, -3.930680958760845], [6.986371850534646, 4.1004772955690365, -4.704609677330132, -1.6189159645695415, 6.743080344589256, 1.8058578971727395, -5.029163976112236, -1.6663645017870465], [-3.645395031399164, -3.4618458283882547, -0.9293018753232628, -0.4730821147292421, -4.964928722547344, -2.5985367604869194, -3.152122929039046, -1.9402725543193537], [-9.383543781975872, -4.985124798627021, -2.4098945421614237, -0.6144941906326828, -7.241611174967636, -5.279055788337366, 0.42782828620598484, -0.4101032812707131]], [[-2.0140836491409155, -3.2407840544462245, -0.9761605931796136, 0.03486961878164883, 3.534825852726733, 1.172539670663654, -2.853350071801112, 4.237235868298938, 0.2500126740561297, 0.741201874248974, -4.213660399572192, 0.046322068659641016, 0.6356168134193627, 0.8749402530179232], [2.040091971758262, -2.073254280745439, -3.23849023730842, 1.4332246260747994, -1.7610511565515743, 2.642162157753891, 0.6529580221509675, 0.9578879765680676, -3.119633213203436, -0.5682759796408972, -0.20537127782943793, -3.83448237663736, 1.369429972092988, 0.6178148215852809], [-1.5781786846350494, -0.6901941351250239, 3.8368105016002723, -4.14433465459672, 2.092110677142672, -1.7142412011965913, -5.647289577800102, -1.73984306403355, 3.6889648307539558, -2.6387486927961175, -3.245394200580208, 1.9702468535092448, -4.13215383808292, -5.461780242247278], [1.2622806946994218, 5.158746058341365, -6.211743045747426, 5.987235661055654, -5.747765026273715, 3.6918173646207766, 6.778972965063906, 1.9066305832325978, -4.138380095412916, 3.0360643730158525, 2.7600558047482364, -4.0684071429984465, 3.5440404378379884, 7.493399769223389], [0.07438560381422425, -1.7551808186566162, -3.374775853715239, 3.727814555040039, -5.396502777566697, 2.6745931186805203, 1.3664860738751692, 2.503309127800732, -2.929968361174056, 1.9352952346337353, -1.2553273500783373, -3.1351681664167588, 2.510091785730478, 5.723679252645569], [2.097472619973687, 4.367141742326397, 1.091002251752191, 5.3250469444882045, -2.520042402076328, 2.442137069373878, 4.52482711647701, 4.005585469360219, -3.561251898312617, 3.9080452460937156, 2.0781264676102262, -6.534110082362327, 3.235606924159672, 5.428886052566834], [-3.2746083135923394, -5.265697477072697, -4.248946279845713, 0.8265513369503478, -0.4258490572106073, 3.197126256545265, 1.4442846098703799, 0.21666665595967843, -1.0095015989484735, 2.8376594844124448, -3.9106750857645567, 1.6899728403337588, -0.3300974893712282, 2.3281763159667093], [1.997715131960603, 1.9843781425244305, -5.593644395490298, 4.690170055028832, -5.247510493277597, 3.2026845927386782, 3.758421061392389, 0.7853689723928033, -3.341089099646558, 2.1325508643722704, -1.1683139437355339, -4.073402395299109, 2.677871948887206, 5.457540009109101], [2.6395894316894566, 2.1347768046719566, 1.5344204128552406, -0.23716309651946751, 2.769504503920565, -1.9363899089688297, 1.2277799088475867, -0.6178057893701934, -1.9218424404213188, -4.218967863016618, -0.21014692848351307, -0.3789508847020148, -0.6342775057502036, -1.2570641585307358], [0.782774870365779, -0.25767089023835166, -3.5203109813810753, 1.2796252923803408, -2.0069838725437488, 3.4070604408617187, -0.5528056153483254, -0.5002807694109287, -2.8570008673020544, 1.1042490961220461, -0.23585941243022943, -4.904375900251857, 2.7581160103912534, -0.8587313425417921], [-1.1396682096779047, 0.4109367807484537, 3.3296075318296356, -2.3535694758592576, 2.506676384315382, -3.646670780052697, 0.6302761857282269, -1.2665024617119913, 0.23836120154739046, -1.0837149770228325, -0.5674564451926164, 2.817701096578343, -2.9461670424915627, -1.8759292646992798], [1.3286859628644367, 3.5156834927908722, -2.4297374013352546, -0.1790280407895178, -2.984370348589295, 3.048939088889156, -0.11619405516870819, 1.4737874324754925, -2.3001735174824534, 1.905973504022994, -1.2122651013934118, -2.1770291447453305, 0.7817135118459577, -1.9604792103948159], [8.370383781701532, 0.05635819986382672, 1.246582804616861, 0.800460638343363, -6.283245043651491, -0.9496764365363831, -3.437357698793799, 1.8282029580047676, 0.063375643891505, 0.3768655930067427, -6.564458070163099, -1.2414510088201391, -1.2061962722368775, -1.350376326736819], [0.24081089527960164, -1.7265671113149297, -3.9745343458129416, 2.364459061113533, -1.721466924751165, 3.965721591138648, 0.06301435907425035, 1.1939603851745733, -0.14829242274968393, 1.702073781328903, -0.7796439218850795, -2.2463880497980595, 1.4070463979862138, 2.718488239627304], [2.4891201738138986, -1.1687220331089294, 1.3376244344598622, -0.7625216314659583, -8.824714605110163, 0.9581464900743132, 2.140208058710809, -2.4938162782505753, 3.5488345385010174, -0.5432609554888073, -2.114192666214452, 1.576860659603069, 0.182944318672301, 0.351131162066979], [2.8078103766032627, -1.807863185003486, -3.6571371138468503, 0.8348240685257898, -1.7405229039823316, 4.086016352264485, 0.0013486525900228811, 0.8999000621168339, -3.3754808357263086, 0.8948859298456008, 0.6227887108674907, -5.803393960603527, 3.115358437745495, -0.6135265229725032]], [[0.05818134939195279, 0.9849911883906899, 2.857288299017102, 0.20650564702465293, -1.5790863162118485, 0.4057498964056241, 1.6197654875025096, -3.9366872856016673, 1.3399991397375333, 0.30401571716449804, 1.1294394798625818, -1.0055250956613382, -5.022171227320674, 0.031792216448336144, -1.0646852532974598, 0.48886074897111487], [-2.051627722189321, 0.7899899833086925, 1.3051652164855578, 2.207337316946283, 0.31268596671555715, -1.3350514414689436, -7.573900381811952, 1.1574095583045345, 6.404678473157213, 0.7733219133153302, 2.7568860264231914, -0.3540543230982125, -11.213791563684895, -0.6591572577011715, -2.719018681720843, 1.7912135816633323], [1.6492093973294009, -0.381753912588051, 1.5334304494575102, -1.4310280114867346, -1.7787506871481829, -8.927984259223745, -0.7113704614765423, -1.2890449299754325, -0.9668717670479783, -0.32132970571538394, 0.15889671536738637, -0.26136074565567124, 0.5226430675221323, -0.29080321883293214, -0.4851201079688254, -0.7858832898697757], [-1.4279955669255728, -0.9902313439216139, 0.7408294337668462, -1.3736212415910452, -2.647220172414709, -11.953501246394097, -1.1787541577481602, -1.650011092348953, -1.632623275314985, -0.78737482649138, -1.6296291905128732, -1.0252603360332293, -2.1333591018908984, -0.8332540059335455, -1.2080927417012013, -0.7496779485865941], [-1.978935139990914, -5.143106125225825, 0.8057744867274618, 3.3577291423799136, 2.69682439683688, 1.1740298855696707, -1.122329892934571, 3.6485122373535908, 2.0049845335579404, -6.349922370854317, 4.711799846877401, -2.8746836603477517, -1.1153227414472306, -1.8536110872773524, 1.9063716782303304, -7.117227247237119], [0.8674781665195227, -1.871207198836883, 2.771983085096763, -1.6771384807284795, -0.8047039490502234, 0.33238860419534305, 0.6299974208160072, 1.155172553361907, -0.8376282642755004, 0.9461040049069768, 1.6100705436701472, 0.10710810734321186, -12.11045269819877, 0.09179491573452474, -7.131082537524012, -0.7909127876441026], [-1.8964361181821268, -0.4832912590083759, -0.07220416926201953, 9.211845764975612, -0.6747372460518732, -1.7615582628936115, -2.5878269125554296, -5.34644537919789, -0.2413745011563122, -0.28809637075717415, -1.4593741335382246, -0.8120898688162921, -1.8244055302386182, -0.07633446022931464, 0.39357087115980854, -0.13788158056936187], [-0.5921349275214488, -0.030237615325023698, 5.162014595129573, -0.7293038807859243, -2.413409089575237, -7.654946876019679, -0.7922569003627034, -0.6744448607040449, 0.31680069526270677, -0.4772651465819131, 0.18924271336520926, -0.9164961154035735, -0.18455775499424926, -0.6942247382494345, 0.08063722415787906, -1.1423634353596406], [-1.5443129982514565, -1.1642668046197937, 7.792831986881947, -5.182942997862261, -7.121443996385522, -3.8455030483128794, -1.986441533882063, -2.757868312826192, 2.51487406487747, -0.47514699407806393, 0.4193240193011113, -1.1661063786616461, 1.192469821452064, -1.2593435856331012, 0.5300498117557936, -0.9399714879001845], [2.70230078188935, -0.9746601201399184, 0.27656874270262893, 9.82473535898037, 0.9582945390813477, -7.58674232883281, 0.03225653648381227, 1.2339591544072763, -1.519261326765761, -3.109276671165778, -0.17777139445586862, -8.806483498467815, 0.4343037048010535, 1.0420922034055649, 0.6376665453617052, -0.5369746671878556], [-4.169653720412616, -2.711650468394691, 10.27472372256895, 8.252510946050085, -6.549433498753779, -6.831986196769744, -3.2744729091904143, 7.091263818779008, 1.9852402468333927, -1.6151758833246082, 3.8412390372721505, -1.7324574648446502, 1.0994050759799752, -5.574173437858863, -0.5970612144844727, -2.5620155910637568], [0.5814907956167439, -0.8896383543712331, 1.4245447923009624, -2.439203149796839, -0.9653639691734271, -0.3842480871149693, -0.8819007007803331, -1.7909996781368622, 0.6193565085348556, 0.0023021739840341066, 1.137962203363048, -0.6032558117817841, -8.72412583128311, -0.8641510002364836, -5.956152324597472, -0.5927455677849617], [-1.6481440549714148, -2.260905194927646, 2.5308706884684717, -4.442853306704578, -1.3589468904531379, -0.35589567796073734, -3.555689955220575, -5.945497040095384, 4.041547774419919, -0.8522994577461447, 5.99351605399752, -0.9278977968379609, 0.6510709732491715, -3.9939751112280035, 1.36389080269002, -1.1283151809892398], [-1.0404861888630292, -0.33323742462850164, 7.318846918381232, -0.572695062417733, -2.9327535071437527, -10.990066750990021, -0.5326598243370219, -1.3041894264550564, 0.46605561868454753, -0.692249969402571, 0.6566518204314291, -0.2639374611729338, -0.43077660240390003, -0.7418323470824147, -0.013124894840349748, -0.5775782500097558]], [[3.290979938577394, -0.709879335875377, 1.8738238457891498, 2.435366466302755, 0.6960957330345843, 0.010939519626551665, -4.804377289158196, 1.7180849984226174, 9.054249756730465, -5.274114396777279, -4.707455123041898, 1.7620684418981238, 8.423705070060928, 2.4437125866992155], [-2.416613939000716, 0.2213270318376362, 3.4537219074094603, 6.0894079862262895, 14.295426750614682, -0.1320723565617839, 4.920321400394903, 7.242075165236202, -10.26611065268365, 3.3883117393717295, 5.9199516810040205, -1.3164701862290167, -6.264606983816949, 9.480877589050921], [6.627801336632507, -4.714929640547811, 7.021138689548624, -8.471229736824018, -15.600952839193324, 0.1416676971322976, 1.7220030138875764, -5.590131101558583, 4.39410393987534, 13.493343980779624, 16.438092324853343, 3.775028975812914, 5.153204892415483, -14.099930523510098], [10.432826946020608, 20.48093861268798, 0.9723937759218698, -5.415386819988812, -4.063592489145383, -10.371637366040432, 11.59923271207731, -0.8020812472123229, 13.960292189670385, 5.745567896817073, -8.025547707460035, -11.376807922557225, -7.908742828945845, -3.877368443211636], [-4.060132410309578, -1.898595753919791, -0.7343866563455768, 0.2518227687411971, 2.620029165690166, -21.27396115497832, 0.05747923039218224, -0.7118323858572982, -1.5175683120940664, -0.29058905641671867, -0.1331926091080233, -5.940565079864174, 2.093572919600457, -0.13736831605884578]]], "sizes": [8, 14, 16, 14, 5], "biases": [[[-4.31886878403491], [7.887290968755647], [-12.50334024062294], [12.676023774032336], [2.090681944432347], [9.182209513675597], [8.893382224006377], [4.123537150561183], [-6.540227432363237], [3.5717711613904655], [-1.4497900283136271], [-3.693072099241677], [8.185536530798556], [15.437024255190058]], [[0.7530882481337624], [-1.590416260106076], [-4.8846502895275155], [-1.5322482978919536], [-2.5994268933849414], [5.843037365461173], [-2.865918942792111], [-2.8256445739005005], [1.3527932538659904], [-2.6713146319054597], [3.4468720134225617], [-3.303889659772981], [5.256614873876736], [-3.479497394568227], [2.3806145494407596], [-2.4366260365494568]], [[0.9887653814175412], [2.5006589272008353], [-0.26641652030854956], [-1.1239822962311308], [0.7058585699882515], [2.9010703336475894], [0.21462169402872128], [0.3739144110617454], [1.8990278117654658], [0.26501716643320605], [-1.4586264278846728], [0.12092298289428059], [6.28427310285628], [0.7357401032230462]], [[-6.891540065555249], [-10.05837043348016], [-4.68657941267801], [-10.513059776347307], [9.145056020953541]]]}