{"cost": "CrossEntropyCost", "weights": [[[-1.6711050136268415, 0.03128286653584173, -1.191010179269675, -6.265853406029262, -3.9247430693850722, -1.4160321621013072], [-0.7823269206877173, -0.9934741193786658, 0.07677645527935185, -6.768988353000162, -0.6616308016380089, -0.290643577940581], [-0.00017191781529249077, -1.7381792202140365, 6.339629392546371, -0.28517152119362155, -1.724329165541824, -9.089747071513228], [-1.020371879484181, -1.3851997149686246, -1.7616145949743724, -1.790665023534696, -1.1908677774452352, 0.8291005076835785], [-2.9425775407597916, -2.2560866416664673, -2.7775298382907625, -1.2764965372930452, -0.8617336409291695, 0.9828689739557482], [-0.24692213117965858, -0.17500875250070463, -6.622758379638388, -0.37652837362401537, -0.29954310723265004, 4.757310100431112], [2.274211823818006, 5.042429050065805, 1.9178202964700792, 3.222556802073368, 5.044948882868136, 1.8002118080340224], [3.181546265189222, 2.736890814037249, 0.9603054353453075, 2.6892345465413015, 2.8046043187120593, -0.5655770041375998], [6.732474693417517, 1.7141643800406683, 1.4066451793016184, 1.5138017325950117, 0.9862388058735655, 1.5895471843400113], [-0.4561425685712042, -0.00412267536367025, 0.06342872661217626, -1.1902002567730547, -0.4865810594042384, -0.29373404683654897], [2.7191549857504604, -4.0052314424974895, -1.5752379027896832, 3.6705988882688065, -3.9497202631215234, -1.331498664418444], [0.4639303295201581, -0.046085899600235215, 0.04410316519918057, -0.44298806534812785, -0.32618856026949244, 0.24769094188766794], [0.01832949803857183, -0.8030719798279724, -3.5441591977095497, 1.2437379274894718, -0.6020215393707806, -3.498759886644664], [4.407116304502957, 0.8726868148825659, 0.3199422289965761, 0.3165801327442505, 0.8640113706689069, -0.005665593487797779]], [[-1.0839383770039315, -1.2329798580260782, -2.530132427981234, -0.19944627297997786, -0.882291615939466, -1.97637337316413, 1.2774785344471653, 1.1193863539445363, 0.6275867906883724, 0.06577906980528889, 0.9591573835817729, 0.10907595485625357, -0.3971303476306163, 0.42444761052062935], [0.7841883469857405, 0.5573634625316044, 3.329493630602334, 1.035483495526465, 0.8973251010311042, 1.3998158935325444, -2.923422375805439, -0.8885628871107512, -1.8303339341162892, -0.4914153936564265, -0.6552604942843527, 0.21224746154756424, -0.6595846705277524, -0.8748827529535326], [2.789100807205963, 7.5228006670673055, 4.627448994426595, 1.6283770388864947, 1.31454180149133, 2.4252997847906217, -1.8854517906228108, -5.008412674141001, -0.7535882421409124, 1.3022595720273589, 4.412837163781635, 0.27391757461412714, 2.981481130200205, -0.40152934434755866], [1.6050073904131779, 4.111127479834166, 3.1568886322436933, 1.2073140778834774, 1.0519365943725454, 1.0811082767123297, -0.39900848248546383, -4.230624409419185, -2.30974848827701, 0.49487081757050905, -1.4949799847400411, 0.27547402955370554, 1.6422104032958682, -2.751984346766297], [3.3411125580463943, 3.4680036234320077, 2.9047519455897026, 1.0968570233248034, 1.6201754106325006, 1.1797981925047865, -1.3104581098124708, -3.1201641685266726, -2.9491277201543733, 0.23301852171475002, -0.06266819225222063, 0.16162932497028576, 0.7612798452589742, -2.302464512406966], [-4.237230677115955, -3.639916163833329, -3.273962441796571, -1.0299094183462225, -1.6280241972824852, -1.5058195363286535, 2.798945049633493, 3.253427440613383, 4.501939351353237, -0.6601731789198242, -0.026567365161402273, -0.04383941533976329, -1.1549331586819962, 1.787999395712962], [-2.179802382575695, -1.9311743339854135, -1.4182778034966037, -1.206725909765678, -0.745814202361497, -1.3567866153015342, 2.946207746779009, 1.6985668014198334, 2.260568832989161, -0.022505067244984574, -0.6123142170978757, 0.07688100063311261, -0.3074474799515874, 0.7780894942234509], [1.5328455487420622, 2.0251228660868366, 1.8298862981149888, 1.056732834510854, 1.2414441811407972, 0.9474211818452223, -2.248783165083798, -1.7084800626334897, -2.456681667158685, 0.4101807028366412, -2.449151511921462, -0.15997309062682816, -0.7860623100559451, -1.945780577916866], [-0.682125863128805, 1.5955020037859904, -4.670968718107595, -0.42089059994673667, -0.20333065715492685, -4.7922374353541555, 0.09918507744800943, -2.698710567365315, -0.2510131132808621, 0.4754291993247822, 4.181889613692616, 0.3679541354383388, 3.2094810001562393, -0.3852800671486675], [1.0471087994636938, 1.4631935122340998, 0.2189081662477371, 0.30376174751495355, 0.252631516467851, 0.2620990243685841, -1.6094219942651626, -1.7868103901542902, -1.2952146083400422, -0.05577313131012906, -0.6837699135845831, 0.19193203326064479, 0.3009292508775427, -0.9500754738205954], [-1.9057851198462492, 0.0640207892032872, -0.9210525212624046, -0.5102158185742312, -0.019210661290711313, -1.0062429230739764, 3.7787646488574747, 1.1206964131887416, 2.362848036937342, -0.14350667437652234, -1.7778124090174656, 0.18858202224089976, -2.0623415428775016, 0.5460760474482788], [-0.8390780290730405, -1.1215184045683373, -2.1193407777432562, -0.5187784781786154, -1.0598378627437264, -1.9598272115042135, 0.14110811303576976, 1.2235010771115116, 1.146700001629423, -0.4020342008718197, -0.12035375373380396, -0.341760251146274, -0.042676352654039705, 0.9176073631074129], [-3.317922678543154, -1.8723363297945106, -1.15414664054208, -0.3331575273989207, -0.4012685721572547, -0.3701637968437199, 2.0123833744751964, 1.2719283506160726, 3.5606021859418964, -0.9304463039840153, 0.847533691938084, 0.3937928199380976, -0.4074249811063312, 1.274285921154206], [-1.304032323492984, -0.7728780570629311, -1.1123141283454554, -0.4726460324198477, -0.8962778948924498, -0.903476772071822, 0.7959693982645804, 0.9264393878866009, 1.5716707964057945, -0.1794053771128032, 0.59405724044172, 0.7153102158734626, -0.5001695319028884, 1.083461047499042], [-1.181210848838297, -0.2103327154826602, 5.291568171079929, -0.03250278731854048, 0.5794830024463768, 5.138797883763816, -2.886164877727934, -0.41416398648763225, 0.7851259337689823, -0.8278614966931245, -1.0159702422919497, -0.29426878554334646, -1.2056565331413056, 0.03096607840837053], [-0.8299203845080048, -2.1850894201959523, -3.314904359655101, -1.4761793288377738, -2.2116352038853506, -0.8316898410160573, 3.4778058258579088, 2.5899762875224646, 2.537727913806056, -0.24356670947201267, 3.840048326598384, 0.07486217739750035, 1.0309826776170508, 1.9739743757618184]], [[1.7790466293574088, -0.9870263227550663, -10.097053294009857, -4.5830026340495715, -3.033817868052816, 2.058164371122724, 1.1310644847982751, -0.8252549706079858, -1.6665183165163433, -1.3217766467190708, -0.22301293528861063, 1.3427734592872003, 0.5890253347067496, 1.6333963159671603, -0.8126477458942889, 0.5244543040740722], [2.732670577014667, -1.1041524359831432, -5.335862760471869, -4.254183121422799, -4.882860391701794, 5.655798922584228, 2.776351810248983, -0.18777107344261545, -2.879108130005666, -1.8748504911113733, 1.5994541579287547, 2.40558954314416, 1.5044146261577653, 2.078463617349596, -1.1930881001469664, 1.5453606095459334], [-2.9077364015795086, 4.767231171026608, 1.3270377471021113, 1.9473894276038468, 2.029344760086952, -1.316202049649996, -4.295365841885201, 2.666273417046929, 0.28674401943756006, 2.7774734925405484, -1.4704989775030688, -1.2620906557867673, -2.7820089890471076, -1.2079025390158675, 3.2076042238575804, -1.810785484253791], [0.15392126398824635, 0.3480465216117419, 2.2273613273217907, -2.0929217202052346, -0.1523195362604654, -0.3098265241905791, 0.41685739814821204, 0.2542398233176637, -7.902510086445016, -1.0006496490608394, 1.9527879453045442, 0.3915981544441525, 0.5065065000468694, 0.49196586692755506, 2.5307912230578515, 0.34659001518478283], [-2.8906664709188017, 2.32894827861381, 2.7700538013294875, 1.08122469548751, 3.0861522785593727, -7.1406367842989855, -4.6638904738595715, 1.6908782506717732, 0.1743498835683636, 1.0108868525771955, -3.08756114817178, -1.2859359121138876, -3.0601834353492645, -1.180050719561159, 0.6297083863460613, -4.010079360191945], [-0.5781234986677906, 2.6203926774188875, 0.3547626620183351, -0.09690417515150292, 0.27384397586249, -0.8515547508084527, -1.0447019859907407, 0.7200482758129824, 0.48876950074098097, 0.9187016824496748, -6.326937054574795, -0.5142390606011237, -3.4270166959004817, -1.1650345585727409, 1.9867667689378772, 0.5402950196726874], [-0.6845889005479188, 0.6344583909346418, 1.6453222467350601, 0.4335384538040526, 3.665657785314416, -2.5297705534818755, 0.6964139758385695, -1.9544193677473736, -4.761238591656186, -1.0107457518420675, 2.5573445070964604, -0.7781386729549012, 0.5721751070708738, -1.055602506783106, 4.1961874727435795, 1.7524747945451873], [0.4998793485921715, -0.606340383650032, -1.0116830599691562, -0.6126239994354462, -0.4617774841897916, -0.7388043826920287, -0.7413180680140825, -0.37948075862290875, -0.37574864896448895, -0.4101927874492533, -0.6298003401297101, -0.09202647611895999, -0.5456887984519888, 0.04488041115051978, -0.46898507100073106, 0.5478039906683412], [1.0432597491764986, -0.5637719957304184, 5.032599813025952, -7.128922615996505, -4.675518097563347, 1.3860053987262042, 0.02137900995795236, -0.1483408180762109, -3.847097974825566, -1.3751376789647949, -0.4819923399233441, 1.490343033236743, 0.0020727191677098007, 1.3035649177247155, -2.42145456866307, -0.7629459029464861], [1.6515144553432128, -1.1812304242404128, 0.4910273090782505, -1.4876753944851866, 1.3054413591645373, -2.0639933546171854, -0.40209592049036946, 0.24412496122316663, 0.9280582350195361, -0.00398169811476334, 0.6084348637375342, 2.273649063876102, -0.7618517134773597, 0.23570204302808123, -5.704744799451561, 0.14528134841559232], [-2.751372738837478, 4.293484256268601, -0.9795019397634681, 0.5102874558033835, 1.2842646964879538, -1.3971676647278646, -2.499532553243989, 5.909196299313815, -0.13408853901974516, 1.8672852599013177, -2.6912060573326926, -0.8712285451472026, -4.558269237750113, -1.202383003444615, 2.0508011974525164, -7.685675256944706], [2.6078191562907183, -1.147298658975702, -0.5767047586097995, -2.1238706894645363, -2.204523643073361, 4.006725037743703, 3.334014123802987, -0.7434456855354262, -1.5199735683692883, -2.2821467070280317, 2.0182288970680617, 1.8823849348765433, 2.2122162931002793, 1.9593286393865972, -1.2670734408878541, 1.355559354766493], [1.6422410822486715, -0.8497037135433009, -0.5589213784435481, -0.7063262642356222, 1.9857438408877204, -1.660055808622309, 0.34040534940415024, -0.3119945365203771, 1.974711027791768, 0.7700958363782207, 0.8145629796600987, 1.667033626283875, 0.3299746879173718, 0.40001148997053887, -4.170468884882225, 1.0259867816494228], [-0.8678935893580935, 1.3855018847709095, 0.7242032628261388, 0.2287850175408426, 0.8415682675950609, -0.6132444783560036, -1.3531193222021498, 2.659463776991004, 1.7343115977713173, 1.876251183611496, -3.0344576286671163, -0.38694357141665103, -4.599535856851829, -0.918949871335583, -0.8829508308024631, -1.2531385244854176]], [[3.8931706510082873, 14.63949349571238, -2.7671086460621477, 1.1563938207128215, -8.79337995384962, -0.923388951770669, -5.304789287830583, 0.28282769601965513, 3.434447751918351, -1.3884831675598217, -1.6526230128446096, -0.12190287882766951, -1.8526572985826506, -0.6635013911980028], [16.5038664487869, -14.680671451602311, 0.569253457406508, -1.1300785374735862, 5.227549102690647, -2.2054611944935036, 6.318862180808285, 1.2281698689018563, -0.3138686881792891, 2.309133986402327, -16.406938719289432, 0.3451118185815327, 3.44148474585953, -4.91237638197813], [-8.185254075717332, -16.604287239096536, -8.309048852645626, 9.082512545024935, 8.251839559535222, -11.221692454867524, -1.3145612569729486, 0.1214815816480291, 15.769440626658383, 6.165966349971855, 10.291800809159692, 5.169861876196907, 3.5213336471899828, -6.161208496190754], [-0.1040889690199229, 2.8064037683393037, 5.909961367057147, 6.44261252966961, -3.8987683205751433, -1.9182358728183324, 10.007958825968677, -0.5961417836728528, -0.24202248454428554, -7.243047150495036, 5.602906806827123, -2.6709632654808586, -6.160746907562318, -6.1288083653901015]]], "sizes": [6, 14, 16, 14, 4], "biases": [[[5.589759013097618], [6.098307900496299], [-0.2878712296591703], [1.4115733676144955], [1.3641221473879368], [-1.0937247155097158], [-4.968810791709075], [-8.388817681710416], [-6.35130232825954], [-0.1304051303328727], [1.6660324100387738], [-2.6373266401469464], [1.2899137026653305], [-3.344981541414133]], [[-1.4472685488300083], [-1.8204014242722668], [-0.38652149916980355], [3.1314483373663173], [0.37001342845934126], [-1.473714860452794], [0.5037464948202], [-1.3991285319403444], [1.0534495346303343], [0.45211160064222605], [2.770123691252184], [-2.14176442373502], [1.296477133997959], [-0.9345685384236508], [-0.5820689272084782], [0.66381252181265]], [[-1.1722511514066576], [1.9594475649867258], [0.07600706332114635], [0.6770252388920118], [-1.9747611562506007], [-1.7859008695795915], [-3.167162053164231], [2.134932540410149], [-0.9661701158416253], [1.576791399343629], [-0.2518611255343224], [0.7088184854448597], [-0.6374283812452635], [1.1894367160817678]], [[-2.3228771069100893], [0.4829932148071002], [-4.413481218982893], [-2.2323741197838998]]]}