{"weights": [[[-2.75029200344608, -1.1823564557247503, -3.6335609388675465, -2.988325651470277, -2.0845711064311963, 2.5840041137100966], [3.74315867192722, 3.6566660076107556, -4.201799182729592, 3.8961780321135695, 2.1657354928697443, 2.7973591072071677], [1.7427749754976676, 3.0557993259882235, -0.16775369015302524, 1.7006209854045944, 1.4856344499661327, 1.38443696575727], [-0.25047526990424784, 0.7673439021269446, -0.8084197006579303, -0.6118702345993965, 1.0725083625995897, 2.061962615712344], [-0.9240395059847591, 3.6536157725004657, 3.1925345523158444, -1.3823391840363148, 5.091540455762905, 2.9084174514574075], [-3.1486350017355695, -1.3365057731593344, 5.665645800609728, -3.9843725771440583, -0.20760633916459773, -6.835362648701529], [4.7732546791555075, -2.3291580573544226, 0.017925818157045886, 4.7912037518565365, -2.1013408732534726, -3.2838708997309607], [3.3407426293603883, 0.14043371629526777, 1.2279283506970295, 2.3746164071108993, 1.3066083044296914, 1.380104293933316], [-3.9308011504771807, -1.1049914239577805, -1.7532946549157675, -3.934460504139869, -2.0185647798443163, 0.3912750042629161], [2.7480506412404684, 2.48338505066796, 6.624566321864884, 2.441150660730511, 2.0969843463093376, -3.6712519006316957], [-3.16252477898229, -2.8857366028519325, -1.019817789766203, -3.198836824748049, -2.8689709776431553, -1.7365991150165336], [-2.156585408358072, 1.4814208953611072, -1.049331065023997, -2.392647209277809, 2.1501064045561455, 2.59402203505352], [-3.5242057797554547, 1.1766795829610084, 0.2514688740710885, -2.3514272406794388, 0.9420045006378568, 0.7174144040072372], [1.3818920904067358, -1.1291645068554914, -0.7335217462582238, 1.184195079079586, -1.0048231867513475, 0.8385051209750648]], [[0.4531072704697964, -0.8758249830315125, -1.2163321607088349, -0.06429954415885454, -1.4089293986367575, 0.6589402131135538, -0.013630762019973836, -0.4178714681921916, 2.0898682533634254, -1.3243912240984261, 1.5503358220149792, 0.42005779110338604, 0.12182522348620717, 0.31602310893665814], [0.8449556933278319, 0.2376801787051556, -0.6011202239015552, 1.3526471625366387, -0.4479245257700515, 0.07038716831347755, -4.4613982522089595, -1.4274106057836125, 1.4471685835754038, 0.5375054201020147, 2.5790806257381167, 2.7668868146123953, 1.7194315425373852, -0.21030294840143685], [-0.6318503723841363, 2.7093742476510587, 1.1857797706539357, 1.9430850007820206, 2.880162984931061, -1.5847181667628742, 3.320830605610999, 3.572753083183002, -2.418900450412579, 0.48618354558505694, -0.2922325505418605, 1.9577739271578598, -1.61809553956467, 0.7398383803368577], [1.192957854377708, 2.1539241720683906, 2.292687389729032, 0.39398165221374587, 2.41382643244714, -3.3475224402513115, 0.13892357383922538, -0.025804846613206825, -2.2730271383734593, 1.4402255068807397, -2.1624722270017545, 0.7128056636141527, 0.09158032448590117, -0.2156368447178036], [1.2192758899541976, -1.2409427951436809, -1.7734054967517494, -0.0008454715229724592, -0.78903578606011, 2.3848048387149343, -2.3307496048119662, -1.11844243143138, 1.9487525236336956, -0.9262822424960444, 5.346182860186474, 1.1535493490875006, 1.1714913196348042, 0.43702590076488196], [1.8392869796579672, 0.04610218543746825, -0.7963840464754817, 1.5308323993984585, -1.8329616663271926, 2.858207568557834, -2.5122300783191376, -0.574977890367194, 1.6079113761027088, -2.1728374317364225, 4.686637234815647, 2.2437396016790476, 1.8198473612363468, 0.8533799905809191], [-2.8588969535293467, 3.3785232299776196, 0.5845669952826987, 0.17956543627064342, 1.0354120474424127, -3.742672128568931, 1.2009039593846311, 0.63557756559563, -2.5907703988932687, 2.392151419503918, -0.9535538661189328, -0.2031784996243003, 0.1948701371553356, 0.026960078629003334], [-2.584407809440435, -1.6204173158736475, -2.3156828202105872, -0.41510880623320595, -4.147062967648652, 2.360194685560253, 0.8959640231905162, 1.280453502319161, 0.44412126716787914, 2.727417580027826, 3.340827738420223, -0.5157469354414265, -0.9928601626721792, 0.2651070306139213], [-1.8871359466992947, 0.37926347907178387, 2.185674494366065, 0.35870327113933465, 2.1208926339548513, -0.6483578479053591, 2.0905568660848197, 2.6634886033449825, -3.8229190109013858, 4.229627979155005, -3.3329154001573063, -0.3538481118024823, -1.6634705340804254, 0.7390122142656295], [-1.9539324493835786, 3.580263394776041, 1.4908542035818169, 0.34032671329253567, 1.4339844677081806, -3.6578785677105885, 1.305246850100368, 1.1089026343866337, -2.799462238743947, 2.4785545819416774, -1.3254391392525517, 0.26370974070954284, 0.15248462551882885, -1.0056136004046898], [0.19018520732194022, -0.8138155130240322, -0.8758940514784183, -0.36113182625851353, -2.1745449881343295, 0.6384366080013839, -0.7679332348396259, -0.44677271642296407, 1.2723557744085923, -0.5081586055427232, 1.7368568626750167, 0.3214809802143403, 0.4261400338481969, 0.4671567054928369], [-3.1359810086317434, 2.7019404460865784, -1.3153767973125878, -0.1255346014400579, 0.36918787581386997, -6.546003477575842, -0.884021780052879, -0.4245442692979958, -1.2660068214399105, 5.4052388424693945, 0.8045779176422947, -0.26796552570495136, -0.606059740770261, 0.29970110540537753], [0.9568171735103514, -0.44835336664125797, -1.4605959573428333, 0.5112069415813241, -3.545820552412814, 1.2188324103113584, -0.21404479125546008, 0.47166878409312335, 1.5781071736471266, -1.977813040476377, 3.6993404691469216, 0.39800314490784644, 0.6962435391559839, 1.3238109537134766], [-2.0143781630475694, 1.8189629847646573, 0.6556296840854107, -0.09826011389921784, -1.2390435606666717, -2.0454304145366957, 2.9423267089751417, 2.6446438900846188, -0.9340797080308745, 5.815636891482535, 0.6103320367874326, -1.3313027846980274, -1.2361146936497742, 1.6075185437335728], [-1.0960716434083315, 1.7808358394134727, 0.6015518161374489, -0.18787125831410265, -0.29073261999565814, -1.3481886882395053, 2.6339457832197706, 0.9663714526924592, -1.1693889514339666, 0.30191668522317294, -0.47584065978889695, -0.8904682271570254, -0.8780169838367902, 0.6394851467082683], [1.7616594775374401, -1.3334753699168078, 0.3901896126293001, 0.21692733950201556, -0.09361396064833159, 2.435165166884074, 0.15211869089673377, -0.3546866751894833, 1.950184990148364, -0.929344230399678, 0.9846408086738013, -0.12194534782060999, 0.28878575957111186, 0.07787473488133952]], [[-0.5354688195225409, -2.4065069909585506, -6.040669978667256, 3.8478161136812554, -0.20494484314691933, 0.8442882537938634, -1.2654827519538165, -2.4290577360189554, 4.092272165119688, 0.2246502589073517, 0.2974213340931037, -8.109759752646172, 0.4847762684921192, 6.097570422323581, -1.9939510974707924, 2.734888486883207], [-2.239954023492616, -1.124365384225266, 1.8719464058509991, 3.0070016829727955, -2.051410858780969, -2.5245177661215497, 5.31684083529038, 0.23236745054428698, 1.6985773569955154, 5.151419113397019, -1.109419942293292, 3.1260313237086286, -0.8823821696278407, 3.311540123745299, 1.0642155779957594, -1.8196165990909174], [-0.8857716230976866, -0.3017696412401911, 1.079562651743025, 4.424319718572221, -1.2623913809412866, -0.6173082413066785, 4.439137558860729, -2.556889352782115, 5.213163901221194, 4.973484544368936, -0.7128665195075181, 1.8471659867898957, -1.0721782411353211, 0.8666042651895403, 0.6313800540706603, -0.7586135367760931], [1.6099278433984854, 0.1383095223359132, -1.176368649158752, -2.537085883708952, -1.0473126089413434, -1.1017816175908113, -1.8962835892527978, 3.647830289935081, -5.191945692716733, -2.2361699334790646, -0.506878493159093, -0.8450232364449705, -0.22041418528443205, 2.4430997552984914, 0.12731085074201748, 0.44271726184553845], [1.2419857085584727, -0.11482063235406571, -2.870068019236604, -2.925343100442003, -0.009648443445432076, -0.2991439759878906, -1.8454235730562218, 3.8143602162682777, -4.432420849218837, -2.568901218864042, -0.4228349270497162, -1.4738629768962652, -0.12270957931114233, -1.881988081022526, -0.392814499580426, 1.1464501725578276], [1.6191857880854992, 2.631806322918848, -7.05123218812775, -0.7460146126960894, 1.7806896375026202, 1.6935226628703859, -1.7630211212179805, -2.60742314173133, -3.389210404555094, -1.5326727377642617, 0.47052243630453744, -1.0410467903146823, 1.2238364470855476, -7.871292087461486, -1.316507901064337, 1.6283345277409624], [-0.9118734572782445, -5.939125402575657, -0.32893565764132465, 0.6733507168605555, -4.239513373693057, -6.326589399128186, 0.7783547814230664, -2.10011680167722, 0.18784355488867752, 0.7925510066396023, -1.8200018945828753, 3.3623607903496704, -4.402806604879203, 0.04566237507173524, 1.8777435378024385, -0.12145825201862921], [-1.6828218704267688, -2.456259968578725, 0.28226397414679716, 2.7539804151954104, -2.0632470537663314, -1.1589950072043051, 3.63854209864291, -2.685160473767398, 4.499815265137821, 3.262070971365889, -1.963595897670336, 1.8703693524055238, -2.5026100330464627, 0.3761211555014819, 2.063217856494998, -1.939068920135417], [0.9810994442466919, 2.640291672936545, -1.6591314715642758, -1.9511745091271377, 7.022056777472708, 4.1439084775717685, -1.6001641044575579, 0.6066331855167724, -1.2773788156250696, -1.5232071525451125, 1.3883639939071166, -1.1633213486293517, 2.2569854208429927, -1.0955092929070502, -2.6116728601650756, 0.8782822696474104], [0.7514932743014241, 0.9361168156291589, 1.3688596287713297, 1.3107863848707737, 3.80454343503706, 3.7561849827966065, -0.4450134732024538, 0.5696648957600234, -0.19964425396172164, -2.16479951148456, 1.5580566416989294, -1.995516619404688, 4.5937783707002255, 1.5281115241252645, 1.210529720574091, 0.47951335240249676], [-0.3031976585755939, 0.3705988932523948, -0.5103982965144302, -0.642684737194687, -2.176294265930468, -1.7961879796587932, 0.7806107106487339, -0.27441565486374525, 0.5236038957949447, 0.18843270707416637, -1.1041483882368726, 4.8639914535263555, -1.4907847210554857, -0.34101439612349105, 0.8131438362272797, -1.2534854717487174], [0.8533863024700342, 0.26242518365035544, 0.7913230248657886, 0.42922604719787916, 2.6445110677922616, 3.1205557117339953, 0.08704631433785404, 0.6350370222639156, -0.18482216289443384, -0.8993450261085505, 1.1242508870566064, -1.118940087878727, 3.076203990630749, 1.5861375969730742, 1.381530980116321, 0.26194826513950376], [-1.0396884874057064, -1.6173890523817038, 0.04076062854413399, 0.40873532011362035, -3.8145681377233096, -5.150277027790992, 0.4161035812209951, -2.535672437802182, 0.210106884174135, 0.17210362621679914, -2.239716439533105, 3.4405383930868116, -4.4430454883430075, 0.705021587533503, 1.9618027777647864, -0.24374813936437356], [1.5253079982775977, 1.7793632483853563, -1.2768233881720341, -1.473344104466629, 2.3464828230838264, 2.4523956129957525, -2.1191139614275394, 0.8517056401459943, -1.651092313153286, -2.0102278358598187, 1.0249934445101534, -2.3768743621059136, 1.3180803007374253, -1.4385792893114793, -1.7028102468531208, 1.1552135213863588]], [[1.4767553449355961, 3.2836127482921214, 6.026149404217504, -1.6018256087277407, -2.325672745562843, -1.6607905354248345, 1.5970328280392254, 10.155395744392631, -3.4801687966877135, -5.272514665205134, 2.436387303508553, -3.996274721596835, 0.45522356969894795, -6.545864010325533], [-0.8822974354459328, 1.3424801313431598, -4.227502675797566, -2.1068293995679923, -6.450209270967893, -16.26224829590906, 9.54538323248337, -12.373506262170824, -0.6704180227963721, 6.078804494327797, 1.0386250800658359, 3.941416561137804, 11.585950525104227, 4.338910359698693], [-1.2288736911888483, 10.005923326769702, -1.589714260475589, -9.446446451839588, -8.650091527937153, 11.431021475197094, -12.764293988991799, -14.228204736542537, -14.556650076824015, 7.654550465462494, 3.1644356355754217, 4.222738530690809, -4.150594495755125, 1.633324020411609], [18.19988806186591, -10.21440225659162, 4.539804181879922, -5.855671113731509, -4.1651656466772735, 0.550546043573594, 1.5421058832635486, 2.107544281895794, -4.277611758497853, -0.8506056099613541, -7.787371586349671, -0.6655580039777164, 0.7926896090502521, 1.5738156012963895]]], "biases": [[[2.24095966087263], [-2.436917678450273], [-4.861628679742507], [-0.5132983320629092], [-3.76882319507713], [3.569931397565963], [-3.069733918185621], [-3.240942713235288], [5.951629890756234], [-4.75761841571942], [9.59963821344809], [-0.23063745794312707], [1.6865173829029245], [-1.1891990090664404]], [[-0.37664802152729754], [1.295348294657984], [1.2623325983355316], [-0.26854462913748484], [1.9968882141842572], [1.7544957124903195], [-1.5753278724875506], [0.13508632455669908], [-0.7278704415060354], [-1.6640583383383782], [2.8361919807778984], [-2.2131946636898556], [2.9963416693405684], [1.6068138394897309], [-1.1068762842818485], [-0.6770625396179588]], [[0.3439977765220154], [-0.12254168302672275], [1.256033770696619], [0.31639189078514773], [-2.222054511102047], [1.4071895855915597], [-1.4555936723582992], [-0.42057358766772035], [0.025036247837175188], [4.305401954785529], [-1.220031460933847], [2.986591536105449], [-0.513123983719002], [0.10288881136362624]], [[1.1243982976398565], [-2.4919871398674296], [1.2624376581127972], [-0.026495528483502565]]], "sizes": [6, 14, 16, 14, 4]}