{"weights": [[[-6.9919152291741575, -3.633033176537145, -1.626757906080447, -7.037019698234872, -3.8588809419828975, -1.9463197444364253], [0.5509688916887546, 0.32771170846533315, 6.830437429819558, 0.6855020178126797, 0.5786144110337885, -5.580407954964432], [-4.543738924174046, -2.2621308725483518, -1.3867464395150568, -4.380052113005508, -1.0252653844662287, -0.5610958318867652], [-0.393479024662217, -5.020884687321919, -2.6456537632462402, 0.23777330571576558, -5.3303286651774915, -2.9217722274306532], [-7.156821930444097, 3.8303648099277225, 2.1880404122903516, -7.11675282301211, 3.6333477711704143, 1.7411894873337366], [-0.13590977135753224, -6.491712138364313, 2.4011141437803727, 0.14374486367195866, -4.478568368330778, 2.3008514069497608], [0.3477989163040746, -1.4693537252231696, 0.5640214569640293, 2.080269840770291, 1.948270001919045, 1.3235250935325824], [-0.04147710270748924, -5.154159201757183, 3.97294324817032, 0.07240974183336969, 4.778035084450907, 3.527373427176271], [-0.05714333815206375, -2.569268271605578, -1.8845246598384122, 0.4231598584905822, 0.5165658147375605, -2.2117717208302663], [-0.4171375466013459, 0.1694993320400542, 6.573399655391145, -0.3384716657685044, -0.21078676675233637, -7.066264379241227]], [[-9.049795863707821, 4.788893590271309, -7.634451767967108, -2.9955547557753572, -1.9800578881406985, -0.7418705756088655, 4.973749286189144, -0.08239977532911025, 0.013663149404062805, -4.077460227604543], [10.219994204543145, 2.448495110947146, 3.6998060590323414, -7.017394349182388, -13.137650732618713, -3.447388384478742, 3.0711727047759485, 0.8685707690218158, -4.017319061540489, 0.505928305602838], [3.4029734690162323, -0.31638669857553187, -3.8960284011154735, 8.936840066373225, -0.3027640790161317, -8.809005385787184, -2.4337116831635193, 8.320813441898208, -3.7791847988998652, -0.9796155293473928], [-0.16922069728425554, -11.239839258256367, 0.6930509311420683, 0.43490381663729216, -0.1288201993669603, -0.6423780795244496, 2.1267630065589183, 0.6887041685624063, -0.5640185364479573, 11.601635790620978]]], "sizes": [6, 10, 4], "biases": [[[13.422627204516228], [1.677047350671318], [7.291909187767836], [9.061812095222296], [0.4842407733845034], [1.6284710161414153], [0.015134591766018866], [-5.254070950704659], [2.4256075190168036], [-3.089148501123385]], [[3.7923304416548755], [0.7912781082947122], [-0.5760479945499368], [3.361134633252814]]]}