{"weights": [[[0.21583685033668204, -1.4324189007864376, -0.5474818793710144, -0.8964122411044929, -2.5584455713761054, -0.11805708521634523], [0.6848882122099333, 1.173499196597736, -5.434990414397984, 0.6364447778892706, 0.4553934751600605, 6.466889556232192], [-3.5475322600409127, -1.5412168121865897, -0.8086385588362774, -3.4505227257459268, -1.4046789147343886, -0.8076877032182985], [1.1470744119603618, 0.28965109362893143, 5.14164568490244, 0.9941023196062835, 0.4384011994138169, -4.620356195476209], [-3.893214437859375, -1.8845337050005497, -1.0752617357134835, -3.8473124627872552, -1.7802324267292255, -0.7663098254359075], [-3.9855191432351615, -2.5936089714065824, -1.0878107422656262, -5.057347395162516, -2.576284873074387, -1.2508525189325517], [-3.5044203347529765, -1.3992310229027658, -0.5829226647499801, -2.5654456915328385, -1.4038696087568894, -0.7587768973653045]], [[1.9404657264964806, -5.091647231531576, 7.28231049759596, -4.008592546474679, 10.057397181322226, 5.299601733560789, 4.2048458698249], [-0.17154698088260353, -5.235298020965425, 1.0940122138195325, -5.675382035669096, 2.8043008908793094, 8.149119589200673, 5.22141929982493], [0.7635691709779457, -5.797661968867142, 0.8935388762756258, -5.224029065168978, -0.8002128877621697, -1.3305513526485746, -0.1941392237146308], [1.1783237881013298, -3.483984389130824, -0.6545732089866922, -3.504850621808996, 0.6403649871636766, 2.928689571205756, 1.7522082354119934], [-4.6425345373268145, 1.942935493051365, -9.20878700813199, 1.2820598171349527, -2.612863821468735, -1.774259925586653, -3.2028750406898423], [0.820762458932212, 3.580878580311643, -3.1728008499226266, 3.747489462361664, -5.690393423407135, -4.915768713232375, -3.392285029861222], [0.7647410892265839, -0.7798541130289475, 5.6232419545063825, -0.9969067904796768, 1.928983868908735, 1.157269311223283, 2.030281162352173]], [[-9.269527814949882, -2.106572347259651, 0.20611594165828076, -1.6983212167666188, 3.041185116278103, 5.837491766691628, -1.6336008207184312], [10.975904375090568, -9.95242765277822, -0.5178366727186109, -5.382082398533443, 9.803412841093383, -3.014674833899449, -3.337793476461538], [7.943657794296801, 7.301107482186263, -0.9528276643797258, -4.835688888578722, -4.244598778281902, 7.885145503228891, -7.029252433192542], [-0.8345089581866764, 0.43180992404965474, 12.399555587174088, 2.4268054253125757, 0.42931047669537375, -1.8288538670234569, -2.4598600434255053]]], "biases": [[[2.7795126855842534], [1.6423210077810064], [8.123972779595357], [0.4742522297112643], [6.311601234120254], [3.941803900893587], [3.006762408456236]], [[-4.39661658414826], [-2.647581067578175], [7.709141078969497], [-0.789812254213874], [0.4703120892044197], [2.73019845788159], [-2.4499506940302287]], [[0.40705904479336913], [-0.5983485293902645], [-4.3643874676398475], [-3.0445019818216315]]], "sizes": [6, 7, 7, 4]}