{"biases": [[[-3.610922223988557], [-0.18873541077309408], [-3.485914524880554], [3.0053859689106805], [7.0480863102516835], [-2.629944173659784], [7.38840709836876], [-2.6688871289386076]], [[-0.20917201833448643], [-1.888990707086004], [0.497846832049285], [-0.6752840733042785], [0.09536115710080371], [0.3274750167804303], [-2.0899416977629723], [-0.19020811151865083]], [[-6.378993558769642], [5.919022753419026], [-3.028680975932241], [3.333040270492023]]], "sizes": [6, 8, 8, 4], "weights": [[[1.6808345780668885, 1.2811785402769897, 0.2016593555297516, 3.0964911895253726, 0.9615824506579814, 0.9750444993388537], [1.6832504947009101, 0.5749460469600012, -3.9899667494624285, 1.0536061824731908, 0.7083507857611967, 5.766281689206063], [2.9252274120998742, 1.5149283126777084, 1.3985882394429872, 2.020585690389712, 1.7446821615033168, 0.7385626436411159], [-2.3467841859931133, -1.4240377050718036, -2.3550746190112433, -2.104223512695382, -1.3601472892899285, 0.7570453936913351], [-1.9488916464064683, -1.7655043036272122, -0.3756344811281976, -2.983216617570118, -1.7768199645003475, -1.2582331731648755], [-1.2288659965100592, -0.27859995627829537, -5.822031277876333, -0.6653107165843453, -0.5734623880499427, 5.8032794111931185], [-3.8162459667020787, -1.3307966768335793, -1.4932972542563392, -3.0846657726862574, -1.5373179011494038, 0.05654159336363185], [3.755792562840772, 1.1807493700856986, -0.29916144401425104, 3.767511951497097, 1.1112635678773721, 0.11841215399593397]], [[3.2017356014685, 4.179577145679881, 3.3360663141699574, -3.153751422885547, -3.337056081705299, -2.156018303255968, -4.919639826932593, 4.136867805666662], [2.637540089630646, 2.4335779070535533, 1.2071716756280737, -0.7988593331033517, -3.7321639282698618, -2.104007774695574, -4.870729455287676, 1.3643437988894989], [-3.1795565003791304, -3.6281142852346413, -4.327458765300255, 3.1493034155191957, 1.8934431445613744, 1.8401251619859964, 1.7515040960268962, -4.3630257577565095], [2.465588321762855, 1.8512359765127089, 0.5366871222062095, -1.4124147763556696, -7.629817962444885, -1.5651273191315522, -5.4270679399745525, -0.43731780463185493], [-0.3285731647450716, -2.421783056424399, 1.4223671854829998, -0.4918247625326627, -0.1421809290309703, 2.826067891484322, -0.002439744124524437, 0.9697574666319845], [-2.96101866787507, -3.199083017789278, -3.5083664764643014, 2.537386881818739, 1.5950157426276859, 1.8312126305852972, 1.6982659577869454, -3.891085786952941], [-0.3723869540126324, 5.100564520715679, -2.803837628575186, 1.1254127064316553, -1.4834547921601184, -6.572300888297274, 2.636522497898335, 1.466272402876403], [4.432473506739359, 6.344518832868648, 3.614772174192994, -5.112464956567531, -5.817914295986242, -2.594494330537742, -9.528265253485424, 3.1073295372525838]], [[4.220003226462301, 2.0956193127038416, -2.354511818284584, 1.463515547026934, -1.3066347259008786, -3.2832610037883843, -1.9930924046008356, 8.301387817035492], [-4.199530209125703, 4.486515994883843, -6.348732660469626, 7.844935619016517, 2.008978769686515, -7.0521366780122445, 1.4371985271079248, -11.1471486518384], [7.400170100130418, 5.654985014831121, 2.922564554810928, -4.066945656040925, -0.0971800697871774, 1.3641782002539828, -0.4871274751070324, -7.162833219302819], [0.12112635495291828, -0.9830015860752797, 0.7500853723283759, -0.4700443322345746, 4.831158964455806, 1.1818700232576393, -10.948856762973373, -0.8823930988731729]]]}