{"biases": [[[8.667970477276395], [1.3144966222616172], [-12.810529670535614], [-2.1075158568412347], [-0.8246361449930139], [2.600943714879675], [-3.6686624022946903]], [[-4.432821310780032], [3.9248870236576496], [-0.5695128477288887], [0.305400400035484]]], "weights": [[[0.03977386557132625, -4.792615794844831, -2.8065215536296146, 0.2221085770428617, -5.224677682497174, -2.306363737461539], [-0.6535652373892515, -5.2403224557117305, 2.954026303903801, -0.35315504237210144, -5.580849708569115, 3.0737349275179313], [6.648738059436599, 3.5404325062995414, 1.6499330458043364, 6.918968561655582, 3.5827934936184853, 1.5655612400281758], [-0.7902644171490107, 0.3148354214969831, 5.43973911069781, -1.1338031584379313, 0.4629194581076352, -7.1675774978384625], [5.2630975403422635, -2.2867357175768435, -1.916670315876454, 5.582959276270907, -2.4705250224354436, -1.4095510772441007], [0.02238809859815764, 0.08912057412989412, -5.333451385457862, 0.0625794965232222, 0.19679300585443388, -7.329997614275871], [1.8516904795680793, 0.019105272043160454, 5.079236678473894, 0.7530429405565089, -0.8614455679779335, -0.1935488093343441]], [[-5.519854972872336, -2.354161263244628, 9.739562905971098, -4.332414911031695, 4.760607529502161, -0.0779612696910262, 4.402693578996071], [-6.420429771168406, -2.4983429413208866, -10.582763086766793, -1.3288350082921405, 9.67509899377844, -1.6064338038670385, 1.927957356926919], [7.407224569144976, -8.091144309671636, -1.1136224760502074, -4.530949019517606, -1.3986743988546604, -2.2342728033455264, 4.815072523643144], [4.877829296700512, -4.447289595740281, 0.5674586450461766, 7.831283816760045, 2.0529888150671614, -10.857184783061935, -5.115239423609977]]], "sizes": [6, 7, 4]}