{"weights": [[[2.090283184458957, 0.811951598462561, -1.474617540317437, 2.2902153099893243, 1.076386513861378, 2.570111892138033], [-3.7497517303966967, -1.7218797868192197, -0.20753361984521818, -3.7741678107864622, -1.8226290524987268, -0.5787270336796323], [0.03187998292703058, 1.073125753095008, 5.945102453626531, 0.9338485125252359, 0.030738311590163808, 6.025640568924971], [-2.695088479000857, -1.1840707839735178, -0.37930010591496877, -2.9809201491503714, -1.558852239627594, -1.0938250361466766], [-0.3407269942689206, 0.6937747929271999, -2.92171070019436, 0.2321768228322401, 0.22431727959632503, -3.1590671577900884], [2.053744592715431, 1.9725816806668282, 5.29066289617517, 1.9739051246394153, 1.1281259806502462, -2.78822786525634], [3.750614271006788, 1.376721471420944, 0.33825996142166986, 3.3666850089125533, 1.6612800786202817, 0.7835398761690211]], [[3.839940719665019, -9.260639811711648, -0.48587163706104136, -8.816348624226782, -2.6174958314210364, 6.437301453165437, 5.475887923062102], [-4.441196174550555, 3.484099861590921, 0.8840074501224544, 2.515304583792085, 0.5362721373560116, -4.713372097360865, -5.691786067349183], [0.021127161059172634, 1.9067213621136674, -4.036838479527402, 2.872295298577737, -3.0572219028371626, 1.3181945407000024, 0.2819698746998822], [-3.0784070843029943, 4.404587604292239, 0.5803696839268967, 2.9116044930527534, 0.9452022379802272, -3.891601460197849, -3.99200668534188], [3.41450564674748, 3.2215444715936035, -6.305306422724743, -3.3030208263998073, -4.142270020920503, 4.039273317666886, -0.6060436207262329]], [[8.760713818997218, -2.268014794147514, -2.097848360345731, -6.461481335827987, -0.6289911008891526], [-8.159322564298332, -8.784387588623757, -6.807176263424145, 1.777408901014683, 5.30797514709992], [-5.962276292995877, 3.9046129852961298, -2.8915476242347955, -6.350630236685218, 1.4970578041337896], [1.2650402065901567, -0.6080292577051815, -3.9690376776620497, 1.3848175772988875, -11.079284742057725]]], "sizes": [6, 7, 5, 4], "biases": [[[-1.622088201825667], [5.370432973619883], [-2.466719567698612], [6.758805918684527], [4.255818638277504], [-1.8295226031419758], [-3.530451588636745]], [[-0.9433539684708582], [0.3194597017741092], [1.4320443291743958], [1.3478755994309561], [3.6707083266842337]], [[-1.9597118569109444], [5.683968161979405], [5.072021014739828], [6.5893023809864255]]]}