{"weights": [[[2.32512268045015, -1.0789603988583238, -0.35807516167860315, 3.200092576581866, 5.495900200120726, -0.6271719869558565], [2.570288585861964, 1.595594833765178, 0.8812433416247812, 1.8743329028766829, -5.617708849173592, 0.12570054954346296], [3.944254058119763, 0.08811971805722787, 0.0893698951599719, 2.140268229444841, -1.5051704189224726, -0.1701238300677038], [-0.22538319437693588, -0.29539849784696687, -6.877314981950936, -0.05833397487566055, -0.5129855027221735, 6.5486901680753125], [0.3694764423035115, -6.479639183121584, -3.509442899669573, -0.8483875047485836, -5.6721973792509015, -3.429432441402871], [-5.482112089258484, -1.8242600522681036, -0.5848083419529757, -5.356851351993547, -3.0201403165119545, -0.6553632346397515], [0.2830226683597856, 8.289306945492429, 4.0414001275623646, -0.4773992260215602, -7.140870279053546, 4.306128587392347], [-0.14263844033885306, -0.26426759683882506, 6.517788254900723, -0.38746219468614945, 0.11759206371404232, -6.822022379283865], [-9.3843077586437, -4.7772089071840425, -2.479828127974086, -9.450551912889287, -4.667742381895893, -2.748761162421439]], [[6.520921516486604, 4.120872433246132, 3.763912911419736, -1.8696046027138797, -3.8603372537127147, -2.9174951707722587, -1.6632050061388033, -1.9291076972813224, -10.693284195335226], [6.263255657885467, 3.8392101252186093, 3.623676251792552, 0.6481041226310785, -6.1171930491583035, -10.17924440037721, -0.8036742645242924, -0.18928564904073789, 15.151943229372462], [6.9024878525261295, -7.842484965933414, -0.9592108826336776, 0.2525888748886559, 10.286744549112376, -0.5299610455697267, 12.36218121235271, 1.535471252908924, -0.9732115439053344], [-1.3689893823963672, -0.45532132272763415, -0.5181007150806352, 11.337750286683853, -0.34249922579465364, -1.0518247224814834, -0.1360226695779859, 11.532134073479263, -0.8928784591858093]]], "sizes": [6, 9, 4], "biases": [[[-7.361778403322862], [0.5588553975945252], [-2.892839095099413], [-3.072134772945786], [11.184229374243921], [3.749035356319766], [-6.741391304889497], [-3.3023018986900046], [17.59976000473435]], [[2.9693224340205044], [-8.220121190574698], [-7.179260336597047], [-3.689701412263829]]]}