{"weights": [[[4.350414224332438, 1.0818992385596506, -1.2156624115912245, 4.493682926892808, 1.0221801751068462, -1.450219376263029], [-4.2125065567143025, -2.5237504729843847, -2.6750553236253514, -4.007377881848869, -2.9694715830776777, 0.11066642358532341], [0.5398630571106815, 0.18690631509123753, 4.778521318659013, -1.0203473718980347, 0.15861463068608586, 4.916328686337781], [3.4588451747996096, 6.186127400019618, -2.445505052527715, 6.458248194754694, 3.1624693557309844, 3.6824310205036856], [1.0743341889168132, -5.001572752530837, -3.0618688981643776, 3.815174148080718, -5.075230788331437, -3.1814961478584562]], [[-3.5369184802758156, 6.0979657707786075, -1.3259069164159134, -6.003069045591697, -5.205035299784259], [-3.8999600516251696, 14.390337587338008, 1.3239878474804556, -9.648720498928562, 0.118055555356762], [-4.151912734067803, 6.178904521982438, 0.4029932040319912, -5.505493078896527, 0.3514377079721672], [-2.0509764767459355, 4.752927772445125, -3.049278789235915, -4.987222537941051, -1.84840765442075], [2.188904798611783, 0.2812103009587031, -0.026064395685291612, 0.9946768892497968, -4.331164968363309], [0.5761665836140092, 0.39646271550867246, -1.4741948386593442, 0.4761724053961468, 0.2805066548931699], [-2.336451576449522, -6.047027436926994, -2.25827266063944, 5.030342842891294, 1.6034862538460106], [6.1987743388239736, -1.2589024808678524, 0.02633573188164829, -1.4889011185353318, -6.047948906038703], [-5.505690212203951, 0.6570197927724054, -3.84035966806881, 2.451865440837669, 1.7519121703899772], [-0.6635069827528247, -0.34553844474311657, -0.5105873577855609, 0.0025027990102747134, -0.4109228018202897]], [[-1.2827516201558142, -8.477809561252831, -4.3039136143087955, -1.8029883369874575, -0.03627702421936344, 0.08370676292713707, 6.3030613566360785, 1.6471607447310022, -1.2606760020866616, 0.4024461304347346], [-7.126108090236643, 12.183729964806775, -1.9145043107792783, -7.103346525113632, 2.0654947220833275, 0.15990428126249842, -4.50114259009559, 7.535865230957265, -4.47762707484121, -0.31303858820314956], [7.682341064432828, 8.823715938976342, -9.09973277861499, 2.2704019445522876, -3.338627589079186, 0.14060150262728938, 6.702720669037909, -4.9224614913885745, -4.802791288384727, -0.3495863310666199], [-1.403964957764042, 2.419069702728342, 1.4712100152616523, -3.536160206601644, 0.11058128164072978, -1.05872765458392, -3.535644408319454, -0.2589079858770666, -6.141244073393652, -0.6041330668719856]]], "biases": [[[-4.343408220544996], [7.977917692850365], [-0.9050177710488203], [-8.001620808047592], [3.7373280106676825]], [[-2.3295333437932437], [1.9790953899562984], [-0.24822291421772202], [-0.2416436252649446], [-2.3608574319322924], [-1.9495305743356597], [-0.9573591872979722], [-3.031633824295666], [2.4654981884595584], [-0.9776275774014455]], [[2.2119711687809884], [-2.414986442848589], [-1.2404144405300037], [3.1082750154007455]]], "sizes": [6, 5, 10, 4]}