{"weights": [[[-0.5262846320017319, -0.4117026751547259, 4.41618204056946, -0.7542452110531251, -0.2034508015556514, -4.513316992327324], [1.2724997884727287, 0.5332311886529364, 6.506882299467663, 1.0908341827790906, 1.0776596304080446, -5.574430033807027], [-2.7708503955135475, -1.93561474153392, -0.5910848204086916, -2.6755818776389435, -1.340675892066221, -0.772822240027286], [-3.08398847171551, -1.300080831949924, -0.2558026282178302, -3.4160728353665433, -1.6738951904310446, -1.6564755410730758], [4.642725700153606, 2.585387850994915, 0.6084145380652458, 4.6939454832886645, 2.0834102936556587, 1.4900969598237916], [-3.5985592774176696, -1.4289747939322195, 0.3321498105706738, -3.294140134786724, -1.4754960511091357, -1.4086316881788647]], [[1.6458660493230752, -4.2839958264193285, 1.170652929329391, 3.4269557425452684, -10.661457080610663, 4.723885439802294], [-0.010225594128592266, 3.041294165380465, -4.979536993920067, -6.328510341434976, 3.3316543206342835, -4.00015382158623], [-7.0508760862217015, 6.77300156165138, -0.23330223593863716, 0.036599647666757794, -2.4666192525494712, -0.5473757122541673], [-0.8545422903827293, 7.289306055727395, -4.568587880089245, -9.901352264552372, 8.301301863671839, -8.344031266173086], [0.1841456069427337, 2.7557863597472054, -2.600870766940874, -2.3047554915895048, 6.565109919425142, -4.161569117656771], [-0.6066898619051146, 2.739567157382587, -8.176560130897888, -6.120555957121227, 1.2668723468970355, -1.5104718087386748]], [[-5.004885306022052, 5.210003183357591, -2.103287920500636, 10.083106667153263, 1.2394577278945478, 1.3733236345215571], [-10.194236900385127, 3.518594602622818, 1.5078315527812154, -14.283275290851856, 1.8886248495717324, 8.763068779395342], [5.06566328569905, 7.461772455158383, 0.7403819839230859, -8.847972480308762, 9.088567973630965, -4.8099513330198675], [2.333011196163152, 1.8416995670958902, -12.144827681666431, -0.9162948318005604, 1.8215403353086896, -0.07927267318872425]]], "biases": [[[-1.7859901734529775], [1.4143823071762855], [7.455438456946725], [7.501375867061689], [-4.962679942287509], [4.8222665182958115]], [[-1.9424852667330053], [0.7684907422493542], [-1.6724931320750198], [0.5626847943878779], [0.12994050660678436], [0.3400672793677421]], [[-5.56344171983214], [3.8967957551156385], [-4.414335637485353], [4.004706717593142]]], "sizes": [6, 6, 6, 4]}