{"biases": [[[1.749992157557552], [-0.9387659506107735], [0.7900506681214637], [-1.8177033652541286], [-2.3910197498667243], [2.129367814358479], [-2.0963319224064363], [3.523886714227919], [-9.717375224245922], [0.1577011375687582], [2.3373809258735965], [-0.650502950950692], [4.460786780863461], [-1.489656571070844]], [[-0.6174360516833516], [0.27831914418264636], [1.9661419705930665], [-0.9175353510164435], [0.7222449584902738], [-2.779802818279318], [1.340090547926704], [0.23209574090324037], [1.436270702051943], [-0.06912442014781686], [1.0065272053421794], [1.1583894920731135], [1.724532031872756], [0.9344497016783073], [1.0845417126477606], [-1.1102624777755974]], [[-1.5675038268880401], [0.17648496408759842], [1.307780669584729], [0.06803948819352762], [1.211623412282773], [1.5282300742240693], [0.8873680741516149], [0.10556922312818122], [0.18273627292533762], [0.7521228629474157], [0.36593540147491194], [0.03327225981331316], [0.17890418205547406], [-0.11754990441387572]], [[-3.5419599787962333], [0.11778444988708547], [4.722878606311043], [6.008973097551717]]], "cost": "CrossEntropyCost", "sizes": [6, 14, 16, 14, 4], "weights": [[[-0.3053747520890924, -0.04514266383321679, 0.029864100640623684, -2.011408303862606, -1.4097159840392388, 0.3240664614606469], [-0.6111812391292611, -0.15582830538634138, 2.5219831976901363, -0.6900222409822219, -0.129636948231527, -2.3967475696803113], [-1.405777077718474, -0.17253023298397435, -0.8944648134937263, -0.5900263329409786, -0.052325569642531, -0.46258324879788826], [-0.8233323612834604, -0.5712011527916903, -6.284036853574004, -0.46558783173498164, -0.4615338779844156, 5.619291442010833], [3.2326627742599787, 1.9524947259628507, 0.021333379738496278, 2.9563754672784923, 1.7473174292201967, 1.5290048714838227], [-0.5497351881174737, -1.3438807694663888, 0.1336097755797758, -2.6439826972559852, -0.042850495314878057, -0.08734384542314], [1.4825320764033252, 1.435546421446824, 0.855697706875456, 2.6303906758651228, 1.561650229943013, 0.39234828107058056], [-1.023504937965779, -0.9661339443636738, 0.1148167778027441, -1.246046532285426, -1.1471845068266975, -1.2401193780268425], [1.890946234788892, 2.322685612872187, 0.8168488122600109, 3.147105692384486, 1.5763372642742597, 1.6315040721646474], [0.03478170154336566, -0.8630718870939952, 0.5773960698612959, -0.8482078499653602, -0.9237285450757164, -0.6792994777156374], [-2.8983531832735063, -0.5485812136798185, -0.6904480587749954, -1.6284372819397648, -0.5760079407221042, -0.2673761720148792], [0.3936708484276228, 0.492623847621885, -0.5540565026258993, -0.09385816970878237, -0.16659983489759148, -0.4523594740032268], [-3.260090843359221, -0.6775167222461543, -0.7446400312807216, -1.6047730924493913, -0.9072577979601877, -0.6018269391223857], [-0.4667608517078506, -0.29575419162939764, 3.8950983534645207, -0.8056718082540033, -0.3316186449539847, -4.0308256704473715]], [[0.09434921073898946, -0.31146457776311637, 0.030585654940584805, -1.020497301395704, 1.3898330237736507, -0.1279129788871536, 0.7021840700453491, -0.31306216587180125, 0.2702633857401334, 0.1124475557287093, -0.5061081775278672, 0.4524658831951672, -1.1282852839067783, -0.5433252911781177], [0.6565789129429456, -1.197251067979222, 0.4842659492876832, -3.3581618603208083, 0.2571227499235972, 0.5973163933656408, -0.2918133047571106, 0.4787901474636009, -2.28650343539419, 0.1628215883281091, 0.1665225415905967, 0.7915304422532359, 0.6746561436586292, -2.802675858271656], [-0.8191083588958116, -0.3199448545805392, -0.28701569290361945, -1.6166001580922107, 3.617072368069438, -1.138440335214217, 2.9024533740545455, -0.3570369093661541, 2.190762067172329, -0.17785796361569958, -1.564759785885207, 0.9514657247169157, -1.4607473073913, -0.2188631150752326], [-1.3031631872447325, -0.4094446188432252, -0.9558132046161396, -1.413169139571454, 4.259407939945777, -1.7723121124613699, 3.006935199682503, -1.833960717057949, 4.573502759537897, -1.0935674965997593, -2.616033825266953, 0.21854289808855412, -3.506525084756669, -0.7245060567953386], [-0.46423709475503566, -0.9933756155022597, -0.5598058571638992, -2.0167737410530435, 2.7121758736777157, -0.9152717904284821, 1.800656543262232, -0.7389617004318297, 2.242396125001232, -0.5142909446580368, -1.2993975684648207, 0.03469323641019149, -0.9416482777499539, -1.059012433934362], [-0.281038560176723, -0.33461733875906985, 0.1532395957695835, -0.14702365279997323, 0.3136526112801376, -0.403668605088497, 0.4025287719668863, 0.043208767049156056, 0.3871517926029641, 0.0601606342465945, 0.5017857978052177, 0.022215130967019773, -0.7387027412389111, 0.05397541198474849], [-0.3361237359965536, -0.15921921153809485, 0.06382086389309329, -0.9791854897967381, 3.903936696568478, -1.1374535513112447, 2.952377607858129, -0.7139264902379191, 2.035453816161144, -0.8839182008679728, -1.249879908478285, 0.7288624870174039, -1.0132420186767825, 0.29734401254156967], [1.5155359270543947, 0.4899536418883215, 0.5398955719254653, 4.188728317606092, -0.7884397085561932, 1.452488954128682, -0.22525471597587451, 2.5213741435617543, -4.579390710829842, 1.377149820560941, 0.9638003368949103, -0.04689256005479711, 1.0520924772036298, 1.3918481683690838], [1.3237977436726018, 0.4892243045702801, 0.8282179031625937, 0.19006626495193446, 0.12926227142697863, 1.7768338664295509, -0.5034599288999995, 2.211423443715362, -4.886641691682333, 0.7476462373461344, 0.8813478036698419, 0.6980844493907504, 1.750403075546114, 0.07005207590425368], [0.5621905910542192, 1.298395551919593, -0.2889108455882076, 4.1072648271704475, -1.093193488582667, 0.7452368314944218, 0.050237009299519624, 1.6852507100239018, -3.0268779119423197, 0.3575554635097461, 0.27446413141894377, 0.16219387804415775, 0.7440146951775874, 2.0190820795260613], [1.8502870218798375, 0.5406886168004632, 1.0906261455003485, 1.6438025457944798, -2.63315157011271, 2.571933516452201, -2.0471322876198776, 1.6712442159649978, -4.7278010833542075, 0.7035815181014952, 2.1573228229725165, 0.02284678806620778, 4.584926979912566, 0.04285926706304144], [-0.6238439208896801, 0.08271879314678426, -0.8906680782095547, -0.45439907039804295, 2.9219300281949274, -0.7488724800373485, 1.7026922607352066, -0.8282636983200232, 1.1968274499648774, -0.020414444791417442, -1.9584070777968334, -0.3110156042023202, -1.6484055476553212, -0.36000701117879763], [1.1743189606545248, -0.1589272940602714, 0.6689871297893175, 0.7563614843234849, -1.6103570468802804, 0.7603469891522381, -1.534784448852052, 1.1171638276717226, -3.321671577364632, 0.31945062689984655, 1.2831245334216466, 0.32983049128695646, 1.5313169276050704, 0.391018675061198], [0.5468357406204358, 0.511509559287413, 0.7614231751373601, 0.32351027748804145, -1.8916613475265793, 0.5833758036249497, -1.9255495164659127, 0.8696669981426381, -3.485775205315951, 0.6361048670056036, 1.1494852118828498, -0.028852552419763346, 1.81242821039269, 0.30295335206235313], [-0.5841046517535351, -0.3423151469687369, -0.696260688659124, -1.1433440709564116, 3.213423491422599, -0.6942240255634307, 2.3088342595979556, -0.612337270773247, 1.8322267374379644, 0.14556404497566383, -2.3312234697622856, 0.35506058323264894, -1.399467070218128, -0.33064620725678895], [-0.7782050428821133, 2.3187401316197844, -0.3281764083148401, 5.156823940260409, -0.9221342460924733, -0.19976147811001063, 0.43734082423206266, 0.28606372940837016, -1.0273758705009122, 0.22729099909052944, -0.12256445360302926, -0.483422381211373, -0.8342033970478274, 3.916591099349809]], [[-0.8552590526385034, -1.4289823362712917, -4.254541667280008, -1.5795812437785397, -3.84008347369993, -0.07859585856796601, -3.045779018231822, -0.1379787411597828, -0.526118332032148, 1.0874694482743816, -0.33176579089513414, -2.4810616562196395, -1.6146492499667955, -0.4678251040386545, -3.6342425956719793, 1.8235352948167962], [-0.3258439528315067, 2.3655529988483384, -1.1185878396126931, -0.6342262928776834, -0.44688863316098604, -0.3899289159267527, -0.632393729882406, 3.6208385401757734, 6.0745553605511065, 2.6437523342678833, 2.7658721794764505, -1.0162238889890478, 1.629418917540449, 0.7513598335319257, -0.8068544436406834, 1.3877914798925044], [0.948284510349243, 0.650312389171468, 3.34839417021231, 0.01655068412926709, 3.3536986347095032, 0.06489393816060124, 2.7639629154602687, -2.566608487313923, -1.1811330582817394, -1.167349253147492, -0.11557939245133572, 3.492374953376338, -1.8858540288439654, -1.8385040875376402, 4.125608940838993, -1.2788512415072548], [-0.6274430788672669, -0.3517206650137089, -2.8057514959759082, -0.006741484846597439, -1.8383463207373771, -0.1339838544098074, -2.492589645697492, 0.8635733162463249, 1.2724583933630709, 1.4853783199328465, 0.04335886942261454, -2.876927826010119, 1.222010992262632, 0.9154310954907144, -3.5887256961831624, 1.4944938981536504], [1.2273493221977658, 5.227660316967455, 0.30496048422861227, -0.38827689854766323, 1.410160516013899, 0.1642314092038982, -0.2845270274019224, -2.700198068948652, 1.5929298646935481, -4.059368980171065, 1.766928775404039, -0.02507384018562342, 1.1167766188697887, 1.0162095031505638, -0.0716958066470395, -7.089270844942867], [0.6788838563242569, -0.3144915469030133, 2.6346808625003977, 4.286798730246593, 4.417308132795532, 0.09688160086878474, 3.0198775217120546, -1.6403584142132779, -2.055658528090412, -1.6588323243305323, -3.952270242284331, 4.404812279503601, -3.037832241744046, -4.297037368489553, 4.369524367235838, -0.19906421921567216], [0.902609694367348, -0.33969136617186396, 1.6387836961590447, 4.101156168807065, 1.8223344379854642, 0.4225333656189836, 1.9644179482428066, -2.357978119211032, -2.1026954735247925, -2.5096531073188992, -7.708032725460135, 1.6533661274644478, -3.030030110697371, -3.0365865078280123, 1.5740785394367942, 0.3004415804574344], [1.0055159583747195, -0.4266665407044013, 1.5619166107247207, 1.9102922127484872, 1.741650864659588, 0.22998944670330201, 1.4896984890788756, -5.835419056805297, -3.2686933977745585, -3.466385885302945, -5.359311385620656, 1.743290198066992, -3.2482477584409915, -2.2222525255838663, 1.897524489699506, -0.8392991788884073], [-0.5045058193559171, -0.5896054782957363, -3.966849213865968, -4.37791120404296, -3.7799078823092573, -0.2531941758409693, -3.2626250006844058, 1.2775257969238731, 0.06252339545920388, 1.5337699631466328, 3.7440402722243293, -2.449679146955924, 0.48197269170861395, 0.502488210619548, -3.552940010115595, 1.632304019336434], [-0.13708078694304726, 0.42412881908949834, -3.9406843670260323, -1.7901694453552779, -2.6551608933339157, -0.20368020983135937, -4.160142362975878, -0.5726529600335756, 0.5868500080119774, -0.04927497999116221, 0.8176886197240051, -1.6291231589296153, 0.28211989102829027, 0.2545697562930066, -2.453563314340938, 0.1747038432935608], [0.7812759567269845, -0.2204280986924335, 2.4835730697273486, 8.411995446492432, 3.061890038344559, 0.32076984505026374, 2.357394342008328, -1.7716668461947758, -1.69096709845376, -2.3903276974655774, -4.923068265563919, 1.242943047101575, -2.584862252670762, -3.0824728846168448, 1.8543020695928245, -1.6363458396776474], [-0.5717336909949886, 0.3569111435466317, -5.20681051512957, -2.3972883685142805, -3.483870379994284, -0.098906179966903, -5.723929928725123, 0.8240749360541372, 0.5204410953634062, 1.493345248062899, 0.2781122142233409, -1.6555776642275928, -0.3413610604664088, -0.16015223607834597, -2.9130955801682306, 1.065274105783703], [1.006985737676921, -0.029912011958712233, 1.5793428925629538, 6.875939435117882, 2.7622036792005393, 0.20571939835653, 2.1448853626540165, -1.4151142551878204, -1.4416318468195788, -2.132059113773703, -4.301377550903139, 1.4569299428832312, -2.419401093477199, -2.8686412445768594, 1.894778009374417, -1.3741850381721783], [0.6312709379960565, -0.41026878050187815, 1.15399105881269, 2.034341328640111, 1.690509427174978, 0.09799241971180965, 1.56401374895726, -4.527218632950229, -2.598986766247174, -3.227982086051342, -4.63662418548281, 1.4183241876579202, -2.718912522649807, -1.9561719858188786, 1.1752029184507784, -1.019207730272374]], [[-2.0002613374806395, -3.1896417139719833, -2.378600286059746, -0.5262827212563711, -0.21420626378639177, 0.42231626807119416, 1.4184085821767027, 0.5151358537932439, -5.389932989811762, -2.182793903060866, 8.479718731648509, -1.7432555347785696, 9.013386345212478, 2.717891740079408], [-7.622885926828352, -1.5417484040096674, 9.788482974359212, -7.59639515269372, 0.3027951895780894, 1.110996502150335, 1.7016538031157822, 7.518577328835396, 0.7016323594252234, -1.4547761820243514, -10.107233124495778, -2.504633780940646, -9.21403659618878, 7.670281544732341], [3.298479124305456, -10.384868980811033, -3.542946032849057, 3.764288170911047, 0.8695187897337799, 16.90870322078359, 15.366730456511855, -8.75589010974433, 9.488630536174645, -6.519613489400977, -10.38722674966358, -10.276978887247811, -5.627359818675394, -4.712961418118632], [0.6907297672935319, 0.6881734487591419, 1.3269038846605394, 1.2542342401136555, -17.221995031694068, 0.933195645327716, 0.20541486275189647, 0.3937130697118031, 1.3694210335824302, -1.4713864819488587, 0.3541103497290277, 0.13812822421482107, -0.8212600502406882, -1.4133458720481924]]]}