{"weights": [[[7.509970779321742, -4.333477676697469, -2.167619175300113, 7.421408993355493, -4.184310898079333, -2.1390213753525953], [0.35981491426676504, 0.2879024887355909, -6.240354300504987, 0.19494120245658944, 0.0037827018278059365, 7.0002935361024425], [5.307978037891664, 2.6096007154135097, 1.2152778437772833, 5.473017482169941, 2.6883453396769976, 1.3210405259494042], [-0.18150874014014637, -0.9153558706666728, 3.0895171497986498, -0.17626604945969646, -1.4799982839848638, 3.5438512039667938], [-0.08592451340768213, -5.338033226122637, -2.093026576903217, -0.37823881178026164, -5.239488413747118, -2.9458021483951105], [0.5866909457554401, -4.857883108534158, -2.042175004289775, -0.09098876488588876, -4.057985536845869, -1.7421852518861891], [0.3674731668380516, -5.9956448588133044, 4.149502036003044, -0.08906864939993647, -6.161756028561324, 4.085572322287346], [-3.5296494681791093, -1.9232097807828068, 1.4352127670877053, -2.756299703119632, -2.827229965275837, 0.590811017740965], [4.659678507043803, 1.2244989258671024, 1.3401479276653039, 4.656948924598965, 0.9497228494611787, 1.8267346010887129], [-1.0000603368040104, -0.017550659120130117, -6.6985352565581735, -0.7336132419585306, 0.22128576601962063, 5.27795870019476]], [[-0.2887519265050478, 2.9716050639957765, 7.033411144946367, -0.7161566758610656, -0.8712282865046707, -4.545009001852268, 0.2674606573537593, -7.210623221419324, 6.7473319736411606, -4.862644364494949], [11.297850060650289, 0.6463186952178913, -7.565117388228521, 3.8695060521882296, -1.755336151629001, -6.692200904233923, -0.2165699941590685, -4.082339015874722, -5.228785645654636, -0.8146187509978065], [1.2995370993026782, 1.0795780831752073, -2.1447743868740563, 4.981262164152662, -7.959325795994304, 6.627013092152067, -8.637879120747519, 1.605609480153847, 1.6431890946065326, -2.2166930134349214], [0.5786863772279875, -10.225806462555921, 0.5345507459291198, 2.7562519232665426, 0.21128948040810255, 0.4300015666586463, -1.171354543483409, 0.5171880825074149, 0.11512744852774565, 10.297049814181369]]], "sizes": [6, 10, 4], "biases": [[[-0.08800503653350399], [2.506782041502549], [-9.857787348656528], [-1.273589533238479], [2.987311362887738], [6.868539847522327], [-0.13064633939990586], [2.7803492679347555], [-7.929018104610307], [-1.7531319097109324]], [[-3.8502221355514568], [2.4422557428805884], [-3.39633501502409], [2.3790232051918774]]]}